svm_type c_svc
kernel_type rbf
gamma 0.0066666666666666671
nr_class 6
total_sv 1429
rho -0.24942366349617412 -1.9725922898417068 0.17970499595119102 -1.4879044866551345 -0.67867666314298847 -1.6632108006506146 -0.086297867408753989 -2.4542705642195086 -0.60443104561740102 2.3207259846895156 -0.46343598968062738 0.88818014839690596 -2.5098746514637567 -1.2731198011803608 1.4302282115242035
label 8 10 12 13 15 16
nr_sv 236 240 240 240 236 237
SV
8 8 8 8 8 1:0.087628866 2:0.051546392 3:0.17525773 4:0.43298969 5:0.25257732 6:0.39690722 7:0.27835052 8:0.087628866 9:0.10824742 10:0.12886598 11:0.35051546 12:0.33505155 13:0.1185567 14:0.13917526 15:0.056701031 16:0.015463918 17:0.056701031 18:0.27835052 19:0.5 20:0.14948454 21:0.36597938 22:0.43814433 23:0.1443299 24:0.025773196 25:0.025773196 26:0.61340206 27:0.17010309 28:0.0051546392 29:0.0051546392 30:0.20618557 31:0.48453608 32:0.42268041 33:0.067010309 34:0.0051546392 35:0.020618557 36:0.20103093 37:0.025773196 38:0.020618557 39:0.067010309 40:0.68556701 41:0.54123711 42:0.31443299 43:0.1185567 44:0.020618557 45:0.0051546392 46:0.16494845 47:0.24742268 48:0.17525773 49:0.24742268 50:0.16494845 
8 8 8 8 0 1:0.36 2:0.26 3:0.28 4:0.02 5:0.08 6:0.74 7:0.12 9:0.04 10:0.1 11:0.2 12:0.14 13:0.04 14:0.46 15:0.16 16:0.06 17:0.06 18:0.54 19:0.14 20:0.2 21:0.08 22:0.22 23:0.34 24:0.14 25:0.22 26:0.04 27:0.14 28:0.1 29:0.16 30:0.56 31:0.22 32:0.08 33:0.1 34:0.12 35:0.48 36:0.12 37:0.2 38:0.06 39:0.08 40:0.54 41:0.06 42:0.36 43:0.26 44:0.14 45:0.18 46:0.02 47:0.4 48:0.18 49:0.24 50:0.16 
0 8 8 8 8 1:0.073394495 2:0.11926606 3:0.28440367 4:0.43119266 5:0.091743119 6:0.04587156 7:0.33027523 8:0.27522936 9:0.18348624 10:0.16513761 11:0.28440367 12:0.18348624 13:0.22018349 14:0.26605505 15:0.04587156 16:0.40366972 17:0.091743119 18:0.064220183 19:0.13761468 20:0.30275229 21:0.11926606 22:0.34862385 23:0.091743119 24:0.04587156 25:0.39449541 26:0.11009174 27:0.11009174 28:0.31192661 29:0.44036697 30:0.027522936 31:0.33944954 32:0.44036697 33:0.13761468 34:0.036697248 35:0.04587156 36:0.37614679 37:0.10091743 38:0.39449541 39:0.055045872 40:0.073394495 41:0.36697248 42:0.10091743 43:0.11009174 44:0.21100917 45:0.21100917 46:0.19266055 47:0.29357798 48:0.04587156 49:0.018348624 50:0.44954128 
0 8 8 8 8 1:0.10185185 2:0.046296296 3:0.2962963 4:0.21296296 5:0.34259259 6:0.24074074 7:0.27777778 8:0.14814815 9:0.25925926 10:0.074074074 11:0.13888889 12:0.38888889 13:0.11111111 14:0.12037037 15:0.24074074 16:0.074074074 17:0.37962963 18:0.092592593 19:0.083333333 20:0.37037037 21:0.23148148 22:0.23148148 23:0.064814815 24:0.064814815 25:0.40740741 26:0.39814815 27:0.046296296 28:0.12037037 29:0.15740741 30:0.27777778 31:0.36111111 32:0.17592593 33:0.092592593 34:0.055555556 35:0.31481481 36:0.11111111 37:0.53703704 38:0.27777778 39:0.055555556 40:0.018518519 41:0.34259259 42:0.12037037 43:0.18518519 44:0.28703704 45:0.064814815 46:0.046296296 47:0.40740741 48:0.11111111 49:0.055555556 50:0.37962963 
0 8 1.1541151813348067 8 8 1:0.012903226 2:0.34193548 3:0.20645161 4:0.15483871 5:0.28387097 6:0.7483871 7:0.12903226 8:0.04516129 9:0.038709677 10:0.038709677 11:0.64516129 12:0.21290323 13:0.025806452 14:0.051612903 15:0.064516129 16:0.23870968 17:0.28387097 18:0.14193548 19:0.090322581 20:0.24516129 21:0.12903226 22:0.27096774 23:0.18709677 24:0.38064516 25:0.032258065 26:0.077419355 27:0.032258065 28:0.17419355 29:0.61290323 30:0.10322581 31:0.37419355 32:0.090322581 33:0.051612903 34:0.41290323 35:0.070967742 36:0.39354839 37:0.070967742 38:0.12903226 39:0.29677419 40:0.10967742 41:0.012903226 43:0.56129032 44:0.21290323 45:0.21290323 46:0.11612903 47:0.32258065 48:0.23870968 49:0.04516129 50:0.27741935 
8 8 8 8 8 1:0.28057554 2:0.15827338 3:0.079136691 4:0.10071942 5:0.38129496 6:0.12230216 7:0.26618705 8:0.23021583 9:0.32374101 10:0.057553957 11:0.17985612 12:0.15827338 13:0.13669065 14:0.48201439 15:0.043165468 16:0.079136691 17:0.20863309 18:0.20863309 19:0.39568345 20:0.10791367 21:0.086330935 22:0.35251799 23:0.09352518 24:0.38129496 25:0.086330935 26:0.021582734 27:0.043165468 28:0.12230216 29:0.25179856 30:0.56115108 31:0.014388489 32:0.057553957 33:0.20143885 34:0.56834532 35:0.15827338 36:0.20143885 37:0.38129496 38:0.23021583 39:0.09352518 40:0.09352518 41:0.29496403 42:0.09352518 43:0.050359712 44:0.27338129 45:0.28776978 46:0.34532374 47:0.14388489 48:0.079136691 49:0.028776978 50:0.4028777 
8 8 0 0 0 1:0.21768707 2:0.42176871 3:0.14965986 4:0.11564626 5:0.095238095 6:0.1292517 7:0.27210884 8:0.2244898 9:0.14965986 10:0.2244898 11:0.013605442 12:0.55102041 13:0.19727891 14:0.19047619 15:0.047619048 16:0.06122449 17:0.2244898 18:0.0068027211 19:0.054421769 20:0.65306122 21:0.034013605 22:0.24489796 23:0.047619048 24:0.23129252 25:0.44217687 26:0.27210884 27:0.074829932 28:0.13605442 29:0.29931973 30:0.21768707 31:0.074829932 32:0.11564626 33:0.034013605 34:0.13605442 35:0.63945578 36:0.068027211 37:0.29931973 38:0.42176871 39:0.17006803 40:0.040816327 41:0.55102041 42:0.14285714 43:0.013605442 44:0.23809524 45:0.054421769 46:0.25170068 47:0.034013605 48:0.040816327 49:0.06122449 50:0.6122449 
8 8 8 8 8 1:0.02 2:0.18 3:0.49 4:0.29 5:0.02 6:0.165 7:0.315 8:0.14 9:0.34 10:0.04 11:0.47 12:0.365 13:0.12 14:0.02 15:0.025 16:0.17 17:0.435 18:0.09 19:0.255 20:0.05 21:0.32 22:0.485 23:0.05 24:0.09 25:0.055 26:0.1 27:0.35 28:0.41 29:0.035 30:0.105 31:0.035 32:0.11 33:0.635 34:0.105 35:0.115 36:0.11 37:0.385 38:0.215 39:0.235 40:0.055 41:0.155 42:0.09 43:0.16 44:0.325 45:0.27 46:0.095 47:0.4 48:0.04 49:0.165 50:0.3 
8 8 8 8 8 1:0.079787234 2:0.16489362 3:0.19680851 4:0.41489362 5:0.14361702 6:0.40425532 7:0.38829787 8:0.11170213 9:0.04787234 10:0.04787234 11:0.7287234 12:0.14893617 13:0.058510638 14:0.04787234 15:0.015957447 16:0.24468085 17:0.10106383 18:0.56382979 19:0.053191489 20:0.037234043 21:0.074468085 22:0.15957447 23:0.17021277 24:0.47340426 25:0.12234043 26:0.053191489 27:0.25 28:0.20744681 29:0.085106383 30:0.40425532 31:0.10106383 32:0.17553191 33:0.19148936 34:0.2712766 35:0.2606383 36:0.13297872 37:0.42553191 38:0.22340426 39:0.042553191 40:0.17553191 41:0.57978723 42:0.21808511 43:0.069148936 44:0.079787234 45:0.053191489 46:0.069148936 47:0.25 48:0.18617021 49:0.19148936 50:0.30319149 
8 8 8 8 8 1:0.045016077 2:0.25080386 3:0.35048232 4:0.12861736 5:0.22508039 6:0.1607717 7:0.37620579 8:0.29903537 9:0.11897106 10:0.045016077 11:0.38906752 12:0.40514469 13:0.15434084 14:0.032154341 15:0.019292605 16:0.057877814 17:0.035369775 18:0.19935691 19:0.5755627 20:0.1318328 21:0.11575563 22:0.11254019 23:0.21864952 24:0.50482315 25:0.048231511 26:0.022508039 27:0.061093248 28:0.08681672 29:0.52090032 30:0.30868167 31:0.26366559 32:0.11254019 33:0.23151125 34:0.25401929 35:0.13826367 36:0.061093248 37:0.30868167 38:0.36977492 39:0.18327974 40:0.077170418 41:0.16720257 42:0.29903537 43:0.33440514 44:0.16398714 45:0.035369775 46:0.048231511 47:0.11575563 48:0.18327974 49:0.4244373 50:0.22829582 
8 8 8 8 8 1:0.087628866 2:0.051546392 3:0.17525773 4:0.43298969 5:0.25257732 6:0.39690722 7:0.27835052 8:0.087628866 9:0.10824742 10:0.12886598 11:0.35051546 12:0.33505155 13:0.1185567 14:0.13917526 15:0.056701031 16:0.015463918 17:0.056701031 18:0.27835052 19:0.5 20:0.14948454 21:0.36597938 22:0.43814433 23:0.1443299 24:0.025773196 25:0.025773196 26:0.61340206 27:0.17010309 28:0.0051546392 29:0.0051546392 30:0.20618557 31:0.48453608 32:0.42268041 33:0.067010309 34:0.0051546392 35:0.020618557 36:0.20103093 37:0.025773196 38:0.020618557 39:0.067010309 40:0.68556701 41:0.54123711 42:0.31443299 43:0.1185567 44:0.020618557 45:0.0051546392 46:0.16494845 47:0.24742268 48:0.17525773 49:0.24742268 50:0.16494845 
8 8 8 8 0 1:0.36 2:0.26 3:0.28 4:0.02 5:0.08 6:0.74 7:0.12 9:0.04 10:0.1 11:0.2 12:0.14 13:0.04 14:0.46 15:0.16 16:0.06 17:0.06 18:0.54 19:0.14 20:0.2 21:0.08 22:0.22 23:0.34 24:0.14 25:0.22 26:0.04 27:0.14 28:0.1 29:0.16 30:0.56 31:0.22 32:0.08 33:0.1 34:0.12 35:0.48 36:0.12 37:0.2 38:0.06 39:0.08 40:0.54 41:0.06 42:0.36 43:0.26 44:0.14 45:0.18 46:0.02 47:0.4 48:0.18 49:0.24 50:0.16 
0 8 8 8 8 1:0.073394495 2:0.11926606 3:0.28440367 4:0.43119266 5:0.091743119 6:0.04587156 7:0.33027523 8:0.27522936 9:0.18348624 10:0.16513761 11:0.28440367 12:0.18348624 13:0.22018349 14:0.26605505 15:0.04587156 16:0.40366972 17:0.091743119 18:0.064220183 19:0.13761468 20:0.30275229 21:0.11926606 22:0.34862385 23:0.091743119 24:0.04587156 25:0.39449541 26:0.11009174 27:0.11009174 28:0.31192661 29:0.44036697 30:0.027522936 31:0.33944954 32:0.44036697 33:0.13761468 34:0.036697248 35:0.04587156 36:0.37614679 37:0.10091743 38:0.39449541 39:0.055045872 40:0.073394495 41:0.36697248 42:0.10091743 43:0.11009174 44:0.21100917 45:0.21100917 46:0.19266055 47:0.29357798 48:0.04587156 49:0.018348624 50:0.44954128 
3.083069392946971 8 8 8 8 1:0.10185185 2:0.046296296 3:0.2962963 4:0.21296296 5:0.34259259 6:0.24074074 7:0.27777778 8:0.14814815 9:0.25925926 10:0.074074074 11:0.13888889 12:0.38888889 13:0.11111111 14:0.12037037 15:0.24074074 16:0.074074074 17:0.37962963 18:0.092592593 19:0.083333333 20:0.37037037 21:0.23148148 22:0.23148148 23:0.064814815 24:0.064814815 25:0.40740741 26:0.39814815 27:0.046296296 28:0.12037037 29:0.15740741 30:0.27777778 31:0.36111111 32:0.17592593 33:0.092592593 34:0.055555556 35:0.31481481 36:0.11111111 37:0.53703704 38:0.27777778 39:0.055555556 40:0.018518519 41:0.34259259 42:0.12037037 43:0.18518519 44:0.28703704 45:0.064814815 46:0.046296296 47:0.40740741 48:0.11111111 49:0.055555556 50:0.37962963 
6.0546257322566355 8 8 8 8 1:0.012903226 2:0.34193548 3:0.20645161 4:0.15483871 5:0.28387097 6:0.7483871 7:0.12903226 8:0.04516129 9:0.038709677 10:0.038709677 11:0.64516129 12:0.21290323 13:0.025806452 14:0.051612903 15:0.064516129 16:0.23870968 17:0.28387097 18:0.14193548 19:0.090322581 20:0.24516129 21:0.12903226 22:0.27096774 23:0.18709677 24:0.38064516 25:0.032258065 26:0.077419355 27:0.032258065 28:0.17419355 29:0.61290323 30:0.10322581 31:0.37419355 32:0.090322581 33:0.051612903 34:0.41290323 35:0.070967742 36:0.39354839 37:0.070967742 38:0.12903226 39:0.29677419 40:0.10967742 41:0.012903226 43:0.56129032 44:0.21290323 45:0.21290323 46:0.11612903 47:0.32258065 48:0.23870968 49:0.04516129 50:0.27741935 
3.6230464713943848 0 0 0 0 1:0.32960894 2:0.089385475 3:0.05027933 4:0.027932961 5:0.5027933 6:0.11731844 7:0.54189944 8:0.22905028 9:0.067039106 10:0.044692737 11:0.17877095 12:0.72067039 13:0.022346369 14:0.011173184 15:0.067039106 16:0.05027933 17:0.089385475 18:0.067039106 19:0.51396648 20:0.27932961 21:0.05027933 22:0.061452514 23:0.1396648 24:0.37988827 25:0.36871508 26:0.033519553 27:0.039106145 28:0.061452514 29:0.24022346 30:0.62569832 31:0.016759777 32:0.083798883 33:0.36871508 34:0.45810056 35:0.072625698 36:0.11173184 37:0.36312849 38:0.45251397 40:0.072625698 41:0.061452514 42:0.18435754 43:0.26256983 44:0.27374302 45:0.21787709 46:0.2849162 47:0.17877095 48:0.011173184 49:0.022346369 50:0.5027933 
8 8 8 8 8 1:0.28057554 2:0.15827338 3:0.079136691 4:0.10071942 5:0.38129496 6:0.12230216 7:0.26618705 8:0.23021583 9:0.32374101 10:0.057553957 11:0.17985612 12:0.15827338 13:0.13669065 14:0.48201439 15:0.043165468 16:0.079136691 17:0.20863309 18:0.20863309 19:0.39568345 20:0.10791367 21:0.086330935 22:0.35251799 23:0.09352518 24:0.38129496 25:0.086330935 26:0.021582734 27:0.043165468 28:0.12230216 29:0.25179856 30:0.56115108 31:0.014388489 32:0.057553957 33:0.20143885 34:0.56834532 35:0.15827338 36:0.20143885 37:0.38129496 38:0.23021583 39:0.09352518 40:0.09352518 41:0.29496403 42:0.09352518 43:0.050359712 44:0.27338129 45:0.28776978 46:0.34532374 47:0.14388489 48:0.079136691 49:0.028776978 50:0.4028777 
8 8 3.4810902911945685 0 0 1:0.21768707 2:0.42176871 3:0.14965986 4:0.11564626 5:0.095238095 6:0.1292517 7:0.27210884 8:0.2244898 9:0.14965986 10:0.2244898 11:0.013605442 12:0.55102041 13:0.19727891 14:0.19047619 15:0.047619048 16:0.06122449 17:0.2244898 18:0.0068027211 19:0.054421769 20:0.65306122 21:0.034013605 22:0.24489796 23:0.047619048 24:0.23129252 25:0.44217687 26:0.27210884 27:0.074829932 28:0.13605442 29:0.29931973 30:0.21768707 31:0.074829932 32:0.11564626 33:0.034013605 34:0.13605442 35:0.63945578 36:0.068027211 37:0.29931973 38:0.42176871 39:0.17006803 40:0.040816327 41:0.55102041 42:0.14285714 43:0.013605442 44:0.23809524 45:0.054421769 46:0.25170068 47:0.034013605 48:0.040816327 49:0.06122449 50:0.6122449 
8 8 8 8 8 1:0.02 2:0.18 3:0.49 4:0.29 5:0.02 6:0.165 7:0.315 8:0.14 9:0.34 10:0.04 11:0.47 12:0.365 13:0.12 14:0.02 15:0.025 16:0.17 17:0.435 18:0.09 19:0.255 20:0.05 21:0.32 22:0.485 23:0.05 24:0.09 25:0.055 26:0.1 27:0.35 28:0.41 29:0.035 30:0.105 31:0.035 32:0.11 33:0.635 34:0.105 35:0.115 36:0.11 37:0.385 38:0.215 39:0.235 40:0.055 41:0.155 42:0.09 43:0.16 44:0.325 45:0.27 46:0.095 47:0.4 48:0.04 49:0.165 50:0.3 
8 8 8 8 8 1:0.079787234 2:0.16489362 3:0.19680851 4:0.41489362 5:0.14361702 6:0.40425532 7:0.38829787 8:0.11170213 9:0.04787234 10:0.04787234 11:0.7287234 12:0.14893617 13:0.058510638 14:0.04787234 15:0.015957447 16:0.24468085 17:0.10106383 18:0.56382979 19:0.053191489 20:0.037234043 21:0.074468085 22:0.15957447 23:0.17021277 24:0.47340426 25:0.12234043 26:0.053191489 27:0.25 28:0.20744681 29:0.085106383 30:0.40425532 31:0.10106383 32:0.17553191 33:0.19148936 34:0.2712766 35:0.2606383 36:0.13297872 37:0.42553191 38:0.22340426 39:0.042553191 40:0.17553191 41:0.57978723 42:0.21808511 43:0.069148936 44:0.079787234 45:0.053191489 46:0.069148936 47:0.25 48:0.18617021 49:0.19148936 50:0.30319149 
8 8 8 8 8 1:0.045016077 2:0.25080386 3:0.35048232 4:0.12861736 5:0.22508039 6:0.1607717 7:0.37620579 8:0.29903537 9:0.11897106 10:0.045016077 11:0.38906752 12:0.40514469 13:0.15434084 14:0.032154341 15:0.019292605 16:0.057877814 17:0.035369775 18:0.19935691 19:0.5755627 20:0.1318328 21:0.11575563 22:0.11254019 23:0.21864952 24:0.50482315 25:0.048231511 26:0.022508039 27:0.061093248 28:0.08681672 29:0.52090032 30:0.30868167 31:0.26366559 32:0.11254019 33:0.23151125 34:0.25401929 35:0.13826367 36:0.061093248 37:0.30868167 38:0.36977492 39:0.18327974 40:0.077170418 41:0.16720257 42:0.29903537 43:0.33440514 44:0.16398714 45:0.035369775 46:0.048231511 47:0.11575563 48:0.18327974 49:0.4244373 50:0.22829582 
8 8 8 8 8 1:0.087628866 2:0.051546392 3:0.17525773 4:0.43298969 5:0.25257732 6:0.39690722 7:0.27835052 8:0.087628866 9:0.10824742 10:0.12886598 11:0.35051546 12:0.33505155 13:0.1185567 14:0.13917526 15:0.056701031 16:0.015463918 17:0.056701031 18:0.27835052 19:0.5 20:0.14948454 21:0.36597938 22:0.43814433 23:0.1443299 24:0.025773196 25:0.025773196 26:0.61340206 27:0.17010309 28:0.0051546392 29:0.0051546392 30:0.20618557 31:0.48453608 32:0.42268041 33:0.067010309 34:0.0051546392 35:0.020618557 36:0.20103093 37:0.025773196 38:0.020618557 39:0.067010309 40:0.68556701 41:0.54123711 42:0.31443299 43:0.1185567 44:0.020618557 45:0.0051546392 46:0.16494845 47:0.24742268 48:0.17525773 49:0.24742268 50:0.16494845 
8 8 8 8 8 1:0.36 2:0.26 3:0.28 4:0.02 5:0.08 6:0.74 7:0.12 9:0.04 10:0.1 11:0.2 12:0.14 13:0.04 14:0.46 15:0.16 16:0.06 17:0.06 18:0.54 19:0.14 20:0.2 21:0.08 22:0.22 23:0.34 24:0.14 25:0.22 26:0.04 27:0.14 28:0.1 29:0.16 30:0.56 31:0.22 32:0.08 33:0.1 34:0.12 35:0.48 36:0.12 37:0.2 38:0.06 39:0.08 40:0.54 41:0.06 42:0.36 43:0.26 44:0.14 45:0.18 46:0.02 47:0.4 48:0.18 49:0.24 50:0.16 
0 8 8 8 8 1:0.073394495 2:0.11926606 3:0.28440367 4:0.43119266 5:0.091743119 6:0.04587156 7:0.33027523 8:0.27522936 9:0.18348624 10:0.16513761 11:0.28440367 12:0.18348624 13:0.22018349 14:0.26605505 15:0.04587156 16:0.40366972 17:0.091743119 18:0.064220183 19:0.13761468 20:0.30275229 21:0.11926606 22:0.34862385 23:0.091743119 24:0.04587156 25:0.39449541 26:0.11009174 27:0.11009174 28:0.31192661 29:0.44036697 30:0.027522936 31:0.33944954 32:0.44036697 33:0.13761468 34:0.036697248 35:0.04587156 36:0.37614679 37:0.10091743 38:0.39449541 39:0.055045872 40:0.073394495 41:0.36697248 42:0.10091743 43:0.11009174 44:0.21100917 45:0.21100917 46:0.19266055 47:0.29357798 48:0.04587156 49:0.018348624 50:0.44954128 
8 8 8 8 8 1:0.10185185 2:0.046296296 3:0.2962963 4:0.21296296 5:0.34259259 6:0.24074074 7:0.27777778 8:0.14814815 9:0.25925926 10:0.074074074 11:0.13888889 12:0.38888889 13:0.11111111 14:0.12037037 15:0.24074074 16:0.074074074 17:0.37962963 18:0.092592593 19:0.083333333 20:0.37037037 21:0.23148148 22:0.23148148 23:0.064814815 24:0.064814815 25:0.40740741 26:0.39814815 27:0.046296296 28:0.12037037 29:0.15740741 30:0.27777778 31:0.36111111 32:0.17592593 33:0.092592593 34:0.055555556 35:0.31481481 36:0.11111111 37:0.53703704 38:0.27777778 39:0.055555556 40:0.018518519 41:0.34259259 42:0.12037037 43:0.18518519 44:0.28703704 45:0.064814815 46:0.046296296 47:0.40740741 48:0.11111111 49:0.055555556 50:0.37962963 
8 8 8 8 8 1:0.012903226 2:0.34193548 3:0.20645161 4:0.15483871 5:0.28387097 6:0.7483871 7:0.12903226 8:0.04516129 9:0.038709677 10:0.038709677 11:0.64516129 12:0.21290323 13:0.025806452 14:0.051612903 15:0.064516129 16:0.23870968 17:0.28387097 18:0.14193548 19:0.090322581 20:0.24516129 21:0.12903226 22:0.27096774 23:0.18709677 24:0.38064516 25:0.032258065 26:0.077419355 27:0.032258065 28:0.17419355 29:0.61290323 30:0.10322581 31:0.37419355 32:0.090322581 33:0.051612903 34:0.41290323 35:0.070967742 36:0.39354839 37:0.070967742 38:0.12903226 39:0.29677419 40:0.10967742 41:0.012903226 43:0.56129032 44:0.21290323 45:0.21290323 46:0.11612903 47:0.32258065 48:0.23870968 49:0.04516129 50:0.27741935 
8 0 0 0 0 1:0.32960894 2:0.089385475 3:0.05027933 4:0.027932961 5:0.5027933 6:0.11731844 7:0.54189944 8:0.22905028 9:0.067039106 10:0.044692737 11:0.17877095 12:0.72067039 13:0.022346369 14:0.011173184 15:0.067039106 16:0.05027933 17:0.089385475 18:0.067039106 19:0.51396648 20:0.27932961 21:0.05027933 22:0.061452514 23:0.1396648 24:0.37988827 25:0.36871508 26:0.033519553 27:0.039106145 28:0.061452514 29:0.24022346 30:0.62569832 31:0.016759777 32:0.083798883 33:0.36871508 34:0.45810056 35:0.072625698 36:0.11173184 37:0.36312849 38:0.45251397 40:0.072625698 41:0.061452514 42:0.18435754 43:0.26256983 44:0.27374302 45:0.21787709 46:0.2849162 47:0.17877095 48:0.011173184 49:0.022346369 50:0.5027933 
8 8 8 8 8 1:0.28057554 2:0.15827338 3:0.079136691 4:0.10071942 5:0.38129496 6:0.12230216 7:0.26618705 8:0.23021583 9:0.32374101 10:0.057553957 11:0.17985612 12:0.15827338 13:0.13669065 14:0.48201439 15:0.043165468 16:0.079136691 17:0.20863309 18:0.20863309 19:0.39568345 20:0.10791367 21:0.086330935 22:0.35251799 23:0.09352518 24:0.38129496 25:0.086330935 26:0.021582734 27:0.043165468 28:0.12230216 29:0.25179856 30:0.56115108 31:0.014388489 32:0.057553957 33:0.20143885 34:0.56834532 35:0.15827338 36:0.20143885 37:0.38129496 38:0.23021583 39:0.09352518 40:0.09352518 41:0.29496403 42:0.09352518 43:0.050359712 44:0.27338129 45:0.28776978 46:0.34532374 47:0.14388489 48:0.079136691 49:0.028776978 50:0.4028777 
8 8 8 0 0 1:0.21768707 2:0.42176871 3:0.14965986 4:0.11564626 5:0.095238095 6:0.1292517 7:0.27210884 8:0.2244898 9:0.14965986 10:0.2244898 11:0.013605442 12:0.55102041 13:0.19727891 14:0.19047619 15:0.047619048 16:0.06122449 17:0.2244898 18:0.0068027211 19:0.054421769 20:0.65306122 21:0.034013605 22:0.24489796 23:0.047619048 24:0.23129252 25:0.44217687 26:0.27210884 27:0.074829932 28:0.13605442 29:0.29931973 30:0.21768707 31:0.074829932 32:0.11564626 33:0.034013605 34:0.13605442 35:0.63945578 36:0.068027211 37:0.29931973 38:0.42176871 39:0.17006803 40:0.040816327 41:0.55102041 42:0.14285714 43:0.013605442 44:0.23809524 45:0.054421769 46:0.25170068 47:0.034013605 48:0.040816327 49:0.06122449 50:0.6122449 
8 8 8 8 8 1:0.02 2:0.18 3:0.49 4:0.29 5:0.02 6:0.165 7:0.315 8:0.14 9:0.34 10:0.04 11:0.47 12:0.365 13:0.12 14:0.02 15:0.025 16:0.17 17:0.435 18:0.09 19:0.255 20:0.05 21:0.32 22:0.485 23:0.05 24:0.09 25:0.055 26:0.1 27:0.35 28:0.41 29:0.035 30:0.105 31:0.035 32:0.11 33:0.635 34:0.105 35:0.115 36:0.11 37:0.385 38:0.215 39:0.235 40:0.055 41:0.155 42:0.09 43:0.16 44:0.325 45:0.27 46:0.095 47:0.4 48:0.04 49:0.165 50:0.3 
8 8 8 8 8 1:0.079787234 2:0.16489362 3:0.19680851 4:0.41489362 5:0.14361702 6:0.40425532 7:0.38829787 8:0.11170213 9:0.04787234 10:0.04787234 11:0.7287234 12:0.14893617 13:0.058510638 14:0.04787234 15:0.015957447 16:0.24468085 17:0.10106383 18:0.56382979 19:0.053191489 20:0.037234043 21:0.074468085 22:0.15957447 23:0.17021277 24:0.47340426 25:0.12234043 26:0.053191489 27:0.25 28:0.20744681 29:0.085106383 30:0.40425532 31:0.10106383 32:0.17553191 33:0.19148936 34:0.2712766 35:0.2606383 36:0.13297872 37:0.42553191 38:0.22340426 39:0.042553191 40:0.17553191 41:0.57978723 42:0.21808511 43:0.069148936 44:0.079787234 45:0.053191489 46:0.069148936 47:0.25 48:0.18617021 49:0.19148936 50:0.30319149 
8 8 8 8 8 1:0.045016077 2:0.25080386 3:0.35048232 4:0.12861736 5:0.22508039 6:0.1607717 7:0.37620579 8:0.29903537 9:0.11897106 10:0.045016077 11:0.38906752 12:0.40514469 13:0.15434084 14:0.032154341 15:0.019292605 16:0.057877814 17:0.035369775 18:0.19935691 19:0.5755627 20:0.1318328 21:0.11575563 22:0.11254019 23:0.21864952 24:0.50482315 25:0.048231511 26:0.022508039 27:0.061093248 28:0.08681672 29:0.52090032 30:0.30868167 31:0.26366559 32:0.11254019 33:0.23151125 34:0.25401929 35:0.13826367 36:0.061093248 37:0.30868167 38:0.36977492 39:0.18327974 40:0.077170418 41:0.16720257 42:0.29903537 43:0.33440514 44:0.16398714 45:0.035369775 46:0.048231511 47:0.11575563 48:0.18327974 49:0.4244373 50:0.22829582 
8 8 8 8 8 1:0.087628866 2:0.051546392 3:0.17525773 4:0.43298969 5:0.25257732 6:0.39690722 7:0.27835052 8:0.087628866 9:0.10824742 10:0.12886598 11:0.35051546 12:0.33505155 13:0.1185567 14:0.13917526 15:0.056701031 16:0.015463918 17:0.056701031 18:0.27835052 19:0.5 20:0.14948454 21:0.36597938 22:0.43814433 23:0.1443299 24:0.025773196 25:0.025773196 26:0.61340206 27:0.17010309 28:0.0051546392 29:0.0051546392 30:0.20618557 31:0.48453608 32:0.42268041 33:0.067010309 34:0.0051546392 35:0.020618557 36:0.20103093 37:0.025773196 38:0.020618557 39:0.067010309 40:0.68556701 41:0.54123711 42:0.31443299 43:0.1185567 44:0.020618557 45:0.0051546392 46:0.16494845 47:0.24742268 48:0.17525773 49:0.24742268 50:0.16494845 
8 8 8 8 8 1:0.36 2:0.26 3:0.28 4:0.02 5:0.08 6:0.74 7:0.12 9:0.04 10:0.1 11:0.2 12:0.14 13:0.04 14:0.46 15:0.16 16:0.06 17:0.06 18:0.54 19:0.14 20:0.2 21:0.08 22:0.22 23:0.34 24:0.14 25:0.22 26:0.04 27:0.14 28:0.1 29:0.16 30:0.56 31:0.22 32:0.08 33:0.1 34:0.12 35:0.48 36:0.12 37:0.2 38:0.06 39:0.08 40:0.54 41:0.06 42:0.36 43:0.26 44:0.14 45:0.18 46:0.02 47:0.4 48:0.18 49:0.24 50:0.16 
8 0 0 0 0 1:0.027777778 2:0.034722222 3:0.25694444 4:0.54861111 5:0.13194444 6:0.069444444 7:0.34027778 8:0.47222222 9:0.0625 10:0.055555556 11:0.0625 12:0.034722222 13:0.38888889 14:0.41666667 15:0.097222222 16:0.069444444 17:0.027777778 18:0.020833333 19:0.28472222 20:0.59722222 21:0.055555556 22:0.041666667 23:0.45138889 24:0.40972222 25:0.041666667 26:0.097222222 27:0.027777778 28:0.027777778 29:0.27083333 30:0.57638889 31:0.020833333 32:0.090277778 33:0.1875 34:0.076388889 35:0.625 36:0.0625 37:0.10416667 38:0.4375 39:0.34027778 40:0.055555556 41:0.125 42:0.13194444 43:0.50694444 44:0.20138889 45:0.034722222 46:0.0625 47:0.18055556 48:0.069444444 49:0.048611111 50:0.63888889 
0 8 8 8 8 1:0.073394495 2:0.11926606 3:0.28440367 4:0.43119266 5:0.091743119 6:0.04587156 7:0.33027523 8:0.27522936 9:0.18348624 10:0.16513761 11:0.28440367 12:0.18348624 13:0.22018349 14:0.26605505 15:0.04587156 16:0.40366972 17:0.091743119 18:0.064220183 19:0.13761468 20:0.30275229 21:0.11926606 22:0.34862385 23:0.091743119 24:0.04587156 25:0.39449541 26:0.11009174 27:0.11009174 28:0.31192661 29:0.44036697 30:0.027522936 31:0.33944954 32:0.44036697 33:0.13761468 34:0.036697248 35:0.04587156 36:0.37614679 37:0.10091743 38:0.39449541 39:0.055045872 40:0.073394495 41:0.36697248 42:0.10091743 43:0.11009174 44:0.21100917 45:0.21100917 46:0.19266055 47:0.29357798 48:0.04587156 49:0.018348624 50:0.44954128 
8 8 8 8 8 1:0.10185185 2:0.046296296 3:0.2962963 4:0.21296296 5:0.34259259 6:0.24074074 7:0.27777778 8:0.14814815 9:0.25925926 10:0.074074074 11:0.13888889 12:0.38888889 13:0.11111111 14:0.12037037 15:0.24074074 16:0.074074074 17:0.37962963 18:0.092592593 19:0.083333333 20:0.37037037 21:0.23148148 22:0.23148148 23:0.064814815 24:0.064814815 25:0.40740741 26:0.39814815 27:0.046296296 28:0.12037037 29:0.15740741 30:0.27777778 31:0.36111111 32:0.17592593 33:0.092592593 34:0.055555556 35:0.31481481 36:0.11111111 37:0.53703704 38:0.27777778 39:0.055555556 40:0.018518519 41:0.34259259 42:0.12037037 43:0.18518519 44:0.28703704 45:0.064814815 46:0.046296296 47:0.40740741 48:0.11111111 49:0.055555556 50:0.37962963 
8 8 8 8 8 1:0.012903226 2:0.34193548 3:0.20645161 4:0.15483871 5:0.28387097 6:0.7483871 7:0.12903226 8:0.04516129 9:0.038709677 10:0.038709677 11:0.64516129 12:0.21290323 13:0.025806452 14:0.051612903 15:0.064516129 16:0.23870968 17:0.28387097 18:0.14193548 19:0.090322581 20:0.24516129 21:0.12903226 22:0.27096774 23:0.18709677 24:0.38064516 25:0.032258065 26:0.077419355 27:0.032258065 28:0.17419355 29:0.61290323 30:0.10322581 31:0.37419355 32:0.090322581 33:0.051612903 34:0.41290323 35:0.070967742 36:0.39354839 37:0.070967742 38:0.12903226 39:0.29677419 40:0.10967742 41:0.012903226 43:0.56129032 44:0.21290323 45:0.21290323 46:0.11612903 47:0.32258065 48:0.23870968 49:0.04516129 50:0.27741935 
8 0 0 0 0 1:0.32960894 2:0.089385475 3:0.05027933 4:0.027932961 5:0.5027933 6:0.11731844 7:0.54189944 8:0.22905028 9:0.067039106 10:0.044692737 11:0.17877095 12:0.72067039 13:0.022346369 14:0.011173184 15:0.067039106 16:0.05027933 17:0.089385475 18:0.067039106 19:0.51396648 20:0.27932961 21:0.05027933 22:0.061452514 23:0.1396648 24:0.37988827 25:0.36871508 26:0.033519553 27:0.039106145 28:0.061452514 29:0.24022346 30:0.62569832 31:0.016759777 32:0.083798883 33:0.36871508 34:0.45810056 35:0.072625698 36:0.11173184 37:0.36312849 38:0.45251397 40:0.072625698 41:0.061452514 42:0.18435754 43:0.26256983 44:0.27374302 45:0.21787709 46:0.2849162 47:0.17877095 48:0.011173184 49:0.022346369 50:0.5027933 
8 8 8 8 8 1:0.28057554 2:0.15827338 3:0.079136691 4:0.10071942 5:0.38129496 6:0.12230216 7:0.26618705 8:0.23021583 9:0.32374101 10:0.057553957 11:0.17985612 12:0.15827338 13:0.13669065 14:0.48201439 15:0.043165468 16:0.079136691 17:0.20863309 18:0.20863309 19:0.39568345 20:0.10791367 21:0.086330935 22:0.35251799 23:0.09352518 24:0.38129496 25:0.086330935 26:0.021582734 27:0.043165468 28:0.12230216 29:0.25179856 30:0.56115108 31:0.014388489 32:0.057553957 33:0.20143885 34:0.56834532 35:0.15827338 36:0.20143885 37:0.38129496 38:0.23021583 39:0.09352518 40:0.09352518 41:0.29496403 42:0.09352518 43:0.050359712 44:0.27338129 45:0.28776978 46:0.34532374 47:0.14388489 48:0.079136691 49:0.028776978 50:0.4028777 
8 8 8 0 0 1:0.21768707 2:0.42176871 3:0.14965986 4:0.11564626 5:0.095238095 6:0.1292517 7:0.27210884 8:0.2244898 9:0.14965986 10:0.2244898 11:0.013605442 12:0.55102041 13:0.19727891 14:0.19047619 15:0.047619048 16:0.06122449 17:0.2244898 18:0.0068027211 19:0.054421769 20:0.65306122 21:0.034013605 22:0.24489796 23:0.047619048 24:0.23129252 25:0.44217687 26:0.27210884 27:0.074829932 28:0.13605442 29:0.29931973 30:0.21768707 31:0.074829932 32:0.11564626 33:0.034013605 34:0.13605442 35:0.63945578 36:0.068027211 37:0.29931973 38:0.42176871 39:0.17006803 40:0.040816327 41:0.55102041 42:0.14285714 43:0.013605442 44:0.23809524 45:0.054421769 46:0.25170068 47:0.034013605 48:0.040816327 49:0.06122449 50:0.6122449 
8 8 8 8 8 1:0.02 2:0.18 3:0.49 4:0.29 5:0.02 6:0.165 7:0.315 8:0.14 9:0.34 10:0.04 11:0.47 12:0.365 13:0.12 14:0.02 15:0.025 16:0.17 17:0.435 18:0.09 19:0.255 20:0.05 21:0.32 22:0.485 23:0.05 24:0.09 25:0.055 26:0.1 27:0.35 28:0.41 29:0.035 30:0.105 31:0.035 32:0.11 33:0.635 34:0.105 35:0.115 36:0.11 37:0.385 38:0.215 39:0.235 40:0.055 41:0.155 42:0.09 43:0.16 44:0.325 45:0.27 46:0.095 47:0.4 48:0.04 49:0.165 50:0.3 
8 8 8 8 8 1:0.079787234 2:0.16489362 3:0.19680851 4:0.41489362 5:0.14361702 6:0.40425532 7:0.38829787 8:0.11170213 9:0.04787234 10:0.04787234 11:0.7287234 12:0.14893617 13:0.058510638 14:0.04787234 15:0.015957447 16:0.24468085 17:0.10106383 18:0.56382979 19:0.053191489 20:0.037234043 21:0.074468085 22:0.15957447 23:0.17021277 24:0.47340426 25:0.12234043 26:0.053191489 27:0.25 28:0.20744681 29:0.085106383 30:0.40425532 31:0.10106383 32:0.17553191 33:0.19148936 34:0.2712766 35:0.2606383 36:0.13297872 37:0.42553191 38:0.22340426 39:0.042553191 40:0.17553191 41:0.57978723 42:0.21808511 43:0.069148936 44:0.079787234 45:0.053191489 46:0.069148936 47:0.25 48:0.18617021 49:0.19148936 50:0.30319149 
8 8 8 8 8 1:0.045016077 2:0.25080386 3:0.35048232 4:0.12861736 5:0.22508039 6:0.1607717 7:0.37620579 8:0.29903537 9:0.11897106 10:0.045016077 11:0.38906752 12:0.40514469 13:0.15434084 14:0.032154341 15:0.019292605 16:0.057877814 17:0.035369775 18:0.19935691 19:0.5755627 20:0.1318328 21:0.11575563 22:0.11254019 23:0.21864952 24:0.50482315 25:0.048231511 26:0.022508039 27:0.061093248 28:0.08681672 29:0.52090032 30:0.30868167 31:0.26366559 32:0.11254019 33:0.23151125 34:0.25401929 35:0.13826367 36:0.061093248 37:0.30868167 38:0.36977492 39:0.18327974 40:0.077170418 41:0.16720257 42:0.29903537 43:0.33440514 44:0.16398714 45:0.035369775 46:0.048231511 47:0.11575563 48:0.18327974 49:0.4244373 50:0.22829582 
8 8 8 8 8 1:0.087628866 2:0.051546392 3:0.17525773 4:0.43298969 5:0.25257732 6:0.39690722 7:0.27835052 8:0.087628866 9:0.10824742 10:0.12886598 11:0.35051546 12:0.33505155 13:0.1185567 14:0.13917526 15:0.056701031 16:0.015463918 17:0.056701031 18:0.27835052 19:0.5 20:0.14948454 21:0.36597938 22:0.43814433 23:0.1443299 24:0.025773196 25:0.025773196 26:0.61340206 27:0.17010309 28:0.0051546392 29:0.0051546392 30:0.20618557 31:0.48453608 32:0.42268041 33:0.067010309 34:0.0051546392 35:0.020618557 36:0.20103093 37:0.025773196 38:0.020618557 39:0.067010309 40:0.68556701 41:0.54123711 42:0.31443299 43:0.1185567 44:0.020618557 45:0.0051546392 46:0.16494845 47:0.24742268 48:0.17525773 49:0.24742268 50:0.16494845 
8 8 8 8 8 1:0.36 2:0.26 3:0.28 4:0.02 5:0.08 6:0.74 7:0.12 9:0.04 10:0.1 11:0.2 12:0.14 13:0.04 14:0.46 15:0.16 16:0.06 17:0.06 18:0.54 19:0.14 20:0.2 21:0.08 22:0.22 23:0.34 24:0.14 25:0.22 26:0.04 27:0.14 28:0.1 29:0.16 30:0.56 31:0.22 32:0.08 33:0.1 34:0.12 35:0.48 36:0.12 37:0.2 38:0.06 39:0.08 40:0.54 41:0.06 42:0.36 43:0.26 44:0.14 45:0.18 46:0.02 47:0.4 48:0.18 49:0.24 50:0.16 
8 0 0 0 0 1:0.027777778 2:0.034722222 3:0.25694444 4:0.54861111 5:0.13194444 6:0.069444444 7:0.34027778 8:0.47222222 9:0.0625 10:0.055555556 11:0.0625 12:0.034722222 13:0.38888889 14:0.41666667 15:0.097222222 16:0.069444444 17:0.027777778 18:0.020833333 19:0.28472222 20:0.59722222 21:0.055555556 22:0.041666667 23:0.45138889 24:0.40972222 25:0.041666667 26:0.097222222 27:0.027777778 28:0.027777778 29:0.27083333 30:0.57638889 31:0.020833333 32:0.090277778 33:0.1875 34:0.076388889 35:0.625 36:0.0625 37:0.10416667 38:0.4375 39:0.34027778 40:0.055555556 41:0.125 42:0.13194444 43:0.50694444 44:0.20138889 45:0.034722222 46:0.0625 47:0.18055556 48:0.069444444 49:0.048611111 50:0.63888889 
8 8 8 8 8 1:0.073394495 2:0.11926606 3:0.28440367 4:0.43119266 5:0.091743119 6:0.04587156 7:0.33027523 8:0.27522936 9:0.18348624 10:0.16513761 11:0.28440367 12:0.18348624 13:0.22018349 14:0.26605505 15:0.04587156 16:0.40366972 17:0.091743119 18:0.064220183 19:0.13761468 20:0.30275229 21:0.11926606 22:0.34862385 23:0.091743119 24:0.04587156 25:0.39449541 26:0.11009174 27:0.11009174 28:0.31192661 29:0.44036697 30:0.027522936 31:0.33944954 32:0.44036697 33:0.13761468 34:0.036697248 35:0.04587156 36:0.37614679 37:0.10091743 38:0.39449541 39:0.055045872 40:0.073394495 41:0.36697248 42:0.10091743 43:0.11009174 44:0.21100917 45:0.21100917 46:0.19266055 47:0.29357798 48:0.04587156 49:0.018348624 50:0.44954128 
8 8 8 8 8 1:0.10185185 2:0.046296296 3:0.2962963 4:0.21296296 5:0.34259259 6:0.24074074 7:0.27777778 8:0.14814815 9:0.25925926 10:0.074074074 11:0.13888889 12:0.38888889 13:0.11111111 14:0.12037037 15:0.24074074 16:0.074074074 17:0.37962963 18:0.092592593 19:0.083333333 20:0.37037037 21:0.23148148 22:0.23148148 23:0.064814815 24:0.064814815 25:0.40740741 26:0.39814815 27:0.046296296 28:0.12037037 29:0.15740741 30:0.27777778 31:0.36111111 32:0.17592593 33:0.092592593 34:0.055555556 35:0.31481481 36:0.11111111 37:0.53703704 38:0.27777778 39:0.055555556 40:0.018518519 41:0.34259259 42:0.12037037 43:0.18518519 44:0.28703704 45:0.064814815 46:0.046296296 47:0.40740741 48:0.11111111 49:0.055555556 50:0.37962963 
8 8 8 8 8 1:0.012903226 2:0.34193548 3:0.20645161 4:0.15483871 5:0.28387097 6:0.7483871 7:0.12903226 8:0.04516129 9:0.038709677 10:0.038709677 11:0.64516129 12:0.21290323 13:0.025806452 14:0.051612903 15:0.064516129 16:0.23870968 17:0.28387097 18:0.14193548 19:0.090322581 20:0.24516129 21:0.12903226 22:0.27096774 23:0.18709677 24:0.38064516 25:0.032258065 26:0.077419355 27:0.032258065 28:0.17419355 29:0.61290323 30:0.10322581 31:0.37419355 32:0.090322581 33:0.051612903 34:0.41290323 35:0.070967742 36:0.39354839 37:0.070967742 38:0.12903226 39:0.29677419 40:0.10967742 41:0.012903226 43:0.56129032 44:0.21290323 45:0.21290323 46:0.11612903 47:0.32258065 48:0.23870968 49:0.04516129 50:0.27741935 
8 0 0 0 0 1:0.32960894 2:0.089385475 3:0.05027933 4:0.027932961 5:0.5027933 6:0.11731844 7:0.54189944 8:0.22905028 9:0.067039106 10:0.044692737 11:0.17877095 12:0.72067039 13:0.022346369 14:0.011173184 15:0.067039106 16:0.05027933 17:0.089385475 18:0.067039106 19:0.51396648 20:0.27932961 21:0.05027933 22:0.061452514 23:0.1396648 24:0.37988827 25:0.36871508 26:0.033519553 27:0.039106145 28:0.061452514 29:0.24022346 30:0.62569832 31:0.016759777 32:0.083798883 33:0.36871508 34:0.45810056 35:0.072625698 36:0.11173184 37:0.36312849 38:0.45251397 40:0.072625698 41:0.061452514 42:0.18435754 43:0.26256983 44:0.27374302 45:0.21787709 46:0.2849162 47:0.17877095 48:0.011173184 49:0.022346369 50:0.5027933 
8 8 8 8 8 1:0.28057554 2:0.15827338 3:0.079136691 4:0.10071942 5:0.38129496 6:0.12230216 7:0.26618705 8:0.23021583 9:0.32374101 10:0.057553957 11:0.17985612 12:0.15827338 13:0.13669065 14:0.48201439 15:0.043165468 16:0.079136691 17:0.20863309 18:0.20863309 19:0.39568345 20:0.10791367 21:0.086330935 22:0.35251799 23:0.09352518 24:0.38129496 25:0.086330935 26:0.021582734 27:0.043165468 28:0.12230216 29:0.25179856 30:0.56115108 31:0.014388489 32:0.057553957 33:0.20143885 34:0.56834532 35:0.15827338 36:0.20143885 37:0.38129496 38:0.23021583 39:0.09352518 40:0.09352518 41:0.29496403 42:0.09352518 43:0.050359712 44:0.27338129 45:0.28776978 46:0.34532374 47:0.14388489 48:0.079136691 49:0.028776978 50:0.4028777 
8 8 8 0 0 1:0.21768707 2:0.42176871 3:0.14965986 4:0.11564626 5:0.095238095 6:0.1292517 7:0.27210884 8:0.2244898 9:0.14965986 10:0.2244898 11:0.013605442 12:0.55102041 13:0.19727891 14:0.19047619 15:0.047619048 16:0.06122449 17:0.2244898 18:0.0068027211 19:0.054421769 20:0.65306122 21:0.034013605 22:0.24489796 23:0.047619048 24:0.23129252 25:0.44217687 26:0.27210884 27:0.074829932 28:0.13605442 29:0.29931973 30:0.21768707 31:0.074829932 32:0.11564626 33:0.034013605 34:0.13605442 35:0.63945578 36:0.068027211 37:0.29931973 38:0.42176871 39:0.17006803 40:0.040816327 41:0.55102041 42:0.14285714 43:0.013605442 44:0.23809524 45:0.054421769 46:0.25170068 47:0.034013605 48:0.040816327 49:0.06122449 50:0.6122449 
8 8 8 8 8 1:0.02 2:0.18 3:0.49 4:0.29 5:0.02 6:0.165 7:0.315 8:0.14 9:0.34 10:0.04 11:0.47 12:0.365 13:0.12 14:0.02 15:0.025 16:0.17 17:0.435 18:0.09 19:0.255 20:0.05 21:0.32 22:0.485 23:0.05 24:0.09 25:0.055 26:0.1 27:0.35 28:0.41 29:0.035 30:0.105 31:0.035 32:0.11 33:0.635 34:0.105 35:0.115 36:0.11 37:0.385 38:0.215 39:0.235 40:0.055 41:0.155 42:0.09 43:0.16 44:0.325 45:0.27 46:0.095 47:0.4 48:0.04 49:0.165 50:0.3 
8 8 8 8 8 1:0.079787234 2:0.16489362 3:0.19680851 4:0.41489362 5:0.14361702 6:0.40425532 7:0.38829787 8:0.11170213 9:0.04787234 10:0.04787234 11:0.7287234 12:0.14893617 13:0.058510638 14:0.04787234 15:0.015957447 16:0.24468085 17:0.10106383 18:0.56382979 19:0.053191489 20:0.037234043 21:0.074468085 22:0.15957447 23:0.17021277 24:0.47340426 25:0.12234043 26:0.053191489 27:0.25 28:0.20744681 29:0.085106383 30:0.40425532 31:0.10106383 32:0.17553191 33:0.19148936 34:0.2712766 35:0.2606383 36:0.13297872 37:0.42553191 38:0.22340426 39:0.042553191 40:0.17553191 41:0.57978723 42:0.21808511 43:0.069148936 44:0.079787234 45:0.053191489 46:0.069148936 47:0.25 48:0.18617021 49:0.19148936 50:0.30319149 
8 8 8 8 8 1:0.045016077 2:0.25080386 3:0.35048232 4:0.12861736 5:0.22508039 6:0.1607717 7:0.37620579 8:0.29903537 9:0.11897106 10:0.045016077 11:0.38906752 12:0.40514469 13:0.15434084 14:0.032154341 15:0.019292605 16:0.057877814 17:0.035369775 18:0.19935691 19:0.5755627 20:0.1318328 21:0.11575563 22:0.11254019 23:0.21864952 24:0.50482315 25:0.048231511 26:0.022508039 27:0.061093248 28:0.08681672 29:0.52090032 30:0.30868167 31:0.26366559 32:0.11254019 33:0.23151125 34:0.25401929 35:0.13826367 36:0.061093248 37:0.30868167 38:0.36977492 39:0.18327974 40:0.077170418 41:0.16720257 42:0.29903537 43:0.33440514 44:0.16398714 45:0.035369775 46:0.048231511 47:0.11575563 48:0.18327974 49:0.4244373 50:0.22829582 
8 8 8 8 8 1:0.087628866 2:0.051546392 3:0.17525773 4:0.43298969 5:0.25257732 6:0.39690722 7:0.27835052 8:0.087628866 9:0.10824742 10:0.12886598 11:0.35051546 12:0.33505155 13:0.1185567 14:0.13917526 15:0.056701031 16:0.015463918 17:0.056701031 18:0.27835052 19:0.5 20:0.14948454 21:0.36597938 22:0.43814433 23:0.1443299 24:0.025773196 25:0.025773196 26:0.61340206 27:0.17010309 28:0.0051546392 29:0.0051546392 30:0.20618557 31:0.48453608 32:0.42268041 33:0.067010309 34:0.0051546392 35:0.020618557 36:0.20103093 37:0.025773196 38:0.020618557 39:0.067010309 40:0.68556701 41:0.54123711 42:0.31443299 43:0.1185567 44:0.020618557 45:0.0051546392 46:0.16494845 47:0.24742268 48:0.17525773 49:0.24742268 50:0.16494845 
8 8 8 8 8 1:0.36 2:0.26 3:0.28 4:0.02 5:0.08 6:0.74 7:0.12 9:0.04 10:0.1 11:0.2 12:0.14 13:0.04 14:0.46 15:0.16 16:0.06 17:0.06 18:0.54 19:0.14 20:0.2 21:0.08 22:0.22 23:0.34 24:0.14 25:0.22 26:0.04 27:0.14 28:0.1 29:0.16 30:0.56 31:0.22 32:0.08 33:0.1 34:0.12 35:0.48 36:0.12 37:0.2 38:0.06 39:0.08 40:0.54 41:0.06 42:0.36 43:0.26 44:0.14 45:0.18 46:0.02 47:0.4 48:0.18 49:0.24 50:0.16 
8 0 0 0.18270092535428711 8 1:0.027777778 2:0.034722222 3:0.25694444 4:0.54861111 5:0.13194444 6:0.069444444 7:0.34027778 8:0.47222222 9:0.0625 10:0.055555556 11:0.0625 12:0.034722222 13:0.38888889 14:0.41666667 15:0.097222222 16:0.069444444 17:0.027777778 18:0.020833333 19:0.28472222 20:0.59722222 21:0.055555556 22:0.041666667 23:0.45138889 24:0.40972222 25:0.041666667 26:0.097222222 27:0.027777778 28:0.027777778 29:0.27083333 30:0.57638889 31:0.020833333 32:0.090277778 33:0.1875 34:0.076388889 35:0.625 36:0.0625 37:0.10416667 38:0.4375 39:0.34027778 40:0.055555556 41:0.125 42:0.13194444 43:0.50694444 44:0.20138889 45:0.034722222 46:0.0625 47:0.18055556 48:0.069444444 49:0.048611111 50:0.63888889 
8 8 8 8 8 1:0.073394495 2:0.11926606 3:0.28440367 4:0.43119266 5:0.091743119 6:0.04587156 7:0.33027523 8:0.27522936 9:0.18348624 10:0.16513761 11:0.28440367 12:0.18348624 13:0.22018349 14:0.26605505 15:0.04587156 16:0.40366972 17:0.091743119 18:0.064220183 19:0.13761468 20:0.30275229 21:0.11926606 22:0.34862385 23:0.091743119 24:0.04587156 25:0.39449541 26:0.11009174 27:0.11009174 28:0.31192661 29:0.44036697 30:0.027522936 31:0.33944954 32:0.44036697 33:0.13761468 34:0.036697248 35:0.04587156 36:0.37614679 37:0.10091743 38:0.39449541 39:0.055045872 40:0.073394495 41:0.36697248 42:0.10091743 43:0.11009174 44:0.21100917 45:0.21100917 46:0.19266055 47:0.29357798 48:0.04587156 49:0.018348624 50:0.44954128 
8 8 8 8 8 1:0.10185185 2:0.046296296 3:0.2962963 4:0.21296296 5:0.34259259 6:0.24074074 7:0.27777778 8:0.14814815 9:0.25925926 10:0.074074074 11:0.13888889 12:0.38888889 13:0.11111111 14:0.12037037 15:0.24074074 16:0.074074074 17:0.37962963 18:0.092592593 19:0.083333333 20:0.37037037 21:0.23148148 22:0.23148148 23:0.064814815 24:0.064814815 25:0.40740741 26:0.39814815 27:0.046296296 28:0.12037037 29:0.15740741 30:0.27777778 31:0.36111111 32:0.17592593 33:0.092592593 34:0.055555556 35:0.31481481 36:0.11111111 37:0.53703704 38:0.27777778 39:0.055555556 40:0.018518519 41:0.34259259 42:0.12037037 43:0.18518519 44:0.28703704 45:0.064814815 46:0.046296296 47:0.40740741 48:0.11111111 49:0.055555556 50:0.37962963 
8 8 8 8 8 1:0.012903226 2:0.34193548 3:0.20645161 4:0.15483871 5:0.28387097 6:0.7483871 7:0.12903226 8:0.04516129 9:0.038709677 10:0.038709677 11:0.64516129 12:0.21290323 13:0.025806452 14:0.051612903 15:0.064516129 16:0.23870968 17:0.28387097 18:0.14193548 19:0.090322581 20:0.24516129 21:0.12903226 22:0.27096774 23:0.18709677 24:0.38064516 25:0.032258065 26:0.077419355 27:0.032258065 28:0.17419355 29:0.61290323 30:0.10322581 31:0.37419355 32:0.090322581 33:0.051612903 34:0.41290323 35:0.070967742 36:0.39354839 37:0.070967742 38:0.12903226 39:0.29677419 40:0.10967742 41:0.012903226 43:0.56129032 44:0.21290323 45:0.21290323 46:0.11612903 47:0.32258065 48:0.23870968 49:0.04516129 50:0.27741935 
8 0 0 0 0 1:0.32960894 2:0.089385475 3:0.05027933 4:0.027932961 5:0.5027933 6:0.11731844 7:0.54189944 8:0.22905028 9:0.067039106 10:0.044692737 11:0.17877095 12:0.72067039 13:0.022346369 14:0.011173184 15:0.067039106 16:0.05027933 17:0.089385475 18:0.067039106 19:0.51396648 20:0.27932961 21:0.05027933 22:0.061452514 23:0.1396648 24:0.37988827 25:0.36871508 26:0.033519553 27:0.039106145 28:0.061452514 29:0.24022346 30:0.62569832 31:0.016759777 32:0.083798883 33:0.36871508 34:0.45810056 35:0.072625698 36:0.11173184 37:0.36312849 38:0.45251397 40:0.072625698 41:0.061452514 42:0.18435754 43:0.26256983 44:0.27374302 45:0.21787709 46:0.2849162 47:0.17877095 48:0.011173184 49:0.022346369 50:0.5027933 
8 8 8 8 8 1:0.28057554 2:0.15827338 3:0.079136691 4:0.10071942 5:0.38129496 6:0.12230216 7:0.26618705 8:0.23021583 9:0.32374101 10:0.057553957 11:0.17985612 12:0.15827338 13:0.13669065 14:0.48201439 15:0.043165468 16:0.079136691 17:0.20863309 18:0.20863309 19:0.39568345 20:0.10791367 21:0.086330935 22:0.35251799 23:0.09352518 24:0.38129496 25:0.086330935 26:0.021582734 27:0.043165468 28:0.12230216 29:0.25179856 30:0.56115108 31:0.014388489 32:0.057553957 33:0.20143885 34:0.56834532 35:0.15827338 36:0.20143885 37:0.38129496 38:0.23021583 39:0.09352518 40:0.09352518 41:0.29496403 42:0.09352518 43:0.050359712 44:0.27338129 45:0.28776978 46:0.34532374 47:0.14388489 48:0.079136691 49:0.028776978 50:0.4028777 
8 8 8 0 0 1:0.21768707 2:0.42176871 3:0.14965986 4:0.11564626 5:0.095238095 6:0.1292517 7:0.27210884 8:0.2244898 9:0.14965986 10:0.2244898 11:0.013605442 12:0.55102041 13:0.19727891 14:0.19047619 15:0.047619048 16:0.06122449 17:0.2244898 18:0.0068027211 19:0.054421769 20:0.65306122 21:0.034013605 22:0.24489796 23:0.047619048 24:0.23129252 25:0.44217687 26:0.27210884 27:0.074829932 28:0.13605442 29:0.29931973 30:0.21768707 31:0.074829932 32:0.11564626 33:0.034013605 34:0.13605442 35:0.63945578 36:0.068027211 37:0.29931973 38:0.42176871 39:0.17006803 40:0.040816327 41:0.55102041 42:0.14285714 43:0.013605442 44:0.23809524 45:0.054421769 46:0.25170068 47:0.034013605 48:0.040816327 49:0.06122449 50:0.6122449 
8 8 8 8 8 1:0.02 2:0.18 3:0.49 4:0.29 5:0.02 6:0.165 7:0.315 8:0.14 9:0.34 10:0.04 11:0.47 12:0.365 13:0.12 14:0.02 15:0.025 16:0.17 17:0.435 18:0.09 19:0.255 20:0.05 21:0.32 22:0.485 23:0.05 24:0.09 25:0.055 26:0.1 27:0.35 28:0.41 29:0.035 30:0.105 31:0.035 32:0.11 33:0.635 34:0.105 35:0.115 36:0.11 37:0.385 38:0.215 39:0.235 40:0.055 41:0.155 42:0.09 43:0.16 44:0.325 45:0.27 46:0.095 47:0.4 48:0.04 49:0.165 50:0.3 
8 8 8 8 8 1:0.079787234 2:0.16489362 3:0.19680851 4:0.41489362 5:0.14361702 6:0.40425532 7:0.38829787 8:0.11170213 9:0.04787234 10:0.04787234 11:0.7287234 12:0.14893617 13:0.058510638 14:0.04787234 15:0.015957447 16:0.24468085 17:0.10106383 18:0.56382979 19:0.053191489 20:0.037234043 21:0.074468085 22:0.15957447 23:0.17021277 24:0.47340426 25:0.12234043 26:0.053191489 27:0.25 28:0.20744681 29:0.085106383 30:0.40425532 31:0.10106383 32:0.17553191 33:0.19148936 34:0.2712766 35:0.2606383 36:0.13297872 37:0.42553191 38:0.22340426 39:0.042553191 40:0.17553191 41:0.57978723 42:0.21808511 43:0.069148936 44:0.079787234 45:0.053191489 46:0.069148936 47:0.25 48:0.18617021 49:0.19148936 50:0.30319149 
8 8 8 8 8 1:0.045016077 2:0.25080386 3:0.35048232 4:0.12861736 5:0.22508039 6:0.1607717 7:0.37620579 8:0.29903537 9:0.11897106 10:0.045016077 11:0.38906752 12:0.40514469 13:0.15434084 14:0.032154341 15:0.019292605 16:0.057877814 17:0.035369775 18:0.19935691 19:0.5755627 20:0.1318328 21:0.11575563 22:0.11254019 23:0.21864952 24:0.50482315 25:0.048231511 26:0.022508039 27:0.061093248 28:0.08681672 29:0.52090032 30:0.30868167 31:0.26366559 32:0.11254019 33:0.23151125 34:0.25401929 35:0.13826367 36:0.061093248 37:0.30868167 38:0.36977492 39:0.18327974 40:0.077170418 41:0.16720257 42:0.29903537 43:0.33440514 44:0.16398714 45:0.035369775 46:0.048231511 47:0.11575563 48:0.18327974 49:0.4244373 50:0.22829582 
8 8 8 8 8 1:0.087628866 2:0.051546392 3:0.17525773 4:0.43298969 5:0.25257732 6:0.39690722 7:0.27835052 8:0.087628866 9:0.10824742 10:0.12886598 11:0.35051546 12:0.33505155 13:0.1185567 14:0.13917526 15:0.056701031 16:0.015463918 17:0.056701031 18:0.27835052 19:0.5 20:0.14948454 21:0.36597938 22:0.43814433 23:0.1443299 24:0.025773196 25:0.025773196 26:0.61340206 27:0.17010309 28:0.0051546392 29:0.0051546392 30:0.20618557 31:0.48453608 32:0.42268041 33:0.067010309 34:0.0051546392 35:0.020618557 36:0.20103093 37:0.025773196 38:0.020618557 39:0.067010309 40:0.68556701 41:0.54123711 42:0.31443299 43:0.1185567 44:0.020618557 45:0.0051546392 46:0.16494845 47:0.24742268 48:0.17525773 49:0.24742268 50:0.16494845 
8 8 8 8 8 1:0.36 2:0.26 3:0.28 4:0.02 5:0.08 6:0.74 7:0.12 9:0.04 10:0.1 11:0.2 12:0.14 13:0.04 14:0.46 15:0.16 16:0.06 17:0.06 18:0.54 19:0.14 20:0.2 21:0.08 22:0.22 23:0.34 24:0.14 25:0.22 26:0.04 27:0.14 28:0.1 29:0.16 30:0.56 31:0.22 32:0.08 33:0.1 34:0.12 35:0.48 36:0.12 37:0.2 38:0.06 39:0.08 40:0.54 41:0.06 42:0.36 43:0.26 44:0.14 45:0.18 46:0.02 47:0.4 48:0.18 49:0.24 50:0.16 
8 8 0 8 7.0659530459372144 1:0.027777778 2:0.034722222 3:0.25694444 4:0.54861111 5:0.13194444 6:0.069444444 7:0.34027778 8:0.47222222 9:0.0625 10:0.055555556 11:0.0625 12:0.034722222 13:0.38888889 14:0.41666667 15:0.097222222 16:0.069444444 17:0.027777778 18:0.020833333 19:0.28472222 20:0.59722222 21:0.055555556 22:0.041666667 23:0.45138889 24:0.40972222 25:0.041666667 26:0.097222222 27:0.027777778 28:0.027777778 29:0.27083333 30:0.57638889 31:0.020833333 32:0.090277778 33:0.1875 34:0.076388889 35:0.625 36:0.0625 37:0.10416667 38:0.4375 39:0.34027778 40:0.055555556 41:0.125 42:0.13194444 43:0.50694444 44:0.20138889 45:0.034722222 46:0.0625 47:0.18055556 48:0.069444444 49:0.048611111 50:0.63888889 
8 8 8 8 8 1:0.073394495 2:0.11926606 3:0.28440367 4:0.43119266 5:0.091743119 6:0.04587156 7:0.33027523 8:0.27522936 9:0.18348624 10:0.16513761 11:0.28440367 12:0.18348624 13:0.22018349 14:0.26605505 15:0.04587156 16:0.40366972 17:0.091743119 18:0.064220183 19:0.13761468 20:0.30275229 21:0.11926606 22:0.34862385 23:0.091743119 24:0.04587156 25:0.39449541 26:0.11009174 27:0.11009174 28:0.31192661 29:0.44036697 30:0.027522936 31:0.33944954 32:0.44036697 33:0.13761468 34:0.036697248 35:0.04587156 36:0.37614679 37:0.10091743 38:0.39449541 39:0.055045872 40:0.073394495 41:0.36697248 42:0.10091743 43:0.11009174 44:0.21100917 45:0.21100917 46:0.19266055 47:0.29357798 48:0.04587156 49:0.018348624 50:0.44954128 
8 8 8 8 8 1:0.10185185 2:0.046296296 3:0.2962963 4:0.21296296 5:0.34259259 6:0.24074074 7:0.27777778 8:0.14814815 9:0.25925926 10:0.074074074 11:0.13888889 12:0.38888889 13:0.11111111 14:0.12037037 15:0.24074074 16:0.074074074 17:0.37962963 18:0.092592593 19:0.083333333 20:0.37037037 21:0.23148148 22:0.23148148 23:0.064814815 24:0.064814815 25:0.40740741 26:0.39814815 27:0.046296296 28:0.12037037 29:0.15740741 30:0.27777778 31:0.36111111 32:0.17592593 33:0.092592593 34:0.055555556 35:0.31481481 36:0.11111111 37:0.53703704 38:0.27777778 39:0.055555556 40:0.018518519 41:0.34259259 42:0.12037037 43:0.18518519 44:0.28703704 45:0.064814815 46:0.046296296 47:0.40740741 48:0.11111111 49:0.055555556 50:0.37962963 
8 8 8 8 8 1:0.012903226 2:0.34193548 3:0.20645161 4:0.15483871 5:0.28387097 6:0.7483871 7:0.12903226 8:0.04516129 9:0.038709677 10:0.038709677 11:0.64516129 12:0.21290323 13:0.025806452 14:0.051612903 15:0.064516129 16:0.23870968 17:0.28387097 18:0.14193548 19:0.090322581 20:0.24516129 21:0.12903226 22:0.27096774 23:0.18709677 24:0.38064516 25:0.032258065 26:0.077419355 27:0.032258065 28:0.17419355 29:0.61290323 30:0.10322581 31:0.37419355 32:0.090322581 33:0.051612903 34:0.41290323 35:0.070967742 36:0.39354839 37:0.070967742 38:0.12903226 39:0.29677419 40:0.10967742 41:0.012903226 43:0.56129032 44:0.21290323 45:0.21290323 46:0.11612903 47:0.32258065 48:0.23870968 49:0.04516129 50:0.27741935 
8 0 8 0 0 1:0.32960894 2:0.089385475 3:0.05027933 4:0.027932961 5:0.5027933 6:0.11731844 7:0.54189944 8:0.22905028 9:0.067039106 10:0.044692737 11:0.17877095 12:0.72067039 13:0.022346369 14:0.011173184 15:0.067039106 16:0.05027933 17:0.089385475 18:0.067039106 19:0.51396648 20:0.27932961 21:0.05027933 22:0.061452514 23:0.1396648 24:0.37988827 25:0.36871508 26:0.033519553 27:0.039106145 28:0.061452514 29:0.24022346 30:0.62569832 31:0.016759777 32:0.083798883 33:0.36871508 34:0.45810056 35:0.072625698 36:0.11173184 37:0.36312849 38:0.45251397 40:0.072625698 41:0.061452514 42:0.18435754 43:0.26256983 44:0.27374302 45:0.21787709 46:0.2849162 47:0.17877095 48:0.011173184 49:0.022346369 50:0.5027933 
8 8 8 8 8 1:0.28057554 2:0.15827338 3:0.079136691 4:0.10071942 5:0.38129496 6:0.12230216 7:0.26618705 8:0.23021583 9:0.32374101 10:0.057553957 11:0.17985612 12:0.15827338 13:0.13669065 14:0.48201439 15:0.043165468 16:0.079136691 17:0.20863309 18:0.20863309 19:0.39568345 20:0.10791367 21:0.086330935 22:0.35251799 23:0.09352518 24:0.38129496 25:0.086330935 26:0.021582734 27:0.043165468 28:0.12230216 29:0.25179856 30:0.56115108 31:0.014388489 32:0.057553957 33:0.20143885 34:0.56834532 35:0.15827338 36:0.20143885 37:0.38129496 38:0.23021583 39:0.09352518 40:0.09352518 41:0.29496403 42:0.09352518 43:0.050359712 44:0.27338129 45:0.28776978 46:0.34532374 47:0.14388489 48:0.079136691 49:0.028776978 50:0.4028777 
8 8 8 5.7846617903149431 0 1:0.21768707 2:0.42176871 3:0.14965986 4:0.11564626 5:0.095238095 6:0.1292517 7:0.27210884 8:0.2244898 9:0.14965986 10:0.2244898 11:0.013605442 12:0.55102041 13:0.19727891 14:0.19047619 15:0.047619048 16:0.06122449 17:0.2244898 18:0.0068027211 19:0.054421769 20:0.65306122 21:0.034013605 22:0.24489796 23:0.047619048 24:0.23129252 25:0.44217687 26:0.27210884 27:0.074829932 28:0.13605442 29:0.29931973 30:0.21768707 31:0.074829932 32:0.11564626 33:0.034013605 34:0.13605442 35:0.63945578 36:0.068027211 37:0.29931973 38:0.42176871 39:0.17006803 40:0.040816327 41:0.55102041 42:0.14285714 43:0.013605442 44:0.23809524 45:0.054421769 46:0.25170068 47:0.034013605 48:0.040816327 49:0.06122449 50:0.6122449 
8 8 8 8 8 1:0.02 2:0.18 3:0.49 4:0.29 5:0.02 6:0.165 7:0.315 8:0.14 9:0.34 10:0.04 11:0.47 12:0.365 13:0.12 14:0.02 15:0.025 16:0.17 17:0.435 18:0.09 19:0.255 20:0.05 21:0.32 22:0.485 23:0.05 24:0.09 25:0.055 26:0.1 27:0.35 28:0.41 29:0.035 30:0.105 31:0.035 32:0.11 33:0.635 34:0.105 35:0.115 36:0.11 37:0.385 38:0.215 39:0.235 40:0.055 41:0.155 42:0.09 43:0.16 44:0.325 45:0.27 46:0.095 47:0.4 48:0.04 49:0.165 50:0.3 
8 8 8 8 8 1:0.079787234 2:0.16489362 3:0.19680851 4:0.41489362 5:0.14361702 6:0.40425532 7:0.38829787 8:0.11170213 9:0.04787234 10:0.04787234 11:0.7287234 12:0.14893617 13:0.058510638 14:0.04787234 15:0.015957447 16:0.24468085 17:0.10106383 18:0.56382979 19:0.053191489 20:0.037234043 21:0.074468085 22:0.15957447 23:0.17021277 24:0.47340426 25:0.12234043 26:0.053191489 27:0.25 28:0.20744681 29:0.085106383 30:0.40425532 31:0.10106383 32:0.17553191 33:0.19148936 34:0.2712766 35:0.2606383 36:0.13297872 37:0.42553191 38:0.22340426 39:0.042553191 40:0.17553191 41:0.57978723 42:0.21808511 43:0.069148936 44:0.079787234 45:0.053191489 46:0.069148936 47:0.25 48:0.18617021 49:0.19148936 50:0.30319149 
8 8 8 8 8 1:0.045016077 2:0.25080386 3:0.35048232 4:0.12861736 5:0.22508039 6:0.1607717 7:0.37620579 8:0.29903537 9:0.11897106 10:0.045016077 11:0.38906752 12:0.40514469 13:0.15434084 14:0.032154341 15:0.019292605 16:0.057877814 17:0.035369775 18:0.19935691 19:0.5755627 20:0.1318328 21:0.11575563 22:0.11254019 23:0.21864952 24:0.50482315 25:0.048231511 26:0.022508039 27:0.061093248 28:0.08681672 29:0.52090032 30:0.30868167 31:0.26366559 32:0.11254019 33:0.23151125 34:0.25401929 35:0.13826367 36:0.061093248 37:0.30868167 38:0.36977492 39:0.18327974 40:0.077170418 41:0.16720257 42:0.29903537 43:0.33440514 44:0.16398714 45:0.035369775 46:0.048231511 47:0.11575563 48:0.18327974 49:0.4244373 50:0.22829582 
8 8 8 8 8 1:0.087628866 2:0.051546392 3:0.17525773 4:0.43298969 5:0.25257732 6:0.39690722 7:0.27835052 8:0.087628866 9:0.10824742 10:0.12886598 11:0.35051546 12:0.33505155 13:0.1185567 14:0.13917526 15:0.056701031 16:0.015463918 17:0.056701031 18:0.27835052 19:0.5 20:0.14948454 21:0.36597938 22:0.43814433 23:0.1443299 24:0.025773196 25:0.025773196 26:0.61340206 27:0.17010309 28:0.0051546392 29:0.0051546392 30:0.20618557 31:0.48453608 32:0.42268041 33:0.067010309 34:0.0051546392 35:0.020618557 36:0.20103093 37:0.025773196 38:0.020618557 39:0.067010309 40:0.68556701 41:0.54123711 42:0.31443299 43:0.1185567 44:0.020618557 45:0.0051546392 46:0.16494845 47:0.24742268 48:0.17525773 49:0.24742268 50:0.16494845 
8 8 8 8 8 1:0.36 2:0.26 3:0.28 4:0.02 5:0.08 6:0.74 7:0.12 9:0.04 10:0.1 11:0.2 12:0.14 13:0.04 14:0.46 15:0.16 16:0.06 17:0.06 18:0.54 19:0.14 20:0.2 21:0.08 22:0.22 23:0.34 24:0.14 25:0.22 26:0.04 27:0.14 28:0.1 29:0.16 30:0.56 31:0.22 32:0.08 33:0.1 34:0.12 35:0.48 36:0.12 37:0.2 38:0.06 39:0.08 40:0.54 41:0.06 42:0.36 43:0.26 44:0.14 45:0.18 46:0.02 47:0.4 48:0.18 49:0.24 50:0.16 
8 8 8 8 0 1:0.027777778 2:0.034722222 3:0.25694444 4:0.54861111 5:0.13194444 6:0.069444444 7:0.34027778 8:0.47222222 9:0.0625 10:0.055555556 11:0.0625 12:0.034722222 13:0.38888889 14:0.41666667 15:0.097222222 16:0.069444444 17:0.027777778 18:0.020833333 19:0.28472222 20:0.59722222 21:0.055555556 22:0.041666667 23:0.45138889 24:0.40972222 25:0.041666667 26:0.097222222 27:0.027777778 28:0.027777778 29:0.27083333 30:0.57638889 31:0.020833333 32:0.090277778 33:0.1875 34:0.076388889 35:0.625 36:0.0625 37:0.10416667 38:0.4375 39:0.34027778 40:0.055555556 41:0.125 42:0.13194444 43:0.50694444 44:0.20138889 45:0.034722222 46:0.0625 47:0.18055556 48:0.069444444 49:0.048611111 50:0.63888889 
8 8 8 8 8 1:0.073394495 2:0.11926606 3:0.28440367 4:0.43119266 5:0.091743119 6:0.04587156 7:0.33027523 8:0.27522936 9:0.18348624 10:0.16513761 11:0.28440367 12:0.18348624 13:0.22018349 14:0.26605505 15:0.04587156 16:0.40366972 17:0.091743119 18:0.064220183 19:0.13761468 20:0.30275229 21:0.11926606 22:0.34862385 23:0.091743119 24:0.04587156 25:0.39449541 26:0.11009174 27:0.11009174 28:0.31192661 29:0.44036697 30:0.027522936 31:0.33944954 32:0.44036697 33:0.13761468 34:0.036697248 35:0.04587156 36:0.37614679 37:0.10091743 38:0.39449541 39:0.055045872 40:0.073394495 41:0.36697248 42:0.10091743 43:0.11009174 44:0.21100917 45:0.21100917 46:0.19266055 47:0.29357798 48:0.04587156 49:0.018348624 50:0.44954128 
8 8 8 8 8 1:0.10185185 2:0.046296296 3:0.2962963 4:0.21296296 5:0.34259259 6:0.24074074 7:0.27777778 8:0.14814815 9:0.25925926 10:0.074074074 11:0.13888889 12:0.38888889 13:0.11111111 14:0.12037037 15:0.24074074 16:0.074074074 17:0.37962963 18:0.092592593 19:0.083333333 20:0.37037037 21:0.23148148 22:0.23148148 23:0.064814815 24:0.064814815 25:0.40740741 26:0.39814815 27:0.046296296 28:0.12037037 29:0.15740741 30:0.27777778 31:0.36111111 32:0.17592593 33:0.092592593 34:0.055555556 35:0.31481481 36:0.11111111 37:0.53703704 38:0.27777778 39:0.055555556 40:0.018518519 41:0.34259259 42:0.12037037 43:0.18518519 44:0.28703704 45:0.064814815 46:0.046296296 47:0.40740741 48:0.11111111 49:0.055555556 50:0.37962963 
8 8 8 8 8 1:0.012903226 2:0.34193548 3:0.20645161 4:0.15483871 5:0.28387097 6:0.7483871 7:0.12903226 8:0.04516129 9:0.038709677 10:0.038709677 11:0.64516129 12:0.21290323 13:0.025806452 14:0.051612903 15:0.064516129 16:0.23870968 17:0.28387097 18:0.14193548 19:0.090322581 20:0.24516129 21:0.12903226 22:0.27096774 23:0.18709677 24:0.38064516 25:0.032258065 26:0.077419355 27:0.032258065 28:0.17419355 29:0.61290323 30:0.10322581 31:0.37419355 32:0.090322581 33:0.051612903 34:0.41290323 35:0.070967742 36:0.39354839 37:0.070967742 38:0.12903226 39:0.29677419 40:0.10967742 41:0.012903226 43:0.56129032 44:0.21290323 45:0.21290323 46:0.11612903 47:0.32258065 48:0.23870968 49:0.04516129 50:0.27741935 
8 8 8 0 0 1:0.32960894 2:0.089385475 3:0.05027933 4:0.027932961 5:0.5027933 6:0.11731844 7:0.54189944 8:0.22905028 9:0.067039106 10:0.044692737 11:0.17877095 12:0.72067039 13:0.022346369 14:0.011173184 15:0.067039106 16:0.05027933 17:0.089385475 18:0.067039106 19:0.51396648 20:0.27932961 21:0.05027933 22:0.061452514 23:0.1396648 24:0.37988827 25:0.36871508 26:0.033519553 27:0.039106145 28:0.061452514 29:0.24022346 30:0.62569832 31:0.016759777 32:0.083798883 33:0.36871508 34:0.45810056 35:0.072625698 36:0.11173184 37:0.36312849 38:0.45251397 40:0.072625698 41:0.061452514 42:0.18435754 43:0.26256983 44:0.27374302 45:0.21787709 46:0.2849162 47:0.17877095 48:0.011173184 49:0.022346369 50:0.5027933 
8 8 8 8 8 1:0.28057554 2:0.15827338 3:0.079136691 4:0.10071942 5:0.38129496 6:0.12230216 7:0.26618705 8:0.23021583 9:0.32374101 10:0.057553957 11:0.17985612 12:0.15827338 13:0.13669065 14:0.48201439 15:0.043165468 16:0.079136691 17:0.20863309 18:0.20863309 19:0.39568345 20:0.10791367 21:0.086330935 22:0.35251799 23:0.09352518 24:0.38129496 25:0.086330935 26:0.021582734 27:0.043165468 28:0.12230216 29:0.25179856 30:0.56115108 31:0.014388489 32:0.057553957 33:0.20143885 34:0.56834532 35:0.15827338 36:0.20143885 37:0.38129496 38:0.23021583 39:0.09352518 40:0.09352518 41:0.29496403 42:0.09352518 43:0.050359712 44:0.27338129 45:0.28776978 46:0.34532374 47:0.14388489 48:0.079136691 49:0.028776978 50:0.4028777 
8 8 8 8 5.6058083101839662 1:0.21768707 2:0.42176871 3:0.14965986 4:0.11564626 5:0.095238095 6:0.1292517 7:0.27210884 8:0.2244898 9:0.14965986 10:0.2244898 11:0.013605442 12:0.55102041 13:0.19727891 14:0.19047619 15:0.047619048 16:0.06122449 17:0.2244898 18:0.0068027211 19:0.054421769 20:0.65306122 21:0.034013605 22:0.24489796 23:0.047619048 24:0.23129252 25:0.44217687 26:0.27210884 27:0.074829932 28:0.13605442 29:0.29931973 30:0.21768707 31:0.074829932 32:0.11564626 33:0.034013605 34:0.13605442 35:0.63945578 36:0.068027211 37:0.29931973 38:0.42176871 39:0.17006803 40:0.040816327 41:0.55102041 42:0.14285714 43:0.013605442 44:0.23809524 45:0.054421769 46:0.25170068 47:0.034013605 48:0.040816327 49:0.06122449 50:0.6122449 
8 8 8 8 8 1:0.02 2:0.18 3:0.49 4:0.29 5:0.02 6:0.165 7:0.315 8:0.14 9:0.34 10:0.04 11:0.47 12:0.365 13:0.12 14:0.02 15:0.025 16:0.17 17:0.435 18:0.09 19:0.255 20:0.05 21:0.32 22:0.485 23:0.05 24:0.09 25:0.055 26:0.1 27:0.35 28:0.41 29:0.035 30:0.105 31:0.035 32:0.11 33:0.635 34:0.105 35:0.115 36:0.11 37:0.385 38:0.215 39:0.235 40:0.055 41:0.155 42:0.09 43:0.16 44:0.325 45:0.27 46:0.095 47:0.4 48:0.04 49:0.165 50:0.3 
8 8 8 8 8 1:0.079787234 2:0.16489362 3:0.19680851 4:0.41489362 5:0.14361702 6:0.40425532 7:0.38829787 8:0.11170213 9:0.04787234 10:0.04787234 11:0.7287234 12:0.14893617 13:0.058510638 14:0.04787234 15:0.015957447 16:0.24468085 17:0.10106383 18:0.56382979 19:0.053191489 20:0.037234043 21:0.074468085 22:0.15957447 23:0.17021277 24:0.47340426 25:0.12234043 26:0.053191489 27:0.25 28:0.20744681 29:0.085106383 30:0.40425532 31:0.10106383 32:0.17553191 33:0.19148936 34:0.2712766 35:0.2606383 36:0.13297872 37:0.42553191 38:0.22340426 39:0.042553191 40:0.17553191 41:0.57978723 42:0.21808511 43:0.069148936 44:0.079787234 45:0.053191489 46:0.069148936 47:0.25 48:0.18617021 49:0.19148936 50:0.30319149 
0.24259433362371452 8 8 8 8 1:0.045016077 2:0.25080386 3:0.35048232 4:0.12861736 5:0.22508039 6:0.1607717 7:0.37620579 8:0.29903537 9:0.11897106 10:0.045016077 11:0.38906752 12:0.40514469 13:0.15434084 14:0.032154341 15:0.019292605 16:0.057877814 17:0.035369775 18:0.19935691 19:0.5755627 20:0.1318328 21:0.11575563 22:0.11254019 23:0.21864952 24:0.50482315 25:0.048231511 26:0.022508039 27:0.061093248 28:0.08681672 29:0.52090032 30:0.30868167 31:0.26366559 32:0.11254019 33:0.23151125 34:0.25401929 35:0.13826367 36:0.061093248 37:0.30868167 38:0.36977492 39:0.18327974 40:0.077170418 41:0.16720257 42:0.29903537 43:0.33440514 44:0.16398714 45:0.035369775 46:0.048231511 47:0.11575563 48:0.18327974 49:0.4244373 50:0.22829582 
8 8 8 8 8 1:0.087628866 2:0.051546392 3:0.17525773 4:0.43298969 5:0.25257732 6:0.39690722 7:0.27835052 8:0.087628866 9:0.10824742 10:0.12886598 11:0.35051546 12:0.33505155 13:0.1185567 14:0.13917526 15:0.056701031 16:0.015463918 17:0.056701031 18:0.27835052 19:0.5 20:0.14948454 21:0.36597938 22:0.43814433 23:0.1443299 24:0.025773196 25:0.025773196 26:0.61340206 27:0.17010309 28:0.0051546392 29:0.0051546392 30:0.20618557 31:0.48453608 32:0.42268041 33:0.067010309 34:0.0051546392 35:0.020618557 36:0.20103093 37:0.025773196 38:0.020618557 39:0.067010309 40:0.68556701 41:0.54123711 42:0.31443299 43:0.1185567 44:0.020618557 45:0.0051546392 46:0.16494845 47:0.24742268 48:0.17525773 49:0.24742268 50:0.16494845 
8 8 8 5.5268562967634081 8 1:0.36 2:0.26 3:0.28 4:0.02 5:0.08 6:0.74 7:0.12 9:0.04 10:0.1 11:0.2 12:0.14 13:0.04 14:0.46 15:0.16 16:0.06 17:0.06 18:0.54 19:0.14 20:0.2 21:0.08 22:0.22 23:0.34 24:0.14 25:0.22 26:0.04 27:0.14 28:0.1 29:0.16 30:0.56 31:0.22 32:0.08 33:0.1 34:0.12 35:0.48 36:0.12 37:0.2 38:0.06 39:0.08 40:0.54 41:0.06 42:0.36 43:0.26 44:0.14 45:0.18 46:0.02 47:0.4 48:0.18 49:0.24 50:0.16 
3.2718298124904055 7.7668708869132637 4.3504399089420724 8 0.025692066960541604 1:0.027777778 2:0.034722222 3:0.25694444 4:0.54861111 5:0.13194444 6:0.069444444 7:0.34027778 8:0.47222222 9:0.0625 10:0.055555556 11:0.0625 12:0.034722222 13:0.38888889 14:0.41666667 15:0.097222222 16:0.069444444 17:0.027777778 18:0.020833333 19:0.28472222 20:0.59722222 21:0.055555556 22:0.041666667 23:0.45138889 24:0.40972222 25:0.041666667 26:0.097222222 27:0.027777778 28:0.027777778 29:0.27083333 30:0.57638889 31:0.020833333 32:0.090277778 33:0.1875 34:0.076388889 35:0.625 36:0.0625 37:0.10416667 38:0.4375 39:0.34027778 40:0.055555556 41:0.125 42:0.13194444 43:0.50694444 44:0.20138889 45:0.034722222 46:0.0625 47:0.18055556 48:0.069444444 49:0.048611111 50:0.63888889 
4.812145270245451 8 8 8 8 1:0.073394495 2:0.11926606 3:0.28440367 4:0.43119266 5:0.091743119 6:0.04587156 7:0.33027523 8:0.27522936 9:0.18348624 10:0.16513761 11:0.28440367 12:0.18348624 13:0.22018349 14:0.26605505 15:0.04587156 16:0.40366972 17:0.091743119 18:0.064220183 19:0.13761468 20:0.30275229 21:0.11926606 22:0.34862385 23:0.091743119 24:0.04587156 25:0.39449541 26:0.11009174 27:0.11009174 28:0.31192661 29:0.44036697 30:0.027522936 31:0.33944954 32:0.44036697 33:0.13761468 34:0.036697248 35:0.04587156 36:0.37614679 37:0.10091743 38:0.39449541 39:0.055045872 40:0.073394495 41:0.36697248 42:0.10091743 43:0.11009174 44:0.21100917 45:0.21100917 46:0.19266055 47:0.29357798 48:0.04587156 49:0.018348624 50:0.44954128 
8 8 8 8 8 1:0.10185185 2:0.046296296 3:0.2962963 4:0.21296296 5:0.34259259 6:0.24074074 7:0.27777778 8:0.14814815 9:0.25925926 10:0.074074074 11:0.13888889 12:0.38888889 13:0.11111111 14:0.12037037 15:0.24074074 16:0.074074074 17:0.37962963 18:0.092592593 19:0.083333333 20:0.37037037 21:0.23148148 22:0.23148148 23:0.064814815 24:0.064814815 25:0.40740741 26:0.39814815 27:0.046296296 28:0.12037037 29:0.15740741 30:0.27777778 31:0.36111111 32:0.17592593 33:0.092592593 34:0.055555556 35:0.31481481 36:0.11111111 37:0.53703704 38:0.27777778 39:0.055555556 40:0.018518519 41:0.34259259 42:0.12037037 43:0.18518519 44:0.28703704 45:0.064814815 46:0.046296296 47:0.40740741 48:0.11111111 49:0.055555556 50:0.37962963 
8 8 7.6126813222056526 8 8 1:0.012903226 2:0.34193548 3:0.20645161 4:0.15483871 5:0.28387097 6:0.7483871 7:0.12903226 8:0.04516129 9:0.038709677 10:0.038709677 11:0.64516129 12:0.21290323 13:0.025806452 14:0.051612903 15:0.064516129 16:0.23870968 17:0.28387097 18:0.14193548 19:0.090322581 20:0.24516129 21:0.12903226 22:0.27096774 23:0.18709677 24:0.38064516 25:0.032258065 26:0.077419355 27:0.032258065 28:0.17419355 29:0.61290323 30:0.10322581 31:0.37419355 32:0.090322581 33:0.051612903 34:0.41290323 35:0.070967742 36:0.39354839 37:0.070967742 38:0.12903226 39:0.29677419 40:0.10967742 41:0.012903226 43:0.56129032 44:0.21290323 45:0.21290323 46:0.11612903 47:0.32258065 48:0.23870968 49:0.04516129 50:0.27741935 
6.5079851358992755 6.2459937407991877 7.3682819545040479 0 0 1:0.32960894 2:0.089385475 3:0.05027933 4:0.027932961 5:0.5027933 6:0.11731844 7:0.54189944 8:0.22905028 9:0.067039106 10:0.044692737 11:0.17877095 12:0.72067039 13:0.022346369 14:0.011173184 15:0.067039106 16:0.05027933 17:0.089385475 18:0.067039106 19:0.51396648 20:0.27932961 21:0.05027933 22:0.061452514 23:0.1396648 24:0.37988827 25:0.36871508 26:0.033519553 27:0.039106145 28:0.061452514 29:0.24022346 30:0.62569832 31:0.016759777 32:0.083798883 33:0.36871508 34:0.45810056 35:0.072625698 36:0.11173184 37:0.36312849 38:0.45251397 40:0.072625698 41:0.061452514 42:0.18435754 43:0.26256983 44:0.27374302 45:0.21787709 46:0.2849162 47:0.17877095 48:0.011173184 49:0.022346369 50:0.5027933 
8 8 8 8 8 1:0.28057554 2:0.15827338 3:0.079136691 4:0.10071942 5:0.38129496 6:0.12230216 7:0.26618705 8:0.23021583 9:0.32374101 10:0.057553957 11:0.17985612 12:0.15827338 13:0.13669065 14:0.48201439 15:0.043165468 16:0.079136691 17:0.20863309 18:0.20863309 19:0.39568345 20:0.10791367 21:0.086330935 22:0.35251799 23:0.09352518 24:0.38129496 25:0.086330935 26:0.021582734 27:0.043165468 28:0.12230216 29:0.25179856 30:0.56115108 31:0.014388489 32:0.057553957 33:0.20143885 34:0.56834532 35:0.15827338 36:0.20143885 37:0.38129496 38:0.23021583 39:0.09352518 40:0.09352518 41:0.29496403 42:0.09352518 43:0.050359712 44:0.27338129 45:0.28776978 46:0.34532374 47:0.14388489 48:0.079136691 49:0.028776978 50:0.4028777 
8 8 8 7.908557726054215 7.7980269268700368 1:0.21768707 2:0.42176871 3:0.14965986 4:0.11564626 5:0.095238095 6:0.1292517 7:0.27210884 8:0.2244898 9:0.14965986 10:0.2244898 11:0.013605442 12:0.55102041 13:0.19727891 14:0.19047619 15:0.047619048 16:0.06122449 17:0.2244898 18:0.0068027211 19:0.054421769 20:0.65306122 21:0.034013605 22:0.24489796 23:0.047619048 24:0.23129252 25:0.44217687 26:0.27210884 27:0.074829932 28:0.13605442 29:0.29931973 30:0.21768707 31:0.074829932 32:0.11564626 33:0.034013605 34:0.13605442 35:0.63945578 36:0.068027211 37:0.29931973 38:0.42176871 39:0.17006803 40:0.040816327 41:0.55102041 42:0.14285714 43:0.013605442 44:0.23809524 45:0.054421769 46:0.25170068 47:0.034013605 48:0.040816327 49:0.06122449 50:0.6122449 
8 8 8 8 8 1:0.02 2:0.18 3:0.49 4:0.29 5:0.02 6:0.165 7:0.315 8:0.14 9:0.34 10:0.04 11:0.47 12:0.365 13:0.12 14:0.02 15:0.025 16:0.17 17:0.435 18:0.09 19:0.255 20:0.05 21:0.32 22:0.485 23:0.05 24:0.09 25:0.055 26:0.1 27:0.35 28:0.41 29:0.035 30:0.105 31:0.035 32:0.11 33:0.635 34:0.105 35:0.115 36:0.11 37:0.385 38:0.215 39:0.235 40:0.055 41:0.155 42:0.09 43:0.16 44:0.325 45:0.27 46:0.095 47:0.4 48:0.04 49:0.165 50:0.3 
8 8 8 8 8 1:0.079787234 2:0.16489362 3:0.19680851 4:0.41489362 5:0.14361702 6:0.40425532 7:0.38829787 8:0.11170213 9:0.04787234 10:0.04787234 11:0.7287234 12:0.14893617 13:0.058510638 14:0.04787234 15:0.015957447 16:0.24468085 17:0.10106383 18:0.56382979 19:0.053191489 20:0.037234043 21:0.074468085 22:0.15957447 23:0.17021277 24:0.47340426 25:0.12234043 26:0.053191489 27:0.25 28:0.20744681 29:0.085106383 30:0.40425532 31:0.10106383 32:0.17553191 33:0.19148936 34:0.2712766 35:0.2606383 36:0.13297872 37:0.42553191 38:0.22340426 39:0.042553191 40:0.17553191 41:0.57978723 42:0.21808511 43:0.069148936 44:0.079787234 45:0.053191489 46:0.069148936 47:0.25 48:0.18617021 49:0.19148936 50:0.30319149 
0 8 8 8 8 1:0.045016077 2:0.25080386 3:0.35048232 4:0.12861736 5:0.22508039 6:0.1607717 7:0.37620579 8:0.29903537 9:0.11897106 10:0.045016077 11:0.38906752 12:0.40514469 13:0.15434084 14:0.032154341 15:0.019292605 16:0.057877814 17:0.035369775 18:0.19935691 19:0.5755627 20:0.1318328 21:0.11575563 22:0.11254019 23:0.21864952 24:0.50482315 25:0.048231511 26:0.022508039 27:0.061093248 28:0.08681672 29:0.52090032 30:0.30868167 31:0.26366559 32:0.11254019 33:0.23151125 34:0.25401929 35:0.13826367 36:0.061093248 37:0.30868167 38:0.36977492 39:0.18327974 40:0.077170418 41:0.16720257 42:0.29903537 43:0.33440514 44:0.16398714 45:0.035369775 46:0.048231511 47:0.11575563 48:0.18327974 49:0.4244373 50:0.22829582 
8 8 8 8 8 1:0.10824742 2:0.06185567 3:0.46907216 4:0.36082474 5:0.52061856 6:0.20103093 7:0.11340206 8:0.16494845 9:0.48453608 10:0.25257732 11:0.18556701 12:0.077319588 13:0.015463918 14:0.14948454 15:0.61340206 16:0.22164948 17:0.42268041 18:0.49484536 19:0.056701031 20:0.025773196 21:0.70103093 22:0.087628866 23:0.0051546392 24:0.20618557 25:0.69587629 26:0.27319588 27:0.010309278 28:0.020618557 29:0.21134021 30:0.025773196 31:0.025773196 32:0.7371134 33:0.70618557 34:0.20618557 35:0.077319588 36:0.010309278 37:0.21134021 38:0.30412371 39:0.27319588 40:0.21134021 
8 8 8 8 8 1:0.46 2:0.38 3:0.08 4:0.08 5:0.86 7:0.04 8:0.1 9:0.3 10:0.06 11:0.38 12:0.26 13:0.08 14:0.5 15:0.22 16:0.2 17:0.1 18:0.44 19:0.2 20:0.26 21:0.04 22:0.18 23:0.12 24:0.66 25:0.26 26:0.08 27:0.1 28:0.56 29:0.18 30:0.16 31:0.12 32:0.54 33:0.08 34:0.58 35:0.1 36:0.24 37:0.26 38:0.26 39:0.26 40:0.22 
8 8 0 0 0 1:0.034722222 2:0.055555556 3:0.6875 4:0.22222222 5:0.076388889 6:0.63888889 7:0.21527778 8:0.069444444 9:0.069444444 10:0.13194444 11:0.68055556 12:0.11805556 13:0.076388889 14:0.027777778 15:0.11111111 16:0.78472222 17:0.076388889 18:0.076388889 19:0.72222222 20:0.125 21:0.10416667 22:0.027777778 23:0.16666667 24:0.70138889 25:0.034722222 26:0.14583333 27:0.15972222 28:0.65972222 29:0.069444444 30:0.16666667 31:0.61111111 32:0.15277778 33:0.16666667 34:0.44444444 35:0.34027778 36:0.048611111 37:0.18055556 38:0.097222222 39:0.076388889 40:0.64583333 
8 8 8 8 8 1:0.091743119 2:0.19266055 3:0.58715596 4:0.12844037 5:0.073394495 6:0.41284404 7:0.31192661 8:0.20183486 9:0.33944954 10:0.16513761 11:0.44036697 12:0.055045872 13:0.44036697 14:0.073394495 15:0.091743119 16:0.39449541 17:0.21100917 18:0.33027523 19:0.055045872 20:0.40366972 21:0.11009174 22:0.31192661 23:0.51376147 24:0.064220183 25:0.37614679 26:0.50458716 27:0.064220183 28:0.055045872 29:0.41284404 30:0.36697248 31:0.12844037 32:0.091743119 33:0.39449541 34:0.11926606 35:0.21100917 36:0.27522936 37:0.2293578 38:0.29357798 39:0.018348624 40:0.4587156 
8 8 8 8 8 1:0.11111111 2:0.064814815 3:0.36111111 4:0.46296296 5:0.31481481 6:0.31481481 7:0.064814815 8:0.30555556 9:0.16666667 10:0.4537037 11:0.10185185 12:0.27777778 13:0.36111111 14:0.14814815 15:0.10185185 16:0.38888889 17:0.44444444 18:0.018518519 19:0.12037037 20:0.41666667 21:0.40740741 22:0.055555556 23:0.21296296 24:0.32407407 25:0.41666667 26:0.19444444 27:0.064814815 28:0.32407407 29:0.42592593 30:0.34259259 31:0.2037037 32:0.027777778 33:0.38888889 34:0.12037037 35:0.39814815 36:0.092592593 37:0.31481481 38:0.21296296 39:0.083333333 40:0.38888889 
8 8 8 8 8 1:0.025806452 2:0.4516129 3:0.16774194 4:0.35483871 5:0.81935484 6:0.070967742 7:0.058064516 8:0.051612903 9:0.75483871 10:0.11612903 11:0.04516129 12:0.083870968 13:0.36129032 14:0.22580645 15:0.11612903 16:0.29677419 17:0.26451613 18:0.23870968 19:0.45806452 20:0.038709677 21:0.090322581 22:0.090322581 23:0.48387097 24:0.33548387 25:0.4 26:0.090322581 27:0.29032258 28:0.21935484 29:0.42580645 30:0.077419355 31:0.32258065 32:0.17419355 33:0.012903226 34:0.038709677 35:0.69677419 36:0.2516129 37:0.14193548 38:0.47741935 39:0.090322581 40:0.29032258 
8 8 8 8 0 1:0.39664804 2:0.067039106 3:0.027932961 4:0.50837989 5:0.40782123 6:0.36312849 7:0.16759777 8:0.061452514 9:0.46927374 10:0.44692737 11:0.016759777 12:0.067039106 13:0.061452514 14:0.10614525 15:0.43575419 16:0.39664804 17:0.055865922 18:0.11731844 19:0.40223464 20:0.42458101 21:0.044692737 22:0.055865922 23:0.072625698 24:0.82681564 25:0.016759777 26:0.23463687 27:0.67597765 28:0.072625698 29:0.1452514 30:0.70949721 31:0.072625698 32:0.072625698 33:0.061452514 34:0.26815642 35:0.37430168 36:0.29608939 37:0.37430168 38:0.094972067 39:0.022346369 40:0.50837989 
8 8 8 8 8 1:0.31654676 2:0.15827338 3:0.10791367 4:0.41726619 5:0.17985612 6:0.35971223 7:0.39568345 8:0.064748201 9:0.25899281 10:0.14388489 11:0.42446043 12:0.17266187 13:0.10071942 14:0.37410072 15:0.3381295 16:0.18705036 17:0.20143885 18:0.26618705 19:0.1294964 20:0.4028777 21:0.021582734 22:0.071942446 23:0.28057554 24:0.62589928 25:0.021582734 26:0.17266187 27:0.61870504 28:0.18705036 29:0.28776978 30:0.41007194 31:0.1942446 32:0.10791367 33:0.33093525 34:0.10071942 35:0.20143885 36:0.36690647 37:0.37410072 38:0.17985612 39:0.043165468 40:0.4028777 
8 8 8 8 8 1:0.34013605 2:0.37414966 3:0.17006803 4:0.11564626 5:0.17006803 6:0.40816327 7:0.10204082 8:0.31972789 9:0.068027211 10:0.53741497 11:0.34013605 12:0.054421769 13:0.081632653 14:0.20408163 15:0.054421769 16:0.65986395 17:0.040816327 18:0.25170068 19:0.081632653 20:0.62585034 21:0.27891156 22:0.12244898 23:0.15646259 24:0.44217687 25:0.074829932 26:0.1292517 27:0.10204082 28:0.69387755 29:0.081632653 30:0.54421769 31:0.32653061 32:0.047619048 33:0.55782313 34:0.14285714 35:0.23809524 36:0.06122449 37:0.2585034 38:0.054421769 39:0.068027211 40:0.61904762 
8 8 8 8 8 1:0.035 2:0.415 3:0.52 4:0.03 5:0.19 6:0.385 7:0.35 8:0.075 9:0.5 10:0.4 11:0.07 12:0.03 13:0.43 14:0.225 15:0.255 16:0.09 17:0.37 18:0.45 19:0.09 20:0.09 21:0.18 22:0.54 23:0.165 24:0.115 25:0.075 26:0.18 27:0.605 28:0.14 29:0.135 30:0.51 31:0.275 32:0.08 33:0.18 34:0.105 35:0.405 36:0.31 37:0.14 38:0.36 39:0.1 40:0.4 
8 8 8 8 8 1:0.090425532 2:0.28723404 3:0.47340426 4:0.14893617 5:0.60106383 6:0.25531915 7:0.090425532 8:0.053191489 9:0.82978723 10:0.069148936 11:0.079787234 12:0.021276596 13:0.28723404 14:0.20212766 15:0.44680851 16:0.063829787 17:0.10106383 18:0.2287234 19:0.43617021 20:0.23404255 21:0.10638298 22:0.31382979 23:0.17021277 24:0.40957447 25:0.16489362 26:0.17553191 27:0.32446809 28:0.33510638 29:0.20212766 30:0.55851064 31:0.053191489 32:0.18617021 33:0.67021277 34:0.14893617 35:0.10638298 36:0.074468085 37:0.11170213 38:0.29255319 39:0.28191489 40:0.31382979 
8 8 8 8 0 1:0.057877814 2:0.52411576 3:0.17041801 4:0.24758842 5:0.23151125 6:0.4437299 7:0.26366559 8:0.061093248 9:0.45659164 10:0.44051447 11:0.073954984 12:0.028938907 13:0.064308682 14:0.11575563 15:0.57234727 16:0.24758842 17:0.1221865 18:0.15755627 19:0.60771704 20:0.11254019 21:0.025723473 22:0.10610932 23:0.38585209 24:0.48231511 25:0.29581994 26:0.15755627 27:0.36012862 28:0.18649518 29:0.080385852 30:0.5755627 31:0.21543408 32:0.12861736 33:0.24758842 34:0.4340836 35:0.26045016 36:0.057877814 37:0.057877814 38:0.19614148 39:0.38263666 40:0.36334405 
8 8 8 8 8 1:0.077319588 2:0.030927835 3:0.030927835 4:0.030927835 5:0.17010309 6:0.29896907 7:0.28350515 8:0.077319588 9:0.2371134 10:0.28350515 11:0.1443299 12:0.056701031 13:0.06185567 14:0.051546392 15:0.087628866 16:0.077319588 17:0.056701031 18:0.42783505 19:0.18556701 20:0.067010309 21:0.097938144 22:0.087628866 23:0.030927835 24:0.046391753 25:0.0051546392 26:0.010309278 27:0.030927835 28:0.1185567 29:0.36082474 30:0.25257732 31:0.17010309 32:0.051546392 33:0.20103093 34:0.22164948 35:0.36597938 36:0.12886598 37:0.036082474 38:0.020618557 39:0.015463918 40:0.010309278 41:0.092783505 42:0.60824742 43:0.077319588 44:0.010309278 46:0.0051546392 47:0.0051546392 48:0.20103093 49:0.23195876 50:0.46391753 51:0.18556701 52:0.087628866 53:0.0051546392 54:0.0051546392 56:0.020618557 57:0.19587629 58:0.015463918 59:0.015463918 60:0.010309278 61:0.010309278 62:0.015463918 63:0.2628866 64:0.4742268 65:0.34020619 66:0.36597938 67:0.1443299 68:0.06185567 69:0.067010309 70:0.010309278 71:0.0051546392 72:0.0051546392 73:0.1443299 74:0.067010309 75:0.14948454 76:0.15463918 77:0.092783505 78:0.18041237 79:0.087628866 80:0.12371134 
8 8 8 8 8 1:0.08 2:0.38 3:0.12 4:0.26 5:0.06 6:0.02 8:0.08 9:0.2 10:0.66 14:0.04 15:0.02 16:0.08 17:0.14 18:0.16 19:0.04 20:0.02 21:0.04 22:0.34 23:0.12 24:0.14 25:0.02 26:0.06 27:0.04 28:0.46 29:0.12 30:0.1 32:0.2 33:0.04 34:0.06 35:0.06 36:0.38 37:0.12 38:0.08 39:0.06 40:0.2 41:0.02 42:0.02 43:0.08 44:0.1 45:0.08 46:0.04 47:0.26 48:0.4 49:0.18 50:0.08 51:0.04 52:0.04 53:0.06 54:0.04 55:0.12 56:0.44 57:0.08 58:0.1 59:0.14 60:0.02 61:0.04 62:0.08 63:0.04 64:0.5 65:0.06 66:0.02 67:0.3 68:0.28 69:0.04 70:0.06 71:0.1 72:0.14 73:0.02 74:0.24 75:0.14 76:0.12 77:0.08 78:0.18 79:0.16 80:0.06 
0 0 8 0 8 1:0.020833333 2:0.013888889 3:0.020833333 4:0.034722222 5:0.28472222 6:0.40277778 7:0.20833333 8:0.013888889 9:0.055555556 10:0.020833333 11:0.16666667 12:0.47222222 13:0.20138889 14:0.013888889 15:0.027777778 16:0.041666667 17:0.041666667 18:0.027777778 19:0.020833333 20:0.11111111 21:0.43055556 22:0.25 23:0.048611111 24:0.069444444 25:0.055555556 26:0.020833333 27:0.020833333 28:0.0069444444 29:0.027777778 30:0.083333333 31:0.67361111 32:0.11111111 33:0.048611111 34:0.027777778 35:0.013888889 36:0.0625 37:0.61805556 38:0.10416667 39:0.083333333 40:0.041666667 41:0.048611111 42:0.055555556 43:0.013888889 44:0.013888889 45:0.055555556 46:0.11111111 47:0.30555556 48:0.39583333 49:0.013888889 50:0.020833333 51:0.069444444 52:0.076388889 53:0.13194444 54:0.027777778 55:0.21527778 56:0.44444444 57:0.020833333 58:0.048611111 59:0.090277778 60:0.076388889 61:0.5 62:0.11111111 63:0.14583333 64:0.0069444444 65:0.076388889 66:0.090277778 67:0.069444444 68:0.375 69:0.17361111 70:0.16666667 71:0.020833333 72:0.027777778 73:0.055555556 74:0.125 75:0.048611111 76:0.048611111 77:0.055555556 78:0.020833333 79:0.034722222 80:0.61111111 
8 8 8 8 8 1:0.055045872 2:0.036697248 3:0.064220183 4:0.12844037 5:0.34862385 6:0.23853211 7:0.055045872 8:0.073394495 9:0.036697248 10:0.036697248 11:0.30275229 12:0.11009174 13:0.2293578 14:0.082568807 15:0.073394495 16:0.12844037 17:0.11009174 18:0.2293578 19:0.12844037 20:0.036697248 21:0.27522936 22:0.16513761 23:0.018348624 24:0.036697248 25:0.14678899 26:0.29357798 27:0.055045872 28:0.018348624 29:0.064220183 30:0.027522936 31:0.31192661 32:0.082568807 33:0.027522936 34:0.18348624 35:0.25688073 36:0.073394495 37:0.027522936 38:0.027522936 39:0.091743119 40:0.31192661 41:0.082568807 42:0.027522936 43:0.064220183 44:0.24770642 45:0.12844037 46:0.3853211 47:0.04587156 48:0.018348624 49:0.27522936 50:0.10091743 51:0.27522936 52:0.2293578 53:0.036697248 54:0.027522936 55:0.027522936 56:0.027522936 57:0.14678899 58:0.26605505 59:0.04587156 60:0.32110092 61:0.091743119 62:0.036697248 63:0.036697248 64:0.055045872 65:0.29357798 66:0.10091743 67:0.073394495 68:0.04587156 69:0.10091743 70:0.11009174 71:0.22018349 72:0.055045872 73:0.11009174 74:0.11926606 75:0.25688073 76:0.036697248 77:0.0091743119 78:0.0091743119 79:0.018348624 80:0.44036697 
8 8 8 8 8 1:0.092592593 2:0.018518519 3:0.027777778 4:0.037037037 5:0.26851852 6:0.092592593 7:0.31481481 8:0.14814815 9:0.064814815 10:0.25 11:0.17592593 12:0.13888889 13:0.046296296 14:0.018518519 15:0.28703704 16:0.018518519 17:0.10185185 18:0.064814815 19:0.28703704 20:0.16666667 21:0.074074074 22:0.027777778 23:0.046296296 24:0.23148148 25:0.055555556 26:0.30555556 27:0.092592593 28:0.055555556 29:0.046296296 30:0.055555556 31:0.23148148 32:0.15740741 33:0.092592593 34:0.35185185 35:0.0092592593 36:0.0092592593 37:0.074074074 38:0.046296296 39:0.32407407 40:0.092592593 41:0.25925926 42:0.14814815 43:0.037037037 44:0.018518519 45:0.11111111 46:0.10185185 47:0.083333333 48:0.24074074 49:0.28703704 50:0.12962963 51:0.083333333 52:0.11111111 53:0.027777778 54:0.037037037 55:0.21296296 56:0.11111111 57:0.055555556 58:0.37037037 59:0.19444444 60:0.14814815 61:0.19444444 62:0.0092592593 63:0.018518519 64:0.0092592593 65:0.21296296 66:0.17592593 67:0.074074074 68:0.046296296 69:0.24074074 70:0.15740741 71:0.027777778 72:0.064814815 73:0.037037037 74:0.27777778 75:0.12962963 76:0.083333333 77:0.046296296 78:0.037037037 79:0.027777778 80:0.36111111 
8 8 8 8 8 1:0.012903226 2:0.012903226 3:0.29677419 4:0.15483871 5:0.12258065 6:0.04516129 7:0.30322581 8:0.051612903 9:0.42580645 10:0.39354839 11:0.051612903 12:0.019354839 13:0.032258065 14:0.025806452 15:0.019354839 16:0.032258065 17:0.49032258 18:0.26451613 19:0.077419355 20:0.038709677 21:0.012903226 22:0.032258065 23:0.051612903 24:0.032258065 25:0.096774194 26:0.26451613 27:0.1483871 28:0.077419355 29:0.077419355 30:0.038709677 31:0.070967742 32:0.22580645 33:0.04516129 34:0.21935484 35:0.12903226 36:0.10967742 37:0.10967742 38:0.3483871 39:0.019354839 40:0.019354839 41:0.051612903 42:0.038709677 43:0.019354839 44:0.070967742 45:0.12903226 46:0.35483871 47:0.32258065 48:0.012903226 49:0.10322581 50:0.29677419 51:0.051612903 52:0.038709677 53:0.058064516 54:0.23225806 55:0.2 56:0.019354839 57:0.35483871 58:0.070967742 59:0.025806452 60:0.051612903 61:0.11612903 62:0.20645161 63:0.15483871 64:0.019354839 65:0.012903226 68:0.038709677 69:0.5483871 70:0.1483871 71:0.10967742 72:0.14193548 73:0.064516129 74:0.077419355 75:0.22580645 76:0.2516129 77:0.058064516 78:0.032258065 79:0.032258065 80:0.25806452 
8 5.8799507008500189 8 0 0 1:0.21787709 2:0.17877095 3:0.022346369 4:0.044692737 5:0.011173184 6:0.016759777 7:0.1452514 8:0.36312849 9:0.027932961 10:0.37988827 11:0.22905028 12:0.13407821 13:0.11731844 14:0.05027933 15:0.033519553 16:0.027932961 17:0.039106145 18:0.4301676 19:0.41899441 20:0.027932961 21:0.011173184 22:0.0055865922 23:0.027932961 24:0.039106145 25:0.039106145 26:0.022346369 27:0.05027933 28:0.055865922 29:0.067039106 30:0.36871508 31:0.29608939 32:0.10055866 33:0.033519553 34:0.022346369 35:0.044692737 36:0.072625698 37:0.089385475 38:0.31284916 39:0.19553073 40:0.22905028 41:0.022346369 42:0.022346369 43:0.027932961 44:0.027932961 45:0.039106145 46:0.033519553 47:0.55865922 48:0.26815642 49:0.011173184 50:0.0055865922 51:0.033519553 52:0.20111732 53:0.45810056 54:0.21787709 55:0.022346369 56:0.05027933 57:0.078212291 58:0.067039106 59:0.15083799 60:0.55865922 61:0.072625698 63:0.027932961 64:0.044692737 65:0.044692737 66:0.016759777 67:0.17877095 68:0.089385475 69:0.20111732 70:0.17318436 71:0.10055866 72:0.19553073 73:0.11731844 74:0.25698324 75:0.061452514 76:0.033519553 77:0.011173184 78:0.011173184 79:0.18994413 80:0.31843575 
8 8 8 8 8 1:0.23021583 2:0.086330935 3:0.12230216 4:0.035971223 5:0.043165468 6:0.064748201 7:0.064748201 8:0.35251799 9:0.086330935 10:0.09352518 11:0.14388489 12:0.21582734 13:0.086330935 14:0.30935252 15:0.028776978 16:0.035971223 17:0.12230216 18:0.13669065 19:0.050359712 20:0.09352518 21:0.16546763 22:0.25899281 23:0.14388489 24:0.028776978 25:0.057553957 26:0.043165468 27:0.15107914 28:0.22302158 29:0.057553957 30:0.28057554 31:0.13669065 32:0.050359712 33:0.064748201 34:0.13669065 35:0.23021583 36:0.035971223 37:0.086330935 38:0.043165468 39:0.3381295 40:0.064748201 41:0.0071942446 42:0.014388489 43:0.035971223 44:0.035971223 45:0.14388489 46:0.13669065 47:0.55395683 48:0.071942446 49:0.014388489 50:0.0071942446 51:0.043165468 52:0.1294964 53:0.10071942 54:0.51798561 55:0.09352518 56:0.09352518 57:0.10071942 58:0.18705036 59:0.20863309 60:0.20143885 61:0.13669065 62:0.057553957 63:0.043165468 64:0.064748201 65:0.15107914 66:0.17985612 67:0.043165468 68:0.057553957 69:0.035971223 70:0.16546763 71:0.15827338 72:0.20863309 73:0.28776978 74:0.086330935 75:0.086330935 76:0.09352518 77:0.021582734 78:0.021582734 79:0.028776978 80:0.37410072 
0 8 0 3.1246718053921141 0 1:0.081632653 2:0.2585034 3:0.21768707 4:0.15646259 5:0.095238095 6:0.074829932 7:0.06122449 8:0.054421769 9:0.06122449 10:0.10884354 11:0.16326531 12:0.24489796 13:0.054421769 14:0.047619048 15:0.17687075 16:0.14285714 17:0.0068027211 18:0.06122449 19:0.40136054 20:0.13605442 21:0.19047619 22:0.14965986 23:0.034013605 24:0.020408163 25:0.040816327 26:0.040816327 27:0.20408163 29:0.027210884 30:0.027210884 31:0.49659864 32:0.16326531 33:0.027210884 34:0.013605442 35:0.040816327 36:0.21088435 37:0.047619048 38:0.034013605 39:0.33333333 40:0.29251701 41:0.10204082 42:0.17687075 43:0.054421769 44:0.068027211 45:0.095238095 46:0.06122449 47:0.3877551 48:0.054421769 49:0.054421769 50:0.020408163 51:0.11564626 52:0.013605442 53:0.034013605 54:0.068027211 55:0.23809524 56:0.45578231 57:0.054421769 58:0.027210884 59:0.16326531 60:0.38095238 61:0.18367347 62:0.14285714 63:0.020408163 64:0.027210884 65:0.42857143 66:0.1292517 67:0.11564626 68:0.027210884 69:0.013605442 70:0.2244898 71:0.020408163 72:0.040816327 73:0.068027211 74:0.19047619 75:0.027210884 76:0.027210884 77:0.020408163 78:0.047619048 79:0.088435374 80:0.53061224 
8 8 8 8 8 1:0.005 2:0.03 3:0.13 4:0.285 5:0.48 6:0.04 7:0.01 8:0.02 9:0.12 10:0.07 11:0.21 12:0.175 13:0.125 14:0.225 15:0.065 16:0.01 17:0.4 18:0.1 19:0.32 20:0.08 21:0.06 22:0.01 23:0.005 24:0.025 25:0.075 26:0.355 27:0.16 28:0.065 29:0.055 30:0.2 31:0.06 32:0.03 33:0.135 34:0.235 35:0.425 36:0.025 37:0.04 38:0.05 39:0.06 40:0.03 41:0.045 42:0.135 43:0.24 44:0.3 45:0.14 46:0.025 47:0.03 48:0.085 49:0.025 50:0.05 51:0.05 52:0.13 53:0.545 54:0.06 55:0.07 56:0.07 57:0.09 58:0.045 59:0.13 60:0.38 61:0.115 62:0.16 63:0.045 64:0.035 65:0.095 66:0.085 67:0.055 68:0.05 69:0.22 70:0.185 71:0.3 72:0.01 73:0.075 74:0.065 75:0.35 76:0.01 77:0.035 78:0.065 79:0.255 80:0.145 
8 8 8 8 8 1:0.053191489 2:0.037234043 3:0.12765957 4:0.15957447 5:0.14893617 6:0.32446809 7:0.015957447 8:0.13297872 9:0.2606383 10:0.34042553 11:0.15957447 12:0.095744681 13:0.063829787 14:0.026595745 15:0.0053191489 16:0.04787234 17:0.39893617 18:0.43085106 19:0.037234043 20:0.031914894 21:0.042553191 22:0.037234043 23:0.015957447 24:0.0053191489 25:0.19148936 26:0.095744681 27:0.031914894 28:0.17021277 29:0.43085106 30:0.015957447 31:0.042553191 32:0.021276596 33:0.031914894 34:0.069148936 35:0.11702128 36:0.11170213 37:0.085106383 38:0.35106383 39:0.20744681 40:0.026595745 41:0.010638298 42:0.095744681 43:0.18085106 44:0.13297872 45:0.13829787 46:0.031914894 47:0.026595745 48:0.38297872 49:0.058510638 50:0.10638298 51:0.10106383 52:0.074468085 53:0.14893617 54:0.17553191 55:0.2393617 56:0.095744681 57:0.063829787 58:0.13829787 59:0.26595745 60:0.29255319 61:0.021276596 62:0.031914894 63:0.11170213 64:0.074468085 65:0.34042553 66:0.32978723 67:0.12765957 68:0.021276596 69:0.04787234 70:0.058510638 71:0.04787234 72:0.026595745 73:0.021276596 74:0.090425532 75:0.17021277 76:0.12234043 77:0.12234043 78:0.15957447 79:0.079787234 80:0.23404255 
0 8 8 8 8 1:0.022508039 2:0.035369775 3:0.18006431 4:0.34405145 5:0.093247588 6:0.077170418 7:0.10289389 8:0.14469453 9:0.019292605 10:0.21221865 11:0.24115756 12:0.20257235 13:0.18006431 14:0.083601286 15:0.032154341 16:0.028938907 17:0.26688103 18:0.18971061 19:0.3022508 20:0.13826367 21:0.064308682 22:0.0096463023 23:0.01607717 24:0.012861736 25:0.048231511 26:0.01607717 27:0.019292605 28:0.096463023 29:0.16398714 30:0.40836013 31:0.1511254 32:0.096463023 33:0.073954984 34:0.048231511 35:0.090032154 36:0.067524116 37:0.24758842 38:0.36012862 39:0.10289389 40:0.0096463023 41:0.019292605 42:0.0064308682 43:0.035369775 44:0.07073955 45:0.061093248 46:0.32475884 47:0.39871383 48:0.083601286 49:0.17041801 50:0.12540193 51:0.067524116 52:0.090032154 53:0.18006431 54:0.18006431 55:0.083601286 56:0.10289389 57:0.028938907 58:0.051446945 59:0.20900322 60:0.36655949 61:0.10289389 62:0.11254019 63:0.093247588 64:0.035369775 65:0.083601286 66:0.16398714 67:0.1607717 68:0.2733119 69:0.13826367 70:0.1221865 71:0.041800643 72:0.01607717 73:0.012861736 74:0.045016077 75:0.07073955 76:0.12540193 77:0.13504823 78:0.24758842 79:0.25080386 80:0.11254019 
8 8 8 8 8 1:0.077319588 2:0.030927835 3:0.030927835 4:0.030927835 5:0.17010309 6:0.29896907 7:0.28350515 8:0.077319588 9:0.2371134 10:0.28350515 11:0.1443299 12:0.056701031 13:0.06185567 14:0.051546392 15:0.087628866 16:0.077319588 17:0.056701031 18:0.42783505 19:0.18556701 20:0.067010309 21:0.097938144 22:0.087628866 23:0.030927835 24:0.046391753 25:0.0051546392 26:0.010309278 27:0.030927835 28:0.1185567 29:0.36082474 30:0.25257732 31:0.17010309 32:0.051546392 33:0.20103093 34:0.22164948 35:0.36597938 36:0.12886598 37:0.036082474 38:0.020618557 39:0.015463918 40:0.010309278 41:0.092783505 42:0.60824742 43:0.077319588 44:0.010309278 46:0.0051546392 47:0.0051546392 48:0.20103093 49:0.23195876 50:0.46391753 51:0.18556701 52:0.087628866 53:0.0051546392 54:0.0051546392 56:0.020618557 57:0.19587629 58:0.015463918 59:0.015463918 60:0.010309278 61:0.010309278 62:0.015463918 63:0.2628866 64:0.4742268 65:0.34020619 66:0.36597938 67:0.1443299 68:0.06185567 69:0.067010309 70:0.010309278 71:0.0051546392 72:0.0051546392 73:0.1443299 74:0.067010309 75:0.14948454 76:0.15463918 77:0.092783505 78:0.18041237 79:0.087628866 80:0.12371134 
8 8 8 8 8 1:0.08 2:0.38 3:0.12 4:0.26 5:0.06 6:0.02 8:0.08 9:0.2 10:0.66 14:0.04 15:0.02 16:0.08 17:0.14 18:0.16 19:0.04 20:0.02 21:0.04 22:0.34 23:0.12 24:0.14 25:0.02 26:0.06 27:0.04 28:0.46 29:0.12 30:0.1 32:0.2 33:0.04 34:0.06 35:0.06 36:0.38 37:0.12 38:0.08 39:0.06 40:0.2 41:0.02 42:0.02 43:0.08 44:0.1 45:0.08 46:0.04 47:0.26 48:0.4 49:0.18 50:0.08 51:0.04 52:0.04 53:0.06 54:0.04 55:0.12 56:0.44 57:0.08 58:0.1 59:0.14 60:0.02 61:0.04 62:0.08 63:0.04 64:0.5 65:0.06 66:0.02 67:0.3 68:0.28 69:0.04 70:0.06 71:0.1 72:0.14 73:0.02 74:0.24 75:0.14 76:0.12 77:0.08 78:0.18 79:0.16 80:0.06 
0 0 8 0 8 1:0.020833333 2:0.013888889 3:0.020833333 4:0.034722222 5:0.28472222 6:0.40277778 7:0.20833333 8:0.013888889 9:0.055555556 10:0.020833333 11:0.16666667 12:0.47222222 13:0.20138889 14:0.013888889 15:0.027777778 16:0.041666667 17:0.041666667 18:0.027777778 19:0.020833333 20:0.11111111 21:0.43055556 22:0.25 23:0.048611111 24:0.069444444 25:0.055555556 26:0.020833333 27:0.020833333 28:0.0069444444 29:0.027777778 30:0.083333333 31:0.67361111 32:0.11111111 33:0.048611111 34:0.027777778 35:0.013888889 36:0.0625 37:0.61805556 38:0.10416667 39:0.083333333 40:0.041666667 41:0.048611111 42:0.055555556 43:0.013888889 44:0.013888889 45:0.055555556 46:0.11111111 47:0.30555556 48:0.39583333 49:0.013888889 50:0.020833333 51:0.069444444 52:0.076388889 53:0.13194444 54:0.027777778 55:0.21527778 56:0.44444444 57:0.020833333 58:0.048611111 59:0.090277778 60:0.076388889 61:0.5 62:0.11111111 63:0.14583333 64:0.0069444444 65:0.076388889 66:0.090277778 67:0.069444444 68:0.375 69:0.17361111 70:0.16666667 71:0.020833333 72:0.027777778 73:0.055555556 74:0.125 75:0.048611111 76:0.048611111 77:0.055555556 78:0.020833333 79:0.034722222 80:0.61111111 
8 8 8 8 8 1:0.055045872 2:0.036697248 3:0.064220183 4:0.12844037 5:0.34862385 6:0.23853211 7:0.055045872 8:0.073394495 9:0.036697248 10:0.036697248 11:0.30275229 12:0.11009174 13:0.2293578 14:0.082568807 15:0.073394495 16:0.12844037 17:0.11009174 18:0.2293578 19:0.12844037 20:0.036697248 21:0.27522936 22:0.16513761 23:0.018348624 24:0.036697248 25:0.14678899 26:0.29357798 27:0.055045872 28:0.018348624 29:0.064220183 30:0.027522936 31:0.31192661 32:0.082568807 33:0.027522936 34:0.18348624 35:0.25688073 36:0.073394495 37:0.027522936 38:0.027522936 39:0.091743119 40:0.31192661 41:0.082568807 42:0.027522936 43:0.064220183 44:0.24770642 45:0.12844037 46:0.3853211 47:0.04587156 48:0.018348624 49:0.27522936 50:0.10091743 51:0.27522936 52:0.2293578 53:0.036697248 54:0.027522936 55:0.027522936 56:0.027522936 57:0.14678899 58:0.26605505 59:0.04587156 60:0.32110092 61:0.091743119 62:0.036697248 63:0.036697248 64:0.055045872 65:0.29357798 66:0.10091743 67:0.073394495 68:0.04587156 69:0.10091743 70:0.11009174 71:0.22018349 72:0.055045872 73:0.11009174 74:0.11926606 75:0.25688073 76:0.036697248 77:0.0091743119 78:0.0091743119 79:0.018348624 80:0.44036697 
8 8 8 8 8 1:0.092592593 2:0.018518519 3:0.027777778 4:0.037037037 5:0.26851852 6:0.092592593 7:0.31481481 8:0.14814815 9:0.064814815 10:0.25 11:0.17592593 12:0.13888889 13:0.046296296 14:0.018518519 15:0.28703704 16:0.018518519 17:0.10185185 18:0.064814815 19:0.28703704 20:0.16666667 21:0.074074074 22:0.027777778 23:0.046296296 24:0.23148148 25:0.055555556 26:0.30555556 27:0.092592593 28:0.055555556 29:0.046296296 30:0.055555556 31:0.23148148 32:0.15740741 33:0.092592593 34:0.35185185 35:0.0092592593 36:0.0092592593 37:0.074074074 38:0.046296296 39:0.32407407 40:0.092592593 41:0.25925926 42:0.14814815 43:0.037037037 44:0.018518519 45:0.11111111 46:0.10185185 47:0.083333333 48:0.24074074 49:0.28703704 50:0.12962963 51:0.083333333 52:0.11111111 53:0.027777778 54:0.037037037 55:0.21296296 56:0.11111111 57:0.055555556 58:0.37037037 59:0.19444444 60:0.14814815 61:0.19444444 62:0.0092592593 63:0.018518519 64:0.0092592593 65:0.21296296 66:0.17592593 67:0.074074074 68:0.046296296 69:0.24074074 70:0.15740741 71:0.027777778 72:0.064814815 73:0.037037037 74:0.27777778 75:0.12962963 76:0.083333333 77:0.046296296 78:0.037037037 79:0.027777778 80:0.36111111 
8 8 8 8 8 1:0.012903226 2:0.012903226 3:0.29677419 4:0.15483871 5:0.12258065 6:0.04516129 7:0.30322581 8:0.051612903 9:0.42580645 10:0.39354839 11:0.051612903 12:0.019354839 13:0.032258065 14:0.025806452 15:0.019354839 16:0.032258065 17:0.49032258 18:0.26451613 19:0.077419355 20:0.038709677 21:0.012903226 22:0.032258065 23:0.051612903 24:0.032258065 25:0.096774194 26:0.26451613 27:0.1483871 28:0.077419355 29:0.077419355 30:0.038709677 31:0.070967742 32:0.22580645 33:0.04516129 34:0.21935484 35:0.12903226 36:0.10967742 37:0.10967742 38:0.3483871 39:0.019354839 40:0.019354839 41:0.051612903 42:0.038709677 43:0.019354839 44:0.070967742 45:0.12903226 46:0.35483871 47:0.32258065 48:0.012903226 49:0.10322581 50:0.29677419 51:0.051612903 52:0.038709677 53:0.058064516 54:0.23225806 55:0.2 56:0.019354839 57:0.35483871 58:0.070967742 59:0.025806452 60:0.051612903 61:0.11612903 62:0.20645161 63:0.15483871 64:0.019354839 65:0.012903226 68:0.038709677 69:0.5483871 70:0.1483871 71:0.10967742 72:0.14193548 73:0.064516129 74:0.077419355 75:0.22580645 76:0.2516129 77:0.058064516 78:0.032258065 79:0.032258065 80:0.25806452 
8 8 8 0 0 1:0.21787709 2:0.17877095 3:0.022346369 4:0.044692737 5:0.011173184 6:0.016759777 7:0.1452514 8:0.36312849 9:0.027932961 10:0.37988827 11:0.22905028 12:0.13407821 13:0.11731844 14:0.05027933 15:0.033519553 16:0.027932961 17:0.039106145 18:0.4301676 19:0.41899441 20:0.027932961 21:0.011173184 22:0.0055865922 23:0.027932961 24:0.039106145 25:0.039106145 26:0.022346369 27:0.05027933 28:0.055865922 29:0.067039106 30:0.36871508 31:0.29608939 32:0.10055866 33:0.033519553 34:0.022346369 35:0.044692737 36:0.072625698 37:0.089385475 38:0.31284916 39:0.19553073 40:0.22905028 41:0.022346369 42:0.022346369 43:0.027932961 44:0.027932961 45:0.039106145 46:0.033519553 47:0.55865922 48:0.26815642 49:0.011173184 50:0.0055865922 51:0.033519553 52:0.20111732 53:0.45810056 54:0.21787709 55:0.022346369 56:0.05027933 57:0.078212291 58:0.067039106 59:0.15083799 60:0.55865922 61:0.072625698 63:0.027932961 64:0.044692737 65:0.044692737 66:0.016759777 67:0.17877095 68:0.089385475 69:0.20111732 70:0.17318436 71:0.10055866 72:0.19553073 73:0.11731844 74:0.25698324 75:0.061452514 76:0.033519553 77:0.011173184 78:0.011173184 79:0.18994413 80:0.31843575 
8 8 8 8 8 1:0.23021583 2:0.086330935 3:0.12230216 4:0.035971223 5:0.043165468 6:0.064748201 7:0.064748201 8:0.35251799 9:0.086330935 10:0.09352518 11:0.14388489 12:0.21582734 13:0.086330935 14:0.30935252 15:0.028776978 16:0.035971223 17:0.12230216 18:0.13669065 19:0.050359712 20:0.09352518 21:0.16546763 22:0.25899281 23:0.14388489 24:0.028776978 25:0.057553957 26:0.043165468 27:0.15107914 28:0.22302158 29:0.057553957 30:0.28057554 31:0.13669065 32:0.050359712 33:0.064748201 34:0.13669065 35:0.23021583 36:0.035971223 37:0.086330935 38:0.043165468 39:0.3381295 40:0.064748201 41:0.0071942446 42:0.014388489 43:0.035971223 44:0.035971223 45:0.14388489 46:0.13669065 47:0.55395683 48:0.071942446 49:0.014388489 50:0.0071942446 51:0.043165468 52:0.1294964 53:0.10071942 54:0.51798561 55:0.09352518 56:0.09352518 57:0.10071942 58:0.18705036 59:0.20863309 60:0.20143885 61:0.13669065 62:0.057553957 63:0.043165468 64:0.064748201 65:0.15107914 66:0.17985612 67:0.043165468 68:0.057553957 69:0.035971223 70:0.16546763 71:0.15827338 72:0.20863309 73:0.28776978 74:0.086330935 75:0.086330935 76:0.09352518 77:0.021582734 78:0.021582734 79:0.028776978 80:0.37410072 
8 8 0 8 0 1:0.081632653 2:0.2585034 3:0.21768707 4:0.15646259 5:0.095238095 6:0.074829932 7:0.06122449 8:0.054421769 9:0.06122449 10:0.10884354 11:0.16326531 12:0.24489796 13:0.054421769 14:0.047619048 15:0.17687075 16:0.14285714 17:0.0068027211 18:0.06122449 19:0.40136054 20:0.13605442 21:0.19047619 22:0.14965986 23:0.034013605 24:0.020408163 25:0.040816327 26:0.040816327 27:0.20408163 29:0.027210884 30:0.027210884 31:0.49659864 32:0.16326531 33:0.027210884 34:0.013605442 35:0.040816327 36:0.21088435 37:0.047619048 38:0.034013605 39:0.33333333 40:0.29251701 41:0.10204082 42:0.17687075 43:0.054421769 44:0.068027211 45:0.095238095 46:0.06122449 47:0.3877551 48:0.054421769 49:0.054421769 50:0.020408163 51:0.11564626 52:0.013605442 53:0.034013605 54:0.068027211 55:0.23809524 56:0.45578231 57:0.054421769 58:0.027210884 59:0.16326531 60:0.38095238 61:0.18367347 62:0.14285714 63:0.020408163 64:0.027210884 65:0.42857143 66:0.1292517 67:0.11564626 68:0.027210884 69:0.013605442 70:0.2244898 71:0.020408163 72:0.040816327 73:0.068027211 74:0.19047619 75:0.027210884 76:0.027210884 77:0.020408163 78:0.047619048 79:0.088435374 80:0.53061224 
8 8 8 8 8 1:0.005 2:0.03 3:0.13 4:0.285 5:0.48 6:0.04 7:0.01 8:0.02 9:0.12 10:0.07 11:0.21 12:0.175 13:0.125 14:0.225 15:0.065 16:0.01 17:0.4 18:0.1 19:0.32 20:0.08 21:0.06 22:0.01 23:0.005 24:0.025 25:0.075 26:0.355 27:0.16 28:0.065 29:0.055 30:0.2 31:0.06 32:0.03 33:0.135 34:0.235 35:0.425 36:0.025 37:0.04 38:0.05 39:0.06 40:0.03 41:0.045 42:0.135 43:0.24 44:0.3 45:0.14 46:0.025 47:0.03 48:0.085 49:0.025 50:0.05 51:0.05 52:0.13 53:0.545 54:0.06 55:0.07 56:0.07 57:0.09 58:0.045 59:0.13 60:0.38 61:0.115 62:0.16 63:0.045 64:0.035 65:0.095 66:0.085 67:0.055 68:0.05 69:0.22 70:0.185 71:0.3 72:0.01 73:0.075 74:0.065 75:0.35 76:0.01 77:0.035 78:0.065 79:0.255 80:0.145 
8 8 8 8 8 1:0.053191489 2:0.037234043 3:0.12765957 4:0.15957447 5:0.14893617 6:0.32446809 7:0.015957447 8:0.13297872 9:0.2606383 10:0.34042553 11:0.15957447 12:0.095744681 13:0.063829787 14:0.026595745 15:0.0053191489 16:0.04787234 17:0.39893617 18:0.43085106 19:0.037234043 20:0.031914894 21:0.042553191 22:0.037234043 23:0.015957447 24:0.0053191489 25:0.19148936 26:0.095744681 27:0.031914894 28:0.17021277 29:0.43085106 30:0.015957447 31:0.042553191 32:0.021276596 33:0.031914894 34:0.069148936 35:0.11702128 36:0.11170213 37:0.085106383 38:0.35106383 39:0.20744681 40:0.026595745 41:0.010638298 42:0.095744681 43:0.18085106 44:0.13297872 45:0.13829787 46:0.031914894 47:0.026595745 48:0.38297872 49:0.058510638 50:0.10638298 51:0.10106383 52:0.074468085 53:0.14893617 54:0.17553191 55:0.2393617 56:0.095744681 57:0.063829787 58:0.13829787 59:0.26595745 60:0.29255319 61:0.021276596 62:0.031914894 63:0.11170213 64:0.074468085 65:0.34042553 66:0.32978723 67:0.12765957 68:0.021276596 69:0.04787234 70:0.058510638 71:0.04787234 72:0.026595745 73:0.021276596 74:0.090425532 75:0.17021277 76:0.12234043 77:0.12234043 78:0.15957447 79:0.079787234 80:0.23404255 
