svm_type c_svc
kernel_type rbf
gamma 0.0625
nr_class 5
total_sv 406
rho -0.92610390019665867 -0.92532064006475234 -0.69308992170577599 -0.28163292105868265 -0.28178839580166665 -0.078650024026322235 0.55276722906593134 -0.41239219296316182 0.3771038037086975 0.51227870022362187
label 10 15 16 12 13
nr_sv 73 85 88 77 83
SV
1.2978385197801232 1.6808248963507044 0.75126843458508319 1.5082299941420896 1:0.7 2:1.74 3:0.2 5:0.36 6:0.56 7:0.44 9:0.82 10:1.18 11:0.98 12:0.02 14:0.92 15:1.08 16:0.24 17:0.74 18:0.5 19:0.56 20:0.96 21:0.46 22:0.56 23:0.54 24:0.9 25:0.54 26:0.16 27:0.64 28:0.8 29:1.04 30:0.36 31:0.14 32:0.64 33:0.78 34:1.18 35:0.26 36:0.46 37:0.54 38:0.92 39:0.72 40:0.36 41:0.7 42:0.74 43:0.3 44:0.54 45:0.72 46:0.58 47:0.32 48:0.5 49:0.96 50:0.64 51:0.64 52:0.42 53:0.34 54:1.22 55:0.38 56:0.88 57:0.12 58:0.52 59:0.58 60:0.9 61:1 62:1 64:0.12 65:0.88 66:1.82 67:0.18 69:0.04 70:0.96 71:1.7 72:0.3 74:0.06 75:0.94 76:0.54 77:0.46 78:0.16 79:0.88 80:0.96 81:1 82:0.16 83:0.84 84:0.02 85:0.98 86:1 87:0.5 88:0.5 90:1 91:0.72 92:0.44 93:0.84 95:1 
0.11003708608931861 0.1831402717567806 0.064510680279457444 0.27018209875497157 1:2 5:1 6:1 9:1 10:1 11:1 15:2 16:1 18:1 20:1 21:2 25:1 26:1 29:1 30:1 31:1 34:0.96774194 35:1.0322581 36:1 38:0.62903226 39:0.37096774 40:1 41:0.89516129 42:0.10483871 43:0.92741935 44:1.016129 45:0.056451613 46:0.26612903 47:0.60483871 48:0.33064516 49:1.2983871 50:0.5 51:0.30645161 52:0.54032258 53:0.47580645 54:1 55:0.67741935 56:0.90322581 57:0.096774194 59:0.15322581 60:1.8467742 61:1 62:1 65:1 66:1 67:1 70:1 71:2 75:1 76:1 78:1 80:1 81:2 85:1 86:2 90:1 91:2 95:1 
0.76395052912919981 0.57024772907919385 0.14919266701535663 0.5351138769606234 1:0.95 2:0.16 3:1.32 4:0.36 5:0.21 6:0.99 7:0.01 9:0.42 10:1.58 11:1 14:0.93 15:1.07 16:1 17:0.92 18:0.08 20:1 21:0.33 22:1.27 23:0.4 25:1 26:0.26 27:0.17 28:0.72 29:0.36 30:1.49 31:0.27 32:0.27 33:0.37 34:0.51 35:1.58 36:1 37:0.36 38:0.64 40:1 41:0.63 42:0.45 43:0.86 44:0.61 45:0.45 46:0.29 47:0.49 48:0.19 49:1.4 50:0.63 51:0.31 52:0.31 53:0.3 54:1.12 55:0.96 56:0.71 57:0.29 59:0.3 60:1.7 61:1.06 62:0.94 65:1 66:1.4 67:0.6 70:1 71:1.88 72:0.12 75:1 76:0.98 77:0.02 79:0.58 80:1.42 81:1 82:1 85:1 86:1 87:1 90:1 91:1.32 92:0.68 95:1 
0.18506483939375953 0.15592975410028684 0.21856025366775977 0.17562359048342893 1:1.4032258 2:0.59677419 3:0.024193548 4:0.42741935 5:0.5483871 6:1 8:0.15322581 9:0.84677419 10:1 11:1 14:0.66129032 15:1.3387097 16:1 17:0.73387097 18:0.26612903 20:1 21:1.5967742 22:0.40322581 25:1 26:0.69354839 27:0.56451613 28:0.54032258 29:0.51612903 30:0.68548387 31:0.35483871 32:0.91935484 33:1.1290323 34:0.40322581 35:0.19354839 36:0.16129032 37:1.0403226 38:0.81451613 39:0.50806452 40:0.47580645 41:1.0241935 42:0.90322581 43:0.78225806 44:0.10483871 45:0.18548387 46:0.20967742 47:1.0241935 48:0.7016129 49:0.87096774 50:0.19354839 51:0.15322581 52:0.87903226 53:0.65322581 54:0.80645161 55:0.50806452 56:0.43548387 57:0.48387097 58:0.080645161 59:0.61290323 60:1.3870968 61:1 63:0.27419355 64:0.72580645 65:1 66:1 70:2 71:1 74:0.0080645161 75:1.9919355 76:1 79:0.9516129 80:1.0483871 81:1 84:1 85:1 86:1 89:0.0080645161 90:1.9919355 91:0.96774194 92:0.032258065 94:0.34677419 95:1.6532258 
0.15197623791574424 0.3141197216305342 0.19757211474491274 0.39663932000538543 1:1 4:0.32773109 5:1.6722689 6:1 9:0.12605042 10:1.8739496 11:1 14:1 15:1 16:1 20:2 21:1 24:0.92436975 25:1.0756303 26:0.15966387 27:0.93277311 28:0.90756303 30:1 31:0.075630252 32:0.1092437 33:1.8151261 35:1 36:1 38:1 40:1 41:0.25210084 42:0.78151261 43:0.7394958 44:1.0756303 45:0.1512605 46:0.10084034 47:0.3697479 48:0.68067227 49:0.94957983 50:0.89915966 51:0.092436975 52:0.51260504 53:0.58823529 54:1.1092437 55:0.69747899 56:1 60:2 61:2 65:1 66:1 68:0.15966387 69:0.26890756 70:1.5714286 71:1 73:0.64705882 74:0.34453782 75:1.0084034 76:1 77:1 80:1 81:1 84:0.92436975 85:1.0756303 86:1 89:0.39495798 90:1.605042 91:1 94:1.7142857 95:0.28571429 
0.4834917341635257 0.55044819210674167 0.36963991819367359 0.43809194077306618 1:1 2:0.94642857 3:0.053571429 5:1 6:1 8:1 10:1 11:1 14:1 15:1 16:1 17:1 20:1 21:1.6785714 22:0.32142857 25:1 26:0.053571429 27:0.071428571 28:1.6071429 29:1.1607143 30:0.10714286 31:0.053571429 32:0.035714286 33:0.98214286 34:1.7321429 35:0.19642857 36:0.98214286 37:0.017857143 38:0.66071429 39:0.35714286 40:0.98214286 41:1.4107143 42:0.58928571 44:0.23214286 45:0.76785714 46:0.19642857 47:0.92857143 48:0.875 49:0.71428571 50:0.28571429 51:0.44642857 52:0.64285714 53:0.53571429 54:1.25 55:0.125 56:0.51785714 57:0.39285714 58:0.10714286 59:1.0892857 60:0.89285714 61:1.8035714 62:0.19642857 65:1 66:0.44642857 67:0.55357143 69:1.0357143 70:0.96428571 71:1 73:0.10714286 74:0.92857143 75:0.96428571 76:1 78:0.035714286 79:0.96428571 80:1 81:1 83:0.67857143 84:0.32142857 85:1 86:1 89:1 90:1 91:1 93:0.017857143 94:0.98214286 95:1 
0.30147667356010405 0.36532362349522846 0.39893173252407488 0.35009913132429954 1:0.98347107 2:1.0165289 4:0.33884298 5:0.66115702 6:0.90909091 7:0.090909091 9:0.21487603 10:1.785124 11:1 13:0.05785124 14:0.19008264 15:1.7520661 16:0.10743802 17:0.89256198 18:0.23966942 19:0.7768595 20:0.98347107 21:0.29752066 22:0.70247934 23:0.81818182 24:0.8677686 25:0.31404959 26:0.39669421 27:0.18181818 28:0.20661157 29:1.4545455 30:0.76033058 31:0.40495868 32:0.27272727 33:0.70247934 34:0.96694215 35:0.65289256 36:0.32231405 37:1.3966942 38:0.28099174 39:0.43801653 40:0.56198347 41:0.1322314 42:0.87603306 43:0.58677686 44:0.85950413 45:0.54545455 46:0.082644628 47:0.31404959 48:0.90082645 49:0.76033058 50:0.94214876 51:0.082644628 52:0.31404959 53:0.54545455 54:1.1404959 55:0.91735537 56:0.46280992 57:0.5785124 58:0.082644628 59:1.1157025 60:0.76033058 61:1.5123967 62:0.36363636 63:0.12396694 65:1 66:1 68:0.63636364 69:0.36363636 70:1 71:1 74:0.69421488 75:1.3057851 76:1 78:0.68595041 79:0.31404959 80:1 81:1 84:0.96694215 85:1.0330579 86:1 89:0.67768595 90:1.322314 91:1 94:0.090909091 95:1.9090909 
0.55124574710739382 0.69763303271440025 0.82516246821557049 0.78517646974675614 1:0.49565217 2:0.51304348 3:1.2608696 4:0.24347826 5:0.48695652 6:0.75652174 7:0.24347826 8:0.93913043 9:0.034782609 10:1.026087 11:1 14:1.0608696 15:0.93913043 16:0.47826087 17:0.026086957 18:0.7826087 19:1.5826087 20:0.13043478 21:1.3913043 22:1.2 23:0.14782609 24:0.20869565 25:0.052173913 26:0.77391304 27:1.2173913 28:0.0086956522 29:0.6173913 30:0.3826087 31:0.53913043 32:1.373913 33:0.086956522 34:0.48695652 35:0.51304348 36:0.97391304 37:0.026086957 38:0.31304348 39:0.68695652 40:1 41:0.69565217 42:0.36521739 43:0.23478261 44:0.07826087 45:1.626087 46:0.69565217 47:0.62608696 48:0.10434783 49:0.77391304 50:0.8 51:0.63478261 52:0.66956522 53:0.29565217 54:0.67826087 55:0.72173913 56:0.63478261 57:1.8347826 58:0.026086957 59:0.0086956522 60:0.49565217 61:0.99130435 62:0.6 63:0.40869565 64:0.23478261 65:0.76521739 66:1 68:0.19130435 69:0.86086957 70:0.94782609 71:1 74:1 75:1 76:0.026086957 77:0.65217391 78:1.7478261 79:0.060869565 80:0.51304348 81:1 83:0.49565217 84:0.50434783 85:1 86:1 89:0.51304348 90:1.4869565 91:1 94:0.96521739 95:1.0347826 
0.57028333492019312 0.90176985757809813 0.53548730942805711 0.66956264242769181 1:0.22340426 2:1.0638298 3:0.74468085 4:0.56382979 5:0.40425532 6:0.59574468 7:0.39361702 8:0.20212766 9:0.94680851 10:0.86170213 11:0.9893617 12:0.010638298 13:0.41489362 14:0.80851064 15:0.77659574 16:0.10638298 17:1.8297872 18:0.063829787 19:0.010638298 20:0.9893617 21:0.76595745 22:0.25531915 23:0.29787234 24:0.71276596 25:0.96808511 26:0.4893617 27:0.074468085 28:0.18085106 29:0.27659574 30:1.9787234 31:0.56382979 34:0.69148936 35:1.7446809 36:0.9893617 37:0.17021277 38:0.84042553 39:0.87234043 40:0.12765957 41:0.21276596 42:0.76595745 43:0.37234043 44:1.2553191 45:0.39361702 46:0.25531915 47:0.54255319 48:0.40425532 49:0.95744681 50:0.84042553 51:0.24468085 52:0.4893617 53:0.45744681 54:0.81914894 55:0.9893617 56:0.77659574 57:0.22340426 58:0.063829787 59:0.90425532 60:1.0319149 61:1.1276596 62:0.87234043 63:0.021276596 64:0.15957447 65:0.81914894 66:1.0957447 67:0.90425532 69:0.031914894 70:0.96808511 71:0.65957447 72:0.74468085 73:0.59574468 74:0.031914894 75:0.96808511 76:0.68085106 77:0.31914894 78:0.021276596 79:1.0638298 80:0.91489362 81:1 83:0.031914894 84:0.96808511 85:1 86:1 87:0.031914894 88:0.96808511 90:1 91:1 93:1 95:1 
0.089584635964125095 0.0050735818968564604 0 0.13189459319484353 1:1.8782609 2:0.12173913 4:0.29565217 5:0.70434783 6:1 9:1 10:1 11:1 15:2 16:1 18:0.3826087 19:0.6173913 20:1 21:1 22:0.35652174 23:0.64347826 25:1 26:0.30434783 27:0.15652174 28:0.50434783 29:0.92173913 30:1.1130435 31:0.33043478 32:0.49565217 33:0.59130435 34:1.373913 35:0.20869565 36:1 38:0.13913043 39:1.0956522 40:0.76521739 41:0.11304348 42:0.060869565 43:0.76521739 44:0.76521739 45:1.2956522 46:0.10434783 47:0.31304348 48:1.1130435 49:0.74782609 50:0.72173913 51:0.11304348 52:0.4173913 53:1.0521739 54:0.76521739 55:0.65217391 56:0.36521739 57:0.42608696 58:1.1652174 59:0.87826087 60:0.16521739 61:1.5826087 62:0.4173913 65:1 66:1.9913043 67:0.0086956522 70:1 71:2 75:1 76:1 77:0.43478261 78:0.56521739 80:1 81:2 85:1 86:2 90:1 91:1.5826087 92:0.4173913 95:1 
0.31047987483534967 0.46006176612834904 0.35444753226244724 0.56401761429837161 1:1.2307692 2:0.375 3:0.22115385 4:0.17307692 5:1 6:1 9:0.61538462 10:1.3846154 11:1 14:0.67307692 15:1.3269231 16:1 18:0.66346154 19:0.33653846 20:1 21:0.93269231 22:1.0673077 25:1 26:0.76923077 27:0.10576923 28:0.125 29:1 30:1 31:0.25 32:1.0192308 33:0.71153846 34:0.16346154 35:0.85576923 36:1 39:1 40:1 41:0.16346154 42:0.35576923 43:0.75961538 44:0.72115385 45:1 46:0.18269231 47:0.13461538 48:1.0096154 49:0.40384615 50:1.2692308 51:0.19230769 52:0.10576923 53:0.99038462 54:0.57692308 55:1.1346154 56:0.63461538 57:0.36538462 58:0.32692308 59:1.3557692 60:0.31730769 61:1 62:0.93269231 63:0.067307692 65:1 66:0.43269231 67:0.56730769 69:0.028846154 70:1.9711538 71:0.625 72:0.375 75:2 76:1 78:1 80:1 81:1 84:0.68269231 85:1.3173077 86:1 87:1 90:1 91:1 93:1 95:1 
0.25859123468609413 0.34715576710548551 0.17476179830436792 0.49344631834484826 1:1.5063291 2:0.49367089 5:1 6:1 9:0.8164557 10:1.1835443 11:1 15:2 16:1 18:0.069620253 19:0.93037975 20:1 21:1.1835443 22:0.17721519 23:0.63924051 25:1 26:0.1835443 27:0.20253165 28:1.7531646 29:0.70886076 30:0.15189873 31:0.1835443 32:0.012658228 33:1.3544304 34:1.2974684 35:0.15189873 36:1 38:0.069620253 39:0.76582278 40:1.164557 41:0.11392405 42:0.18987342 43:1.7025316 44:0.93670886 45:0.056962025 46:0.063291139 47:0.1835443 48:1.2721519 49:0.57594937 50:0.90506329 51:0.069620253 52:0.21518987 53:1.5 54:0.72151899 55:0.49367089 56:0.67088608 57:0.2721519 58:0.62025316 59:0.73417722 60:0.70253165 61:1.2911392 62:0.70886076 65:1 66:1.7594937 67:0.24050633 70:1 71:1.9050633 72:0.094936709 75:1 76:1 77:0.48734177 78:0.51265823 80:1 81:1.7151899 82:0.28481013 85:1 86:1.2088608 87:0.79113924 90:1 91:1.2468354 92:0.75316456 95:1 
0.67241161042269215 1.0436626755686946 0.69436760689334132 0.97599355948005251 1:0.58 2:1.22 3:0.68 4:0.16 5:0.02 6:0.34 7:0.5 8:0.48 9:0.02 11:0.98 12:1.02 13:0.68 14:0.32 16:0.1 17:0.82 18:1.08 19:0.24 20:0.5 21:0.7 22:0.04 23:0.6 24:0.92 25:0.38 26:0.6 27:0.32 28:0.4 29:0.76 30:0.54 31:0.12 32:0.62 33:0.28 34:1.38 35:0.32 36:0.28 37:0.12 38:0.44 39:0.48 40:1.08 41:0.64 42:0.24 43:0.4 44:0.58 45:0.42 46:0.6 47:0.86 48:0.14 49:0.62 50:0.66 51:0.44 52:0.08 53:0.56 54:0.64 55:0.54 56:0.26 57:0.56 58:0.14 59:1.06 60:0.44 61:0.54 62:0.28 63:0.56 64:0.48 65:0.82 66:0.32 67:0.6 68:0.4 69:0.1 70:0.64 71:0.42 72:0.84 73:1 74:0.94 75:0.06 77:0.28 78:0.72 79:1.66 80:0.34 83:0.08 84:0.92 85:1.46 86:0.54 89:0.18 90:0.82 91:0.52 92:0.46 93:0.04 94:0.2 95:0.9 96:0.88 97:1 99:1 101:0.04 102:0.96 103:1 105:1 108:1 109:0.56 110:0.44 111:1 114:1 
0.071231446607060073 0 0.05992075369091298 0.267600022391279 1:2 6:1 7:1 11:1 12:1 13:1 18:2 19:1 21:0.60483871 22:0.39516129 24:1 25:2 30:1 31:1 34:0.71774194 35:0.28225806 36:1 37:0.95967742 38:0.040322581 40:0.064516129 41:1.0403226 42:0.89516129 43:1 46:0.93548387 47:0.064516129 48:1 49:0.64516129 50:0.35483871 51:0.10483871 52:1.1451613 53:0.7016129 54:0.048387097 55:0.17741935 56:0.59677419 57:0.23387097 58:0.47580645 59:1.0564516 60:0.45967742 61:0.23387097 62:0.53225806 63:0.25 64:0.66935484 65:0.87096774 66:0.44354839 67:0.87096774 68:0.12903226 71:0.34677419 72:1.6532258 73:1 74:1 78:1 79:1 80:1 84:1 85:2 90:1 91:1 93:0.072580645 94:0.92741935 96:1 97:2 102:1 103:2 108:1 109:1 110:1 114:1 
0.66887070395141612 0.65373418974781039 0.20961347842777905 0.63461813599977768 1:0.83 2:0.17 3:0.93 4:0.58 5:0.3 6:0.19 7:0.97 8:0.03 11:0.83 12:1.17 13:1 17:1.11 18:0.89 19:0.97 20:0.33 21:0.7 23:0.39 24:0.61 25:0.26 26:0.55 27:1.19 29:0.12 30:0.88 31:0.22 32:0.15 33:0.61 34:0.26 35:0.52 36:1.24 37:0.23 38:0.14 39:0.34 40:0.36 41:0.57 42:1.36 43:1 45:1 47:0.01 48:0.99 49:0.53 50:0.41 51:0.89 52:0.28 53:0.48 54:0.41 55:0.27 56:0.18 57:0.38 58:0.36 59:1.33 60:0.48 61:0.28 62:0.15 63:0.4 64:0.33 65:1.4 66:0.44 67:0.3 68:0.7 71:0.56 72:1.44 73:1 74:1 78:1 79:1.1 80:0.9 84:1 85:1.12 86:0.88 90:1 91:0.7 92:0.3 95:0.7 96:1.3 97:1 98:1 102:1 103:1 104:1 108:1 109:1.05 110:0.95 114:1 
0.2722113048029563 0.27359819792010609 0.1954345368896758 0.097548960968153603 1:1.1693548 2:0.75806452 3:0.072580645 4:0.048387097 5:0.41129032 6:0.54032258 7:1 10:0.60483871 11:0.56451613 12:0.83064516 13:1 17:0.79032258 18:1.2096774 19:1 20:0.056451613 21:0.94354839 24:1 25:1.4354839 26:0.56451613 30:1 31:0.39516129 32:0.73387097 33:0.55645161 34:0.25806452 35:0.41129032 36:0.64516129 37:0.24193548 38:0.75806452 39:0.93548387 40:0.58870968 41:0.29032258 42:0.18548387 43:0.080645161 44:0.97580645 45:0.87096774 46:0.19354839 47:0.54032258 48:0.33870968 49:1.016129 50:0.37096774 51:0.87096774 52:0.48387097 53:0.12096774 54:0.13709677 55:0.088709677 56:0.85483871 57:0.63709677 58:0.61290323 59:0.65322581 60:0.15322581 61:0.080645161 62:0.70967742 63:0.62096774 64:0.5483871 65:0.76612903 66:0.27419355 67:0.43548387 68:0.44354839 69:0.12096774 71:0.93548387 72:1.0645161 73:0.87903226 74:0.12096774 76:0.40322581 77:0.59677419 78:1 79:1 84:2 85:0.99193548 86:0.0080645161 89:0.43548387 90:1.5645161 91:0.95967742 92:0.040322581 95:0.99193548 96:1.0080645 97:0.95967742 98:0.040322581 100:0.088709677 101:1 102:0.91129032 103:1 107:0.096774194 108:1.9032258 109:0.87096774 110:0.12903226 113:0.66129032 114:1.3387097 
0.22256127934236822 0.29129025663003616 0.2018753581448092 0.41066382116472622 1:1 5:0.90756303 6:1.092437 7:1 11:0.34453782 12:1.6554622 13:1 17:1 18:1 19:1 23:0.50420168 24:1.4957983 25:1 29:1 30:1 31:0.11764706 32:0.97478992 33:0.27731092 34:0.6302521 35:0.3697479 36:0.6302521 37:0.050420168 38:0.10084034 39:1.394958 40:0.45378151 42:1 43:1 45:0.52941176 46:0.47058824 48:1 49:0.23529412 50:0.58823529 51:0.4789916 52:1.3865546 53:0.17647059 54:0.13445378 55:0.092436975 56:0.14285714 57:0.82352941 58:0.16806723 59:0.99159664 60:0.78151261 61:0.067226891 62:0.12605042 63:0.77310924 64:0.57983193 65:0.8907563 66:0.56302521 67:0.95798319 68:0.042016807 72:2 73:2 78:1 79:1 82:0.20168067 83:0.91596639 84:0.88235294 85:1 87:0.0084033613 88:0.75630252 89:0.76470588 90:0.47058824 91:1 92:0.84033613 93:0.15966387 96:1 97:1 101:1 102:1 103:1 106:0.050420168 107:0.61344538 108:1.3361345 109:1 113:1.789916 114:0.21008403 
0.66661099148494962 0.68863498646400045 0.215187285360526 0.38951317382255346 1:1 2:0.69642857 3:0.30357143 5:0.125 6:0.875 7:1 10:1 12:1 13:1 17:1 18:1 19:1 20:0.98214286 21:0.017857143 24:1 25:1.3571429 26:0.64285714 30:1 31:0.053571429 32:0.053571429 33:0.66071429 34:1.3392857 35:0.83928571 36:0.053571429 37:0.053571429 39:0.375 40:1.4285714 41:1.0535714 42:0.089285714 43:0.94642857 44:0.053571429 45:0.14285714 46:0.57142857 47:0.375 48:0.91071429 49:1.3928571 50:0.10714286 51:0.5 53:0.28571429 54:0.71428571 55:0.16071429 56:0.92857143 57:0.48214286 58:0.71428571 59:0.57142857 60:0.14285714 61:0.21428571 62:0.85714286 63:0.21428571 64:1.1428571 65:0.44642857 66:0.125 67:0.39285714 68:0.41071429 69:0.19642857 70:0.25 71:1.1428571 72:0.60714286 73:1.0357143 74:0.96428571 78:1 79:0.16071429 80:0.83928571 82:0.089285714 83:0.96428571 84:0.94642857 85:0.85714286 86:0.14285714 88:0.98214286 89:0.071428571 90:0.94642857 91:0.96428571 92:0.035714286 94:0.35714286 95:0.64285714 96:1 97:1 100:1 102:1 103:1 107:1 108:1 109:1 112:0.42857143 113:0.57142857 114:1 
0.43148547482201954 0.81703802127287728 0.57084468909259223 0.59914280540510056 1:0.76859504 2:1.1818182 3:0.049586777 4:0.090909091 5:0.28099174 6:0.62809917 7:0.52892562 8:0.47107438 11:0.31404959 12:1.6859504 13:1 16:0.10743802 17:0.23140496 18:1.661157 19:0.049586777 20:0.91735537 21:0.033057851 22:0.89256198 23:0.14876033 24:0.95867769 25:0.29752066 26:0.56198347 27:0.21487603 28:0.92561983 29:0.79338843 30:0.20661157 31:0.32231405 32:0.15702479 33:0.20661157 34:0.75206612 35:0.81818182 36:0.74380165 37:0.39669421 38:0.17355372 39:0.48760331 40:1.1157025 41:0.19834711 42:0.62809917 43:0.20661157 44:0.85123967 45:0.92561983 46:0.016528926 47:0.50413223 48:0.49586777 49:0.05785124 50:0.23966942 51:1.0661157 52:0.63636364 53:0.48760331 54:0.51239669 55:0.074380165 56:0.28099174 57:0.082644628 58:1.1735537 59:0.55371901 60:0.83471074 61:0.074380165 62:0.29752066 63:0.074380165 64:1.1983471 65:0.52066116 66:0.83471074 67:0.41322314 68:0.58677686 69:0.090909091 70:0.62809917 71:0.5785124 72:0.70247934 73:1.0991736 74:0.72727273 75:0.16528926 76:0.0082644628 77:0.082644628 78:0.91735537 79:1 82:0.7107438 83:0.2892562 84:1 85:1 88:0.18181818 89:0.55371901 90:1.2644628 91:1 94:0.7768595 95:0.27272727 96:0.95041322 97:1 100:0.05785124 101:0.94214876 102:1 103:1 107:0.90082645 108:1.0991736 109:1 113:0.49586777 114:1.5041322 
0.82791868085060172 0.88428816390010512 1.0300315478043385 0.91654119589333671 1:0.46956522 2:0.52173913 3:0.63478261 4:0.76521739 5:0.13913043 6:0.46956522 7:0.55652174 8:0.44347826 9:0.12173913 10:0.84347826 11:0.034782609 12:1 13:1 16:0.19130435 17:1.0608696 18:0.74782609 19:0.47826087 20:0.0086956522 21:0.68695652 22:0.82608696 23:0.95652174 24:0.043478261 25:1.0347826 26:1.4434783 27:0.2 28:0.095652174 29:0.2 30:0.026086957 31:0.40869565 32:1.1478261 33:0.44347826 34:0.20869565 35:0.50434783 36:0.28695652 37:0.32173913 38:0.77391304 39:0.90434783 41:0.48695652 42:0.51304348 43:0.97391304 44:0.017391304 45:0.0086956522 46:0.49565217 47:0.50434783 48:1 49:0.53913043 50:0.47826087 51:0.22608696 52:0.086956522 53:0.26086957 54:1.4086957 55:0.59130435 56:0.65217391 57:0.14782609 58:0.14782609 59:0.70434783 60:0.75652174 61:0.49565217 62:0.76521739 63:0.13913043 64:0.42608696 65:0.56521739 66:0.60869565 67:0.46086957 68:1.5826087 69:0.44347826 70:0.0086956522 71:0.0086956522 72:0.49565217 73:0.93043478 74:0.13043478 75:0.93913043 77:0.51304348 78:0.48695652 79:0.9826087 80:0.017391304 82:0.73913043 83:0.32173913 84:0.93913043 85:0.99130435 86:0.0086956522 88:0.80869565 89:0.19130435 90:1 91:0.026086957 92:0.48695652 93:1.1478261 94:0.79130435 95:0.043478261 96:0.50434783 97:1 100:1 102:1 103:1 107:1.0608696 108:0.93913043 109:1 113:1 114:1 
0.6429258987417289 0.8040525441716303 0.50886397046405163 0.7549268529348806 1:0.085106383 2:0.93617021 3:0.79787234 4:0.37234043 5:0.4787234 6:0.32978723 7:0.37234043 8:0.61702128 10:0.9787234 11:0.24468085 12:0.78723404 13:0.9893617 14:0.010638298 15:0.042553191 16:0.9787234 17:0.28723404 18:0.69148936 19:0.053191489 20:1.3510638 21:0.59574468 23:0.053191489 24:0.94680851 25:0.69148936 26:0.29787234 27:0.063829787 28:0.42553191 29:0.58510638 30:0.93617021 31:0.4893617 32:0.074468085 34:0.25531915 35:0.31914894 36:1.8617021 37:0.4893617 38:0.074468085 40:0.19148936 41:0.90425532 42:1.3404255 43:0.94680851 44:0.12765957 45:0.61702128 46:0.65957447 47:0.56382979 48:0.085106383 49:0.18085106 50:0.73404255 51:0.21276596 52:1.0957447 53:0.41489362 54:0.36170213 55:0.23404255 56:0.25531915 57:0.61702128 58:0.35106383 59:0.93617021 60:0.60638298 61:0.22340426 62:0.11702128 63:0.70212766 64:0.40425532 65:0.84042553 66:0.71276596 67:0.43617021 68:0.53191489 69:0.031914894 70:0.38297872 71:0.63829787 72:0.9787234 73:1.0425532 74:0.87234043 75:0.085106383 76:0.031914894 77:0.19148936 78:0.77659574 79:1.0531915 80:0.87234043 81:0.074468085 83:0.095744681 84:0.90425532 85:0.42553191 86:0.72340426 87:0.85106383 89:0.031914894 90:0.96808511 91:0.53191489 92:0.46808511 94:0.031914894 95:1.1808511 96:0.78723404 97:1 100:0.41489362 101:0.58510638 102:1 103:1 105:1 108:1 109:1 111:0.9893617 112:0.010638298 114:1 
0.025197905464312411 0 0 0 1:1.8521739 2:0.14782609 5:0.35652174 6:0.64347826 7:1 10:0.39130435 11:0.60869565 12:1 13:1 17:0.39130435 18:1.6086957 19:1 21:0.26956522 22:0.73043478 24:1 25:0.91304348 26:0.39130435 27:0.36521739 28:0.33043478 30:1 31:0.29565217 32:0.060869565 33:0.42608696 34:0.86956522 35:0.34782609 36:1 37:0.31304348 38:0.37391304 39:0.33043478 40:0.95652174 41:0.84347826 42:0.1826087 43:0.91304348 44:0.086956522 46:0.42608696 47:0.91304348 48:0.66086957 49:0.095652174 50:0.052173913 51:0.34782609 52:1.0173913 53:0.25217391 54:1.2347826 55:0.095652174 56:0.16521739 57:0.76521739 58:0.57391304 59:0.74782609 60:0.65217391 61:0.095652174 62:0.33043478 63:0.54782609 64:0.75652174 65:0.64347826 66:0.62608696 67:0.32173913 68:0.23478261 69:0.75652174 70:1.3304348 71:0.20869565 72:0.14782609 73:1.0086957 74:0.99130435 78:1 79:1.6608696 80:0.33913043 84:1 85:2 90:1 91:1 93:0.70434783 94:0.29565217 96:1 97:2 102:1 103:2 108:1 109:1.4521739 110:0.54782609 114:1 
0.43154561125026908 0.56101204890569489 0.41354370792054856 0.44234064524700151 1:1 2:0.57692308 3:0.076923077 4:0.34615385 5:0.16346154 6:0.83653846 7:1 11:0.67307692 12:1.3269231 13:1 17:1.2115385 18:0.78846154 19:1 22:1 24:1 25:0.88461538 26:0.23076923 27:0.88461538 30:1 31:0.73076923 32:0.11538462 33:0.10576923 34:0.16346154 35:0.88461538 36:1 37:0.21153846 38:0.73076923 39:0.77884615 40:0.27884615 41:0.17307692 42:0.82692308 43:1 46:0.69230769 47:0.39423077 48:0.91346154 49:0.14423077 50:0.34615385 51:0.10576923 52:0.69230769 53:1.0384615 54:0.67307692 55:0.16346154 56:0.076923077 57:0.61538462 58:0.49038462 59:0.77884615 60:0.875 61:0.076923077 62:0.18269231 63:0.54807692 64:0.54807692 65:0.82692308 66:0.81730769 67:0.55769231 68:0.44230769 70:0.88461538 71:0.90384615 72:0.21153846 73:1 74:0.82692308 75:0.17307692 78:1 79:0.31730769 80:0.68269231 83:0.61538462 84:1.3846154 85:0.5 86:0.5 90:2 91:1 93:0.77884615 94:0.22115385 96:1 97:1 101:0.74038462 102:1.2596154 103:0.98076923 104:0.80769231 105:0.21153846 108:1 109:1 112:1 114:1 
0.24470999306782862 0.36672511938941948 0.33982103503545791 0.6441419062586532 1:1.0379747 2:0.96202532 6:1 7:1 11:1 12:1 13:1 18:2 19:1 22:0.43037975 23:0.56962025 24:1 25:1.1518987 26:0.063291139 27:0.67721519 28:0.10759494 30:1 31:0.17721519 32:0.13924051 33:1.2531646 34:0.99367089 35:0.28481013 36:0.15189873 37:0.17721519 38:0.018987342 39:0.63291139 40:1.7848101 41:0.23417722 42:0.15189873 43:1 46:0.13924051 47:0.82911392 48:1.0316456 49:0.082278481 50:0.15189873 51:0.89873418 52:1.3860759 53:0.43037975 54:0.050632911 55:0.056962025 56:0.075949367 57:0.94936709 58:0.80379747 59:0.51265823 60:0.60126582 61:0.056962025 62:0.10759494 63:1.0759494 64:0.70253165 65:0.86708861 66:0.18987342 67:0.64556962 68:0.11392405 69:0.34177215 70:0.70886076 71:0.79113924 72:0.39873418 73:1.2278481 74:0.7721519 78:1 79:1.3860759 80:0.61392405 84:1 85:1.721519 86:0.27848101 90:1 91:1 92:0.19620253 93:0.80379747 96:1 97:1 98:1 102:1 103:1 104:1 108:1 109:1 110:1 114:1 
1.3670032761829214 1.7287502922699571 0.94945665874657204 1.5067604025906625 1:0.52 2:1.08 3:0.86 4:0.16 5:0.02 6:0.02 7:0.34 8:0.36 9:0.62 10:0.02 12:0.08 13:0.9 14:1.02 15:0.5 16:0.5 19:0.24 20:0.72 21:1.04 22:0.2 23:0.36 24:0.42 25:0.5 26:0.1 27:0.56 28:0.86 29:0.3 30:0.54 31:0.2 32:0.52 33:0.3 34:0.64 35:0.5 36:0.1 37:0.28 38:0.54 39:0.4 40:1.22 41:0.24 42:0.22 43:0.1 44:0.24 45:0.46 46:0.74 47:0.94 48:0.3 49:0.22 50:0.28 51:0.7 52:0.02 53:0.8 54:0.2 55:0.9 56:0.1 57:0.6 58:0.56 59:0.44 60:0.14 61:0.26 62:0.42 63:0.58 64:0.52 65:0.22 66:0.38 67:0.26 68:0.42 69:0.76 70:0.44 71:0.54 72:0.22 73:0.48 74:0.16 75:0.94 76:0.38 77:0.28 78:0.5 79:0.46 80:0.04 81:0.4 82:0.36 83:0.52 84:0.72 85:0.76 86:0.74 87:0.5 89:0.04 90:0.28 91:0.68 92:1.36 93:0.64 97:0.14 98:0.86 99:1.34 100:0.6 101:0.06 104:0.44 105:0.56 106:0.48 107:0.2 108:0.32 109:0.1 110:0.24 111:1.04 112:0.62 113:1 115:0.58 116:0.42 118:0.12 119:0.88 120:1 122:0.74 123:0.26 126:1 127:0.48 128:0.52 129:0.64 130:0.36 133:1 
0.03833912942432912 0 0.0059168967228147009 0.14664351527736288 1:2 7:1 8:1 13:1 14:1 15:1 20:0.10483871 21:1.8951613 22:1 25:1 28:1 29:2 35:1 36:1 40:1 42:1 43:0.85483871 44:0.14516129 47:0.37903226 48:0.75806452 49:0.86290323 50:1 53:0.58870968 54:0.41129032 56:1 57:0.37096774 58:0.62903226 60:0.7016129 61:0.86290323 62:0.38709677 63:0.048387097 64:0.064516129 65:0.62903226 66:0.26612903 67:0.18548387 68:0.64516129 69:0.78225806 70:0.42741935 71:0.15322581 72:0.49193548 73:0.25806452 74:0.34677419 75:0.66129032 76:0.68548387 77:0.40322581 78:0.58870968 79:0.41129032 83:0.5 84:1.5 85:1 86:1 91:1 92:1 93:1 98:1 99:2 105:1 106:1 109:0.96774194 110:0.032258065 112:1 113:1.3225806 114:0.67741935 119:1 120:2 126:1 127:1 128:1 133:1 
0.67301033272643451 0.61684409456074074 0.20613569977380958 0.4597898900821486 1:0.76 2:0.24 3:0.42 4:0.83 5:0.34 6:0.23 7:0.18 8:0.78 9:0.22 13:1.02 14:0.98 15:1 19:0.29 20:1.16 21:0.55 22:0.81 23:0.19 24:1 27:0.47 28:0.53 29:0.19 30:0.46 31:1.29 32:0.06 34:0.29 35:0.71 36:0.21 37:0.13 38:0.29 39:0.47 40:0.22 41:0.52 42:1.16 43:0.22 44:0.13 45:0.23 46:0.17 47:0.44 48:0.62 49:1.19 50:1 52:0.59 53:0.41 55:0.04 56:0.96 57:0.25 58:0.57 59:0.32 60:0.75 61:0.5 62:0.22 63:0.39 64:0.24 65:0.16 66:0.39 67:0.15 68:0.56 69:1.09 70:0.41 71:0.26 72:0.11 73:0.34 74:0.14 75:0.51 76:1.27 77:0.37 78:0.24 79:0.73 80:0.03 83:0.86 84:1.14 85:1 86:0.82 87:0.18 91:1 92:1.08 93:0.92 98:1 99:1.1 100:0.9 105:1 106:0.49 107:0.51 110:0.02 111:0.79 112:1.19 113:1 114:1 119:1 120:0.94 121:1.06 126:1 127:1 128:1 133:1 
0.3883924178346389 0.32381824542286958 0.28437263641259236 0.2806888739416204 1:0.61290323 2:1.1451613 3:0.24193548 4:0.024193548 5:0.20967742 6:0.33064516 7:0.43548387 8:1 12:0.62096774 13:0.7016129 14:0.67741935 15:1 19:0.080645161 20:0.93548387 21:0.98387097 22:1 24:1 28:1 29:1.4112903 30:0.50806452 31:0.080645161 35:1 36:0.37903226 37:0.58064516 38:0.33870968 39:0.47580645 40:0.44354839 41:0.16935484 42:0.61290323 43:0.16129032 44:0.55645161 45:0.69354839 46:0.91935484 47:0.28225806 48:0.22580645 49:0.16129032 50:0.064516129 51:0.86290323 52:0.34677419 53:0.68548387 54:0.40322581 55:0.36290323 56:0.27419355 57:0.99193548 58:0.18548387 59:0.95967742 60:0.50806452 61:0.12096774 62:0.14516129 63:0.088709677 64:0.080645161 65:0.70967742 66:0.60483871 67:0.4516129 68:0.55645161 69:0.44354839 70:0.15322581 71:0.056451613 72:0.44354839 73:0.57258065 74:0.55645161 75:0.46774194 76:0.70967742 77:0.19354839 78:0.42741935 79:0.11290323 80:0.41129032 81:0.048387097 83:0.96774194 84:1.0322581 85:0.75 86:0.25 88:0.2016129 89:0.4516129 90:0.34677419 91:1 92:1 97:0.064516129 98:1.9354839 99:0.97580645 100:0.024193548 104:0.94354839 105:1.0564516 106:0.93548387 107:0.064516129 110:0.25806452 111:0.75 112:0.99193548 113:0.94354839 114:0.056451613 117:0.096774194 118:0.99193548 119:0.91129032 120:1 125:0.12096774 126:1.8790323 127:0.62096774 128:0.37903226 131:0.064516129 132:0.75806452 133:1.1774194 
0.30500753765668426 0.37601975357453515 0.33661773958610414 0.45483994253042753 1:1 6:1 7:1 8:1 13:0.96638655 14:1.0336134 15:1 19:0.18487395 20:1.2521008 21:0.56302521 22:1 27:0.86554622 28:1.1344538 29:1 34:1 35:1 36:0.1092437 37:0.97478992 38:0.0084033613 39:0.76470588 40:0.14285714 41:0.56302521 42:0.43697479 43:0.033613445 44:0.10084034 45:0.44537815 46:1.4201681 48:0.31092437 49:0.68907563 50:1 52:0.1512605 53:0.8487395 56:1 57:0.21848739 58:0.14285714 59:0.71428571 60:0.46218487 61:1.210084 62:0.13445378 63:0.11764706 64:0.075630252 65:0.084033613 66:0.6302521 67:0.31932773 68:0.22689076 69:1.1260504 70:0.53781513 71:0.067226891 72:0.075630252 73:0.62184874 74:0.3697479 75:0.82352941 76:0.70588235 77:0.33613445 78:0.84033613 79:0.15966387 84:2 85:1.9243697 86:0.075630252 91:1 92:1 95:0.11764706 96:0.092436975 97:1.0252101 98:0.76470588 99:1 102:0.26890756 103:0.50420168 104:0.98319328 105:0.24369748 106:1 107:0.37815126 108:0.62184874 112:1 113:1 118:1 119:1 120:1 124:0.18487395 125:0.81512605 126:1 127:1 131:0.025210084 132:1.7731092 133:0.20168067 
0.50271020086585438 0.58793100129150144 0.32376704796754197 0.43163139179286292 1:1 2:0.125 3:0.85714286 4:0.017857143 6:0.14285714 7:0.85714286 8:1 11:0.73214286 12:0.26785714 14:1 15:1 19:0.17857143 20:0.82142857 21:1 22:1 23:0.41071429 24:0.58928571 28:1 29:1 30:1 35:1 36:0.053571429 38:0.25 39:0.91071429 40:1.3392857 41:0.39285714 42:0.053571429 43:0.053571429 45:0.071428571 46:0.75 47:1.7142857 48:0.32142857 49:0.089285714 50:0.89285714 51:0.10714286 52:0.053571429 53:0.375 54:0.32142857 55:0.35714286 56:0.89285714 57:1.375 58:0.10714286 59:0.51785714 62:0.41071429 63:0.58928571 64:0.14285714 65:0.875 66:0.33928571 67:0.58928571 68:0.48214286 69:0.44642857 70:0.125 71:0.19642857 72:0.83928571 73:0.089285714 74:0.44642857 75:0.92857143 76:0.39285714 77:0.10714286 78:0.39285714 79:0.35714286 80:0.21428571 81:0.053571429 82:0.35714286 83:1.2857143 84:0.33928571 85:1 86:1 91:1 92:0.16071429 93:0.76785714 94:0.071428571 96:0.96428571 97:0.16071429 98:0.875 99:0.625 100:0.375 102:0.053571429 103:0.94642857 104:0.089285714 105:0.91071429 106:0.92857143 107:0.071428571 110:0.875 111:0.125 112:1 113:1 117:1 119:1 120:1 125:1 126:1 127:1 131:0.75 132:0.33928571 133:0.91071429 
0.30975455804907864 0.43380189081947035 0.51114192462603147 0.32011937751366015 1:0.69421488 2:1.1735537 3:0.1322314 5:0.099173554 6:0.31404959 7:0.58677686 8:0.37190083 9:0.62809917 12:0.1322314 13:0.21487603 14:1.6528926 15:0.97520661 16:0.024793388 19:0.12396694 20:0.52892562 21:1.3471074 22:0.024793388 23:0.47933884 24:0.49586777 26:1 27:0.10743802 28:0.89256198 29:0.2892562 30:0.14876033 31:0.56198347 32:0.78512397 33:0.21487603 34:0.87603306 35:0.12396694 36:0.30578512 37:0.14049587 38:0.19834711 39:0.090909091 40:0.90082645 41:0.62809917 42:0.73553719 43:0.38842975 44:0.10743802 45:0.2231405 46:0.49586777 47:1.0247934 48:0.19834711 49:0.56198347 50:0.19008264 51:0.80991736 52:0.76033058 53:0.23966942 54:0.29752066 55:0.26446281 56:0.43801653 57:0.049586777 58:0.12396694 59:0.90909091 60:0.44628099 61:0.47107438 62:0.53719008 63:0.46280992 64:0.066115702 65:0.25619835 66:0.090909091 67:0.61983471 68:0.90082645 69:0.38842975 70:0.67768595 71:0.074380165 72:0.26446281 73:0.074380165 74:0.24793388 75:1.1735537 76:0.40495868 77:0.76033058 78:0.34710744 79:0.63636364 80:0.090909091 81:0.049586777 82:0.76859504 83:0.44628099 84:0.66115702 85:1.0247934 86:0.75206612 87:0.14049587 88:0.082644628 90:0.19008264 91:0.80991736 92:1 95:0.5785124 96:0.19834711 97:0.32231405 98:0.90082645 99:1 103:0.52066116 104:0.29752066 105:1.1818182 106:1 109:0.59504132 110:0.25619835 111:0.21487603 112:0.9338843 113:1 117:0.70247934 118:0.29752066 119:1 120:1 125:1.2231405 126:0.7768595 127:1 132:0.74380165 133:1.2561983 
0.57170930007970655 0.55844825122150976 0.62635504076080473 0.59811413031875937 1:0.4 2:0.55652174 3:0.07826087 4:1.1913043 5:0.25217391 6:0.26086957 7:0.26086957 8:0.52173913 9:0.47826087 11:0.56521739 12:0.40869565 13:0.034782609 14:0.99130435 15:1 19:0.77391304 20:0.59130435 21:0.63478261 22:0.07826087 23:0.40869565 24:0.1826087 25:0.5826087 26:0.89565217 27:0.82608696 28:0.026086957 29:0.63478261 30:1.6782609 31:0.33043478 32:0.095652174 33:0.060869565 34:0.17391304 35:0.026086957 36:0.29565217 37:0.76521739 38:0.93913043 40:0.47826087 41:0.35652174 42:0.16521739 43:0.26956522 44:0.73043478 45:0.97391304 46:0.026086957 47:0.19130435 48:0.30434783 49:0.50434783 50:0.96521739 51:0.017391304 52:0.017391304 53:0.26956522 54:0.33043478 55:0.4 56:1 57:0.42608696 58:0.46956522 59:0.25217391 60:0.12173913 61:0.060869565 62:0.46956522 63:1.2 64:0.50434783 65:0.62608696 66:0.23478261 67:0.052173913 68:0.37391304 69:0.57391304 70:0.63478261 71:0.37391304 72:0.80869565 73:0.13043478 74:0.2173913 75:0.56521739 76:0.33913043 77:0.56521739 78:0.46086957 79:1.3130435 80:0.70434783 81:0.017391304 83:0.0086956522 84:0.49565217 85:0.93043478 86:0.069565217 87:0.66086957 88:0.33913043 90:0.57391304 91:0.42608696 92:0.97391304 93:0.026086957 95:0.026086957 96:0.97391304 97:0.086956522 98:0.91304348 99:0.9826087 100:0.017391304 103:1 104:0.069565217 105:0.93043478 106:0.026086957 107:0.0086956522 108:0.91304348 109:1.4695652 110:0.069565217 111:0.0086956522 112:0.50434783 113:1 116:0.45217391 117:0.54782609 119:1 120:0.93913043 121:0.060869565 125:1.226087 126:0.77391304 127:1 132:1.0086957 133:0.99130435 
0.87707809263712133 0.83606871198683985 0.72102319945720772 0.97680154642520944 1:0.074468085 2:0.84042553 3:0.44680851 4:0.64893617 5:0.42553191 6:0.28723404 7:0.27659574 8:0.15957447 9:0.80851064 10:0.021276596 11:0.063829787 12:1.0212766 13:0.19148936 14:0.73404255 15:0.9893617 17:0.010638298 18:0.26595745 19:0.84042553 20:0.30851064 21:0.58510638 22:0.042553191 23:0.62765957 24:1.3297872 27:0.074468085 28:0.92553191 29:0.67021277 30:0.29787234 31:0.053191489 32:0.20212766 33:0.41489362 34:0.5 35:0.86170213 36:0.4787234 37:0.085106383 39:0.15957447 40:0.19148936 41:0.46808511 42:1.6170213 43:0.4893617 44:0.074468085 47:0.23404255 48:1.0531915 49:1.1489362 50:0.63829787 51:0.35106383 52:0.22340426 53:0.78723404 54:0.65957447 55:0.26595745 56:0.074468085 57:0.14893617 58:0.67021277 59:0.20212766 60:0.25531915 61:1.212766 62:0.15957447 63:0.35106383 64:0.21276596 65:0.10638298 66:0.62765957 67:0.19148936 68:0.53191489 69:0.90425532 70:0.42553191 71:0.18085106 72:0.14893617 73:0.5106383 74:0.29787234 75:0.45744681 76:0.79787234 77:0.60638298 78:0.24468085 79:0.64893617 80:0.10638298 81:0.031914894 82:0.69148936 83:0.5106383 84:0.76595745 85:0.93617021 86:0.89361702 87:0.17021277 89:0.10638298 90:0.15957447 91:0.73404255 92:1.0319149 93:0.4893617 94:0.4787234 97:0.13829787 98:0.86170213 99:0.26595745 100:0.79787234 101:0.5106383 102:0.42553191 104:0.10638298 105:0.89361702 106:0.31914894 107:0.68085106 110:0.25531915 111:1.106383 112:0.63829787 113:1 117:1 118:0.095744681 119:0.90425532 120:1 122:0.12765957 123:0.87234043 126:1 127:1 129:0.063829787 130:0.93617021 133:1 
0.052935690210782704 0 0 0 1:1.7826087 2:0.2173913 5:0.23478261 6:0.19130435 7:0.57391304 8:0.91304348 9:0.086956522 12:0.91304348 13:0.086956522 14:1 15:1 20:0.51304348 21:1.4869565 22:0.93043478 23:0.069565217 25:0.34782609 26:0.65217391 28:1 29:0.86956522 30:0.4173913 31:0.086956522 32:0.52173913 33:0.10434783 35:1 36:0.28695652 37:0.043478261 38:0.2173913 39:0.32173913 40:0.97391304 41:0.22608696 42:0.93043478 43:0.30434783 44:0.16521739 45:0.3826087 46:0.44347826 47:0.70434783 48:0.82608696 49:0.17391304 50:0.87826087 51:0.12173913 53:0.13043478 54:0.52173913 55:0.75652174 56:0.59130435 57:0.086956522 58:0.052173913 59:0.052173913 60:0.52173913 61:0.86956522 62:0.24347826 63:1.173913 64:0.07826087 65:0.069565217 66:0.39130435 67:0.86086957 68:0.53043478 69:0.46956522 70:0.6 71:0.07826087 72:0.17391304 73:0.32173913 74:0.96521739 75:0.40869565 76:0.46086957 77:0.59130435 78:0.31304348 79:0.16521739 80:0.60869565 81:0.54782609 82:1.0956522 83:0.13913043 84:0.13043478 85:1 86:1 91:1 92:1.1130435 93:0.88695652 98:1 99:2 105:1 106:0.97391304 107:0.026086957 108:0.54782609 109:0.45217391 111:0.32173913 112:0.67826087 113:2 119:1 120:2 126:1 127:1.2521739 128:0.74782609 133:1 
0.23945052942778416 0.40243531192570553 0.27496287250600182 0.55820150669729784 1:0.96153846 2:0.58653846 3:0.067307692 4:0.11538462 5:0.26923077 6:0.29807692 7:0.70192308 8:1 13:0.875 14:1.125 15:1 19:0.076923077 20:1.4711538 21:0.45192308 22:0.96153846 23:0.038461538 25:0.14423077 26:0.85576923 28:1 29:0.86538462 30:0.13461538 31:1 35:1 36:0.56730769 37:0.25 38:0.057692308 39:0.125 40:0.33653846 41:0.66346154 42:1 43:0.20192308 44:0.51923077 45:0.78846154 46:0.375 47:0.15384615 48:0.22115385 49:0.74038462 50:0.44230769 51:0.55769231 54:1 55:0.26923077 56:0.73076923 57:0.125 58:0.21153846 59:0.21153846 60:0.375 61:0.45192308 62:1.2307692 63:0.39423077 64:0.067307692 65:0.15384615 66:0.17307692 67:0.89423077 68:0.076923077 69:0.97115385 70:0.66346154 71:0.067307692 72:0.17307692 73:0.086538462 74:0.90384615 75:0.15384615 76:0.82692308 77:0.78846154 78:0.51923077 79:0.48076923 81:0.30769231 82:0.625 83:0.89423077 84:0.17307692 85:1 86:0.75961538 87:0.24038462 91:1 92:0.23076923 93:0.44230769 94:0.32692308 97:0.80769231 98:1.1923077 99:0.41346154 100:0.58653846 105:2 106:1 109:0.96153846 110:0.038461538 112:1 113:1 118:0.78846154 119:1.2115385 120:0.97115385 121:0.076923077 122:0.95192308 126:1 127:1 130:1 133:1 
0.28775952367699836 0.32112972581710653 0.20402609956885692 0.43979516777024574 1:1 2:1 7:1 8:1 13:1 14:1 15:1 20:0.03164557 21:1.9683544 22:1 26:0.92405063 27:0.075949367 28:1 29:1.0189873 30:0.18987342 31:0.34177215 32:0.43670886 33:0.012658228 35:1 36:0.17721519 37:0.018987342 38:0.24683544 39:1.5886076 40:0.7721519 41:0.044303797 42:0.15189873 43:0.17721519 44:0.012658228 45:0.21518987 46:0.87974684 47:1.4873418 48:0.075949367 49:0.15189873 50:1 54:0.25316456 55:0.86708861 56:0.87974684 57:0.063291139 58:0.13291139 59:0.17721519 60:1.5189873 61:0.98734177 62:0.069620253 63:0.050632911 64:0.050632911 65:0.050632911 66:0.24683544 67:1.0063291 68:0.62025316 69:0.62658228 70:0.39873418 71:0.056962025 72:0.050632911 73:0.60759494 74:0.91139241 75:0.36075949 76:0.94936709 77:0.063291139 78:0.57594937 79:0.15189873 80:0.26582278 81:0.36075949 82:0.55696203 83:0.87974684 84:0.20886076 85:1 86:0.9556962 87:0.044303797 91:1 92:1.278481 93:0.72151899 98:1 99:1.4936709 100:0.50632911 105:1 106:1 108:0.75949367 109:0.24050633 112:1 113:1 114:1 119:1 120:0.86075949 121:1.1392405 126:1 127:1 128:1 133:1 
0 0 0 0.17580569344952549 1:1.18 2:1.3 3:0.16 4:0.36 5:0.7 6:0.3 7:0.22 8:1.78 9:1 11:0.44 12:1.56 13:0.52 14:0.92 15:0.38 16:1.18 17:0.7 18:0.6 19:0.66 20:1.04 21:0.26 22:0.76 23:1.52 24:0.46 25:0.24 26:0.8 27:1.62 28:0.34 29:0.88 30:0.52 31:0.64 32:0.96 33:0.82 34:0.9 35:0.36 36:0.92 37:0.7 38:0.66 39:0.58 40:1.06 41:0.72 42:0.66 43:1.08 44:0.54 45:0.9 46:0.2 47:0.86 48:1.04 49:1 50:1 51:0.08 52:0.92 53:1.96 54:0.04 55:0.02 56:0.98 57:1.72 58:0.28 59:0.02 60:0.98 61:0.56 62:0.46 63:0.62 64:1.36 65:1 66:1 68:1 69:1 70:1 72:1 73:1 74:1 76:1 
1.0175350698955365 1.3986923117051699 0.8135557019427293 1.1270712550361182 1:0.52 2:0.66 3:1.02 4:0.28 5:0.16 7:0.02 8:0.34 9:0.14 10:0.56 11:0.3 14:0.22 15:1.16 16:0.62 17:0.44 18:0.56 21:0.04 22:0.4 23:0.58 24:0.98 25:0.18 26:0.34 27:0.4 28:0.52 29:0.04 30:0.34 31:0.36 32:0.82 33:0.22 34:0.48 35:0.32 36:0.28 37:0.32 38:0.34 39:0.58 40:0.46 41:0.08 42:0.18 43:0.54 44:0.22 45:0.6 46:0.92 47:0.24 48:0.22 49:0.1 50:0.14 51:0.54 52:0.26 53:0.58 54:1.04 55:0.16 56:0.18 57:0.2 58:0.68 59:0.12 60:0.4 61:0.6 62:0.04 63:0.88 64:0.08 65:0.5 66:0.32 67:0.5 68:0.4 69:0.06 70:0.3 71:0.68 72:0.24 73:0.52 74:0.18 75:0.14 76:0.52 77:0.04 78:0.54 79:0.68 80:0.38 81:0.54 82:0.18 83:0.14 84:0.52 85:0.14 86:0.94 87:0.3 88:0.24 89:0.46 90:0.44 91:0.1 92:0.1 93:0.54 94:0.32 95:0.52 96:0.52 97:0.56 98:0.44 99:1 102:0.08 103:0.26 104:0.66 105:1.28 106:0.68 107:0.04 110:0.02 111:0.12 112:0.86 113:1.12 114:0.6 115:0.28 118:0.02 119:0.56 120:0.42 121:0.46 122:0.1 123:0.44 124:0.02 125:0.18 126:0.44 127:0.9 128:0.46 129:1 131:0.08 132:0.92 135:0.14 136:0.86 137:0.9 138:0.1 139:0.46 140:0.54 144:1 145:0.42 146:0.58 147:0.04 148:0.96 152:1 
0.079501851794965689 0.01873206330280611 0.080179181100328678 0.28514143207950082 1:2 7:0.12903226 8:0.87096774 9:1 14:0.84677419 15:0.15322581 16:1 17:1 23:0.81451613 24:1.1854839 25:1 28:0.60483871 29:0.39516129 32:1 33:2 40:1 41:1 46:1 48:1 49:0.72580645 50:0.27419355 54:0.52419355 55:0.64516129 56:0.83064516 57:1 61:0.74193548 62:0.25806452 63:0.032258065 64:0.96774194 65:0.16935484 66:0.75 67:0.080645161 68:0.10483871 69:0.91935484 70:0.7016129 71:0.22580645 72:0.048387097 73:0.056451613 74:0.47580645 75:0.30645161 76:0.16935484 77:0.33064516 78:0.74193548 79:0.50806452 80:0.41129032 81:0.080645161 82:0.40322581 83:0.33870968 84:0.19354839 85:0.41129032 86:0.63709677 87:0.64516129 88:0.29032258 89:0.40322581 90:0.5483871 91:0.048387097 94:0.072580645 95:0.63709677 96:1.2903226 97:1 98:1 104:1 105:1 106:1 112:1 113:2 120:1 121:1 124:0.072580645 125:0.92741935 128:1 129:1 130:1 136:1 137:2 144:1 145:1 146:1 152:1 
0.81526959932177934 0.76853670919431127 0.17095658182480741 0.58324789477933703 1:0.58 2:0.42 3:0.01 4:0.92 5:0.53 6:0.17 7:0.2 8:0.17 9:0.68 10:0.32 15:1.4 16:0.6 17:1 22:0.61 23:0.99 24:0.4 25:0.72 26:0.28 27:0.55 28:0.45 31:0.52 32:0.48 33:0.16 34:0.32 35:0.92 36:0.6 39:0.39 40:0.61 41:0.2 42:0.12 43:0.1 44:0.56 45:0.22 46:0.17 47:0.62 48:1.01 49:0.21 50:0.11 51:0.19 52:0.2 53:0.32 54:0.25 55:0.69 56:1.03 57:1 59:0.2 60:0.8 63:0.06 64:0.94 65:0.15 66:0.61 67:0.27 68:0.8 69:0.13 70:0.56 71:0.1 72:0.38 73:0.18 74:0.14 75:0.33 76:0.18 77:0.17 78:0.69 79:0.94 80:0.37 81:0.25 82:0.08 83:0.15 84:0.35 85:0.17 86:0.64 87:1.04 88:0.32 89:0.19 90:0.74 91:0.07 94:0.02 95:1.15 96:0.83 97:1 98:0.12 99:0.88 104:1 105:1.07 106:0.92 107:0.01 112:1 113:1.09 114:0.91 120:1 121:0.41 122:0.59 126:0.09 127:0.84 128:1.07 129:0.99 130:0.13 131:0.88 136:1 137:0.31 138:1.46 139:0.23 144:1 145:0.9 146:1.08 147:0.02 152:1 
0.66089141633164272 0.69127305132845795 0.34360633085629949 0.39255139310202292 1:0.57258065 2:0.86290323 3:0.56451613 5:0.040322581 6:0.40322581 7:0.15322581 8:0.40322581 9:0.9516129 10:0.048387097 13:0.55645161 14:0.36290323 15:0.44354839 16:0.63709677 17:1 22:0.45967742 23:0.62096774 24:0.91935484 25:1 27:0.15322581 28:0.84677419 32:1 33:1.3387097 34:0.41129032 35:0.25 40:1 41:0.37096774 42:0.50806452 43:0.35483871 44:0.4516129 45:0.16129032 46:0.42741935 47:0.12096774 48:0.60483871 49:0.15322581 50:0.39516129 51:0.62096774 52:0.76612903 53:0.50806452 54:0.2983871 55:0.12096774 56:0.13709677 57:0.056451613 58:0.83064516 59:0.21774194 60:0.82258065 61:0.12903226 62:0.39516129 63:0.29032258 64:0.25806452 65:0.92741935 66:0.17741935 67:0.48387097 68:0.66935484 69:0.46774194 70:0.056451613 71:0.14516129 72:0.072580645 73:0.064516129 74:0.39516129 75:0.62903226 76:0.49193548 77:0.45967742 78:0.58064516 79:0.23387097 80:0.14516129 81:0.048387097 82:0.31451613 83:0.62903226 84:0.41935484 85:0.35483871 86:0.53225806 87:0.5483871 88:0.15322581 89:0.42741935 90:0.016129032 91:0.46774194 92:0.088709677 94:0.032258065 95:1.0483871 96:0.91935484 97:0.69354839 98:0.30645161 101:0.31451613 102:0.68548387 103:0.0080645161 104:0.99193548 105:1 111:0.24193548 112:1.7580645 113:0.96774194 114:0.032258065 119:1.0887097 120:0.91129032 121:0.91129032 122:0.088709677 126:0.67741935 127:0.35483871 128:0.96774194 129:0.68548387 130:0.31451613 133:0.016129032 134:0.28225806 135:0.79032258 136:0.91129032 137:1 143:0.26612903 144:1.733871 145:0.36290323 146:0.63709677 150:0.10483871 151:1.1129032 152:0.78225806 
0.17301440566026921 0.29896091944961101 0.2959459341213927 0.3537530997901896 1:1 7:1 8:1 9:1 15:1 16:1 17:1 22:0.50420168 23:1.1680672 24:0.32773109 25:1 31:1 32:1 33:1 38:0.27731092 39:0.72268908 40:1 41:0.1092437 42:0.97478992 43:0.0084033613 44:0.27731092 45:0.6302521 47:0.75630252 48:0.24369748 49:0.033613445 50:0.050420168 51:0.10084034 52:1.3613445 53:0.45378151 55:0.48739496 56:0.51260504 57:0.92436975 58:0.075630252 60:0.52941176 61:0.47058824 64:1 65:0.21008403 66:0.067226891 67:0.7394958 68:0.28571429 69:0.97478992 70:0.55462185 71:0.058823529 72:0.1092437 73:0.067226891 74:0.058823529 75:0.27731092 76:0.65546218 77:0.12605042 78:0.64705882 79:0.86554622 80:0.30252101 81:0.067226891 82:0.050420168 83:0.23529412 84:0.61344538 85:0.49579832 86:0.59663866 87:0.78991597 88:0.1512605 89:0.84033613 90:0.15966387 96:2 97:1.8907563 98:0.1092437 104:1 105:0.93277311 106:0.067226891 109:0.17647059 110:0.050420168 111:1.0252101 112:0.74789916 113:1 116:0.0084033613 117:0.74789916 118:0.016806723 119:1.0168067 120:0.21008403 121:1 122:0.1512605 123:0.8487395 128:1 129:1 134:0.36134454 135:0.63865546 136:1 137:1 142:0.2605042 143:0.7394958 144:1 145:1 150:0.30252101 151:1.4957983 152:0.20168067 
0.56911704928924456 0.55028978402854756 0.3211288509891681 0.50408436796702816 1:1 3:0.94642857 4:0.053571429 7:0.39285714 8:0.60714286 9:1 13:1 15:0.053571429 16:0.94642857 17:1 22:0.98214286 23:0.017857143 24:1 25:1 27:1 32:1 33:0.98214286 34:1 35:0.017857143 39:0.089285714 40:0.91071429 41:0.053571429 43:0.071428571 44:0.64285714 45:1.1607143 46:0.80357143 47:0.21428571 48:0.053571429 49:0.053571429 52:0.375 53:0.76785714 54:1.5 55:0.21428571 56:0.089285714 57:0.875 58:0.125 60:0.14285714 61:0.53571429 62:0.32142857 63:0.125 64:0.875 65:1.2857143 66:0.16071429 67:0.55357143 71:0.53571429 72:0.46428571 73:0.089285714 74:0.67857143 75:0.33928571 76:0.46428571 77:0.42857143 78:0.46428571 79:0.41071429 80:0.125 81:0.14285714 82:0.82142857 83:0.125 84:0.19642857 85:0.92857143 86:0.625 87:0.071428571 88:0.089285714 89:0.35714286 90:0.30357143 91:0.19642857 92:0.14285714 93:0.17857143 94:0.51785714 95:1.0714286 96:0.23214286 97:1 98:1 104:1 105:0.16071429 106:0.66071429 107:0.17857143 109:0.017857143 110:0.98214286 111:0.16071429 112:0.83928571 113:0.48214286 114:0.51785714 117:0.26785714 118:0.73214286 119:0.14285714 120:0.85714286 121:0.89285714 122:0.10714286 125:0.16071429 126:0.83928571 128:1 129:1 133:1 136:1 137:1 142:0.46428571 143:0.53571429 144:1 145:0.96428571 146:0.035714286 149:0.33928571 150:0.66071429 151:0.28571429 152:0.71428571 
0.40452167496288893 0.6058204383866127 0.52276836398238624 0.45224535552283951 1:0.41322314 2:1.1322314 3:0.45454545 5:0.066115702 6:0.05785124 7:0.33884298 8:0.53719008 9:0.19834711 10:0.80165289 14:0.17355372 15:0.52892562 16:1.2975207 17:0.84297521 18:0.15702479 21:0.082644628 22:0.066115702 23:0.63636364 24:1.214876 25:0.024793388 26:0.12396694 27:0.85123967 29:0.3553719 30:0.6446281 31:0.19008264 32:0.80991736 33:0.26446281 34:0.14876033 35:0.58677686 36:0.074380165 37:0.78512397 38:0.52892562 39:0.55371901 40:0.05785124 41:0.2892562 42:0.1322314 43:0.090909091 44:0.17355372 45:0.34710744 46:0.90082645 47:0.36363636 48:0.70247934 49:0.33057851 50:0.1322314 51:0.14876033 52:0.44628099 53:0.66115702 54:0.56198347 55:0.26446281 56:0.45454545 57:0.19008264 58:0.36363636 59:1.0743802 60:0.3553719 61:0.016528926 62:0.32231405 63:0.3553719 64:0.32231405 65:0.049586777 66:0.099173554 67:0.38842975 68:0.82644628 69:0.32231405 70:0.61157025 71:0.28099174 72:0.4214876 73:0.05785124 74:0.10743802 75:0.2231405 76:0.049586777 77:1.0909091 78:0.47107438 79:0.47107438 80:0.52892562 81:0.05785124 82:0.16528926 83:0.16528926 84:0.05785124 85:0.91735537 86:0.66942149 87:0.24793388 88:0.71900826 89:0.2892562 90:0.46280992 91:0.26446281 92:0.074380165 93:0.066115702 94:0.94214876 95:0.28099174 96:0.61983471 97:1 98:0.61983471 99:0.23140496 100:0.14049587 101:0.0082644628 103:0.33057851 104:0.66942149 105:1 109:0.66115702 110:0.17355372 111:0.68595041 112:0.47933884 113:1 118:0.62809917 119:0.62809917 120:0.74380165 121:0.95867769 122:0.041322314 125:0.7107438 126:0.18181818 127:0.19834711 128:0.90909091 129:1 134:0.83471074 135:0.16528926 136:1 137:1 142:0.16528926 143:1.0743802 144:0.76033058 145:1 150:0.0082644628 151:0.85123967 152:1.1404959 
0.80471892917235432 0.96092503301305932 0.76515886494097218 0.65614968638752502 1:0.31304348 2:0.2 3:0.48695652 4:0.62608696 5:0.69565217 6:0.19130435 7:0.3826087 8:0.10434783 9:0.50434783 10:0.49565217 12:0.12173913 13:0.83478261 14:0.017391304 15:0.24347826 16:0.7826087 17:1 22:0.96521739 23:0.47826087 24:0.55652174 25:0.060869565 26:0.4173913 27:0.0086956522 28:0.68695652 29:0.33913043 30:0.67826087 31:0.7826087 32:0.026086957 33:0.4 34:1.4434783 35:0.71304348 36:0.12173913 37:0.086956522 38:0.11304348 39:0.10434783 40:0.017391304 41:0.23478261 42:0.76521739 43:0.90434783 44:0.095652174 46:0.48695652 47:0.44347826 48:0.069565217 49:0.22608696 50:0.52173913 51:0.86086957 52:0.39130435 54:0.36521739 55:0.35652174 56:0.27826087 57:0.92173913 58:0.052173913 59:0.026086957 61:0.4173913 62:0.54782609 63:0.060869565 64:0.97391304 65:0.35652174 66:0.51304348 67:0.17391304 68:0.2 69:0.060869565 70:0.043478261 71:0.73043478 72:0.92173913 73:0.46086957 74:0.6 75:0.2173913 76:0.11304348 77:0.07826087 78:0.57391304 79:0.36521739 80:0.59130435 81:0.33043478 82:0.75652174 83:0.19130435 84:0.12173913 85:0.26956522 86:0.53913043 87:0.26956522 88:0.52173913 89:0.46086957 90:1.0608696 91:0.93043478 92:0.034782609 93:0.0086956522 95:0.0086956522 96:0.49565217 97:0.90434783 98:0.095652174 99:0.43478261 100:0.56521739 102:0.026086957 103:0.5826087 104:0.39130435 105:0.94782609 106:0.052173913 109:0.44347826 110:0.55652174 111:0.17391304 112:0.82608696 113:0.97391304 114:0.026086957 117:0.034782609 118:0.96521739 119:0.20869565 120:0.79130435 121:0.017391304 122:0.017391304 123:0.47826087 124:1.1478261 125:0.77391304 126:0.052173913 127:0.0086956522 128:0.50434783 129:1 133:0.9826087 134:0.017391304 135:0.25217391 136:0.74782609 137:0.7826087 138:0.2173913 142:0.20869565 143:1.0521739 144:0.73913043 145:1 150:0.22608696 151:1 152:0.77391304 
0.64997036591900548 0.67386703625759936 0.59881133688611088 0.85274915482034641 1:0.074468085 2:0.60638298 3:0.41489362 4:0.72340426 5:0.24468085 6:0.42553191 7:0.28723404 8:0.22340426 9:0.11702128 10:0.77659574 11:0.095744681 13:0.26595745 14:0.84042553 15:0.30851064 16:0.59574468 17:0.96808511 18:0.021276596 19:0.010638298 20:0.042553191 21:0.58510638 22:0.5212766 23:0.38297872 24:0.46808511 25:0.042553191 26:0.56382979 27:1.2446809 28:0.14893617 31:0.20212766 32:0.79787234 33:0.65957447 34:0.19148936 35:0.15957447 36:0.042553191 37:0.40425532 38:0.54255319 39:0.19148936 40:0.80851064 41:0.4787234 42:0.085106383 45:0.19148936 46:0.18085106 47:0.77659574 48:1.287234 49:0.4787234 50:0.085106383 53:0.010638298 54:0.32978723 55:1.0851064 56:1.0106383 57:0.35106383 58:0.63829787 59:0.14893617 60:0.55319149 61:0.30851064 62:0.77659574 63:0.14893617 64:0.074468085 65:0.12765957 66:0.31914894 67:0.5212766 68:0.15957447 69:0.4893617 70:0.93617021 71:0.12765957 72:0.31914894 73:0.15957447 74:0.13829787 75:0.41489362 76:0.39361702 77:0.23404255 78:0.5 79:0.90425532 80:0.25531915 81:0.13829787 82:0.15957447 83:0.21276596 84:0.53191489 85:0.21276596 86:0.58510638 87:0.60638298 88:0.55319149 89:0.14893617 90:0.70212766 91:0.13829787 92:0.010638298 93:0.20212766 94:0.63829787 95:0.46808511 96:0.69148936 97:0.85106383 98:0.60638298 99:0.54255319 101:0.031914894 102:0.10638298 103:0.15957447 104:0.70212766 105:0.70212766 106:0.53191489 107:0.76595745 110:0.010638298 111:0.18085106 112:0.80851064 113:0.15957447 114:0.84042553 115:0.25531915 116:0.74468085 119:0.19148936 120:0.80851064 121:0.11702128 122:0.82978723 123:0.053191489 125:0.021276596 126:0.64893617 127:0.75531915 128:0.57446809 129:1 133:0.063829787 134:0.93617021 135:0.26595745 136:0.73404255 137:1 140:1 144:1 145:1 148:0.9893617 149:0.010638298 152:1 
0.18617684513097138 0.12066223398145659 0 0.061543700366483836 1:1.5391304 2:0.46086957 6:0.26956522 7:0.23478261 8:0.49565217 9:0.87826087 10:0.12173913 13:0.095652174 14:0.90434783 16:1 17:0.93913043 18:0.060869565 23:0.89565217 24:1.1043478 25:0.87826087 26:0.12173913 28:0.26956522 29:0.2 30:0.53043478 32:1 33:0.86086957 34:0.40869565 35:0.069565217 36:0.33043478 37:0.33043478 40:1 41:0.28695652 42:0.026086957 43:0.060869565 44:0.40869565 45:0.33913043 46:0.73913043 47:0.40869565 48:0.73043478 49:0.29565217 50:0.060869565 51:0.45217391 52:0.20869565 53:0.55652174 54:0.8 55:0.46956522 56:0.15652174 57:0.8173913 58:0.1826087 61:0.1826087 62:0.89565217 63:0.37391304 64:0.54782609 65:0.07826087 66:0.043478261 67:0.034782609 68:0.33913043 69:0.69565217 70:0.44347826 71:0.26086957 72:1.1043478 73:0.069565217 74:0.060869565 75:0.20869565 76:0.68695652 77:0.54782609 78:0.39130435 79:0.47826087 80:0.55652174 81:0.07826087 82:0.07826087 83:0.33913043 84:0.47826087 85:0.62608696 86:0.62608696 87:0.2173913 88:0.55652174 89:0.30434783 90:0.13043478 91:0.23478261 92:0.64347826 93:0.96521739 94:0.46956522 95:0.13043478 96:0.12173913 97:1 98:1 103:0.2 104:0.8 105:1 106:1 112:1 113:2 120:1 121:0.8173913 122:0.1826087 123:0.34782609 124:0.35652174 125:0.29565217 127:0.3826087 128:0.6173913 129:1.5391304 130:0.46086957 136:1 137:2 144:1 145:1.0434783 146:0.95652174 152:1 
0.45410679741567928 0.6017902744522734 0.3478833413255904 0.67900243133245886 1:0.94230769 2:0.56730769 3:0.086538462 4:0.057692308 5:0.26923077 6:0.076923077 7:0.32692308 8:0.67307692 9:1 15:1 16:1 17:1 22:0.23076923 23:1.4134615 24:0.35576923 25:0.91346154 26:0.086538462 29:1 32:1 33:0.84615385 34:0.15384615 35:1 40:1 41:0.52884615 42:0.26923077 43:0.057692308 44:0.096153846 45:0.067307692 46:0.58653846 47:0.39423077 48:1 49:0.20192308 50:0.31730769 51:0.55769231 52:0.64423077 53:0.26923077 54:0.076923077 55:0.49038462 56:0.44230769 57:0.18269231 58:0.81730769 61:0.067307692 62:0.93269231 63:0.29807692 64:0.70192308 65:0.125 66:0.11538462 67:0.25961538 68:0.096153846 69:0.68269231 70:0.36538462 71:1 72:0.35576923 73:0.067307692 74:0.15384615 75:0.067307692 76:0.56730769 77:0.47115385 78:0.048076923 79:1.1346154 80:0.49038462 81:0.057692308 82:0.16346154 83:0.048076923 84:0.53846154 85:0.53846154 86:0.35576923 87:0.57692308 88:0.72115385 89:0.47115385 90:0.29807692 91:0.23076923 93:0.36538462 94:0.70192308 95:0.76923077 96:0.16346154 97:1 98:0.39423077 99:0.49038462 100:0.11538462 104:1 105:0.19230769 106:0.42307692 107:0.38461538 111:0.83653846 112:1.1634615 113:0.32692308 114:0.52884615 115:0.14423077 119:0.057692308 120:1.9423077 121:0.70192308 122:0.29807692 124:0.77884615 125:0.22115385 128:1 129:1 134:0.28846154 135:0.53846154 136:1.1730769 137:0.88461538 138:0.11538462 139:0.99038462 140:0.0096153846 143:0.20192308 144:0.79807692 145:1 149:1 152:1 
0.2125240012458473 0.25939735257014501 0.18558900186052998 0.43666967715019411 1:1 2:1 7:0.075949367 8:0.92405063 9:1 15:1 16:1 17:1 23:0.19620253 24:1.8037975 25:1 29:0.11392405 30:0.88607595 32:1 33:0.93670886 34:0.26582278 35:0.082278481 36:0.60759494 37:0.10759494 39:0.063291139 40:0.93670886 41:0.17088608 42:0.018987342 43:0.16455696 44:1.2151899 45:0.68987342 46:0.56962025 47:0.018987342 48:0.15189873 49:0.17721519 50:0.0063291139 51:0.012658228 52:0.63291139 53:1.2594937 54:0.74050633 55:0.018987342 56:0.15189873 57:1 61:0.10126582 62:0.19620253 63:0.93037975 64:0.7721519 65:0.050632911 66:0.10126582 67:0.12658228 68:0.85443038 69:0.89240506 70:0.88607595 71:0.050632911 72:0.037974684 73:0.050632911 74:0.03164557 75:0.11392405 76:0.88607595 77:0.58227848 78:0.35443038 79:0.74050633 80:0.24050633 81:0.050632911 82:0.025316456 83:0.13924051 84:1.0253165 85:0.61392405 86:0.26582278 87:0.82911392 88:0.050632911 89:0.37341772 90:0.34177215 91:0.20253165 92:0.1835443 93:0.65822785 94:0.2278481 95:0.84177215 96:0.17088608 97:1 98:0.70886076 99:0.29113924 104:1 105:1.2658228 106:0.62025316 107:0.11392405 112:1 113:1.2341772 114:0.76582278 120:1 121:1 123:0.36708861 124:0.63291139 128:1 129:1 130:0.89873418 131:0.10126582 136:1 137:0.75949367 138:1.2405063 144:1 145:1 146:0.67088608 147:0.32911392 152:1 
0.92673775171626716 1.3533544786184992 0.94569699041467825 1.1983310877028883 1:0.52 2:0.36 3:0.92 4:0.66 5:0.16 6:0.02 8:0.02 9:0.34 10:0.1 11:0.48 12:0.4 13:0.02 16:0.62 17:0.9 18:0.48 19:0.34 20:0.64 21:0.02 24:0.1 25:0.72 26:0.2 27:0.98 28:0.14 29:0.34 30:0.26 31:0.26 32:0.48 34:0.48 35:0.24 36:0.8 37:0.2 38:0.3 39:0.48 40:0.08 41:0.48 42:0.16 43:0.36 44:0.5 45:0.44 46:0.08 47:0.12 48:0.54 49:0.18 50:0.3 51:1.18 52:0.14 53:0.26 54:0.2 55:0.08 56:0.08 57:0.4 58:0.24 59:0.62 60:0.7 61:0.6 62:0.12 63:0.16 64:0.18 65:0.54 66:0.26 67:0.02 68:0.66 69:0.34 70:0.5 71:0.42 72:0.08 73:0.46 74:0.3 75:0.52 76:0.38 77:0.08 78:0.06 79:0.36 80:0.68 81:0.16 82:0.52 83:0.12 84:0.16 85:0.44 86:0.14 87:0.12 88:0.68 89:0.46 90:0.36 91:0.54 92:0.14 93:0.14 94:0.46 95:0.12 96:0.46 97:0.7 98:0.32 99:0.12 100:0.44 101:0.44 102:0.12 104:0.3 105:0.44 106:0.32 107:0.6 108:0.34 109:0.5 110:0.5 111:0.94 112:0.06 115:0.1 116:0.28 117:0.62 118:1.18 119:0.72 120:0.1 124:0.02 125:0.14 126:0.84 127:0.98 128:0.72 129:0.3 133:0.04 134:0.58 135:0.38 136:0.44 137:0.1 138:0.44 139:0.02 140:0.1 141:0.12 142:0.62 143:0.82 144:0.34 145:0.94 146:0.06 148:0.64 149:0.36 152:0.24 153:0.76 154:0.6 155:0.4 157:1 161:0.02 162:0.98 163:0.4 164:0.58 165:0.02 166:0.8 167:0.2 171:1 
0.054470877560202517 0.0076704979768866307 0.059717248444774024 0.28531316786770056 1:2 8:0.37903226 9:0.62096774 10:1 16:1 18:1 19:1 26:0.95967742 27:1.0403226 28:1 32:1 36:1 37:2 45:1 46:1 51:0.71774194 52:0.28225806 54:1 55:0.70967742 56:0.29032258 60:0.064516129 61:0.72580645 62:0.42741935 63:0.78225806 64:1 68:0.34677419 69:0.58870968 70:0.064516129 71:0.072580645 72:0.92741935 73:0.15322581 74:0.75806452 75:0.088709677 77:0.40322581 78:0.84677419 79:0.58064516 80:0.12096774 81:0.048387097 82:0.056451613 83:0.26612903 84:0.4516129 85:0.19354839 86:0.14516129 87:0.37096774 88:0.83870968 89:0.27419355 90:0.40322581 91:0.064516129 92:0.2983871 93:0.40322581 94:0.18548387 95:0.26612903 96:0.46774194 97:0.53225806 98:0.57258065 99:0.20967742 100:0.40322581 101:0.52419355 102:0.072580645 106:0.10483871 107:0.60483871 108:1.2903226 109:1 110:0.45967742 111:0.54032258 117:1 118:1 119:1 126:1 127:2 135:1 136:1 140:0.72580645 141:0.27419355 144:1 145:1 146:1 153:1 154:2 162:1 163:1 164:1 171:1 
0.6814171923502319 0.62721116239834307 0.20840868310308308 0.6257553676460601 1:0.45 2:0.55 4:0.55 5:0.66 6:0.3 7:0.27 8:0.06 9:0.16 10:0.62 11:0.37 12:0.01 16:0.25 17:1.38 18:0.37 19:0.89 20:0.11 25:0.88 26:0.75 27:0.37 28:0.67 29:0.33 30:0.3 31:0.7 35:0.56 36:0.44 37:0.07 38:0.31 39:0.43 40:1.19 44:0.42 45:0.58 46:0.13 47:0.16 48:0.08 49:0.35 50:0.36 51:0.16 52:0.19 53:0.67 54:0.9 55:0.2 56:0.11 57:0.06 58:0.22 59:0.16 60:0.32 61:0.25 62:0.76 63:0.92 64:0.99 65:0.01 67:0.67 68:0.33 71:0.22 72:0.78 73:0.13 74:0.58 75:0.23 76:0.26 77:0.66 78:0.25 79:0.43 80:0.09 81:0.37 82:0.15 83:0.14 84:0.16 85:0.35 86:0.14 87:0.25 88:0.98 89:0.48 90:0.35 91:0.16 92:0.15 93:0.12 94:0.37 95:0.04 96:0.32 97:0.79 98:0.77 99:0.28 100:0.18 101:0.57 102:0.25 106:0.06 107:1.43 108:0.51 109:1 110:0.08 111:0.92 117:1 118:1.05 119:0.89 120:0.06 126:1 127:1.08 128:0.9 129:0.02 135:1 136:0.36 137:0.64 142:0.21 143:0.85 144:0.94 145:0.63 146:0.37 147:1 153:1 154:0.19 155:1 156:0.81 162:1 163:0.19 164:1.72 165:0.09 171:1 
0.53019895775834203 0.48424220383262062 0.29530686435494774 0.41783608500393699 1:0.57258065 2:0.86290323 3:0.49193548 4:0.072580645 5:0.024193548 6:0.024193548 7:0.40322581 8:0.14516129 9:0.40322581 10:0.93548387 11:0.064516129 15:0.60483871 16:0.39516129 17:0.45967742 18:0.54032258 19:1 25:0.65322581 26:0.58870968 27:0.75806452 28:1 30:0.056451613 31:0.94354839 36:1 37:1.2419355 38:0.44354839 39:0.31451613 44:0.040322581 45:0.95967742 46:0.29032258 47:0.49193548 48:0.34677419 49:0.33064516 50:0.29032258 51:0.19354839 52:0.35483871 53:0.096774194 54:0.60483871 55:0.12903226 56:0.30645161 57:0.56451613 58:0.49193548 59:0.75806452 60:0.27419355 61:0.24193548 62:0.11290323 63:0.12096774 64:0.056451613 65:0.50806452 66:0.49193548 67:0.2983871 68:0.59677419 69:0.16935484 70:0.40322581 71:0.23387097 72:0.24193548 73:0.83870968 74:0.20967742 75:0.33870968 76:0.80645161 77:0.41935484 78:0.12903226 79:0.056451613 80:0.12903226 81:0.072580645 82:0.056451613 83:0.2983871 84:0.58870968 85:0.45967742 86:0.32258065 87:0.46774194 88:0.58064516 89:0.096774194 90:0.12903226 91:0.040322581 92:0.2016129 93:0.5483871 94:0.35483871 95:0.41129032 96:0.40322581 97:0.45967742 98:0.44354839 99:0.13709677 100:0.42741935 101:0.016129032 102:0.43548387 103:0.080645161 104:0.040322581 106:0.37096774 107:0.79032258 108:0.83870968 109:0.66935484 110:0.33064516 113:0.15322581 114:0.25 115:0.59677419 116:0.040322581 117:0.95967742 118:1 125:0.44354839 126:1.5564516 127:0.9516129 128:0.048387097 134:1.266129 135:0.73387097 136:0.88709677 137:0.11290323 142:0.90322581 143:0.14516129 144:0.9516129 145:0.44354839 146:0.55645161 150:0.088709677 151:0.81451613 152:0.38709677 153:0.70967742 154:1 161:0.48387097 162:1.516129 163:0.2983871 164:0.7016129 169:0.22580645 170:1.0564516 171:0.71774194 
0.1243055328573581 0.16076783765421931 0.18694331591107391 0.31653614385967005 1:1 7:0.025210084 8:1.0084034 9:0.96638655 10:1 17:1.0756303 18:0.92436975 19:1 25:0.83193277 26:0.8907563 27:0.27731092 28:1 35:1 36:1 37:1 43:0.72268908 44:0.35294118 45:0.92436975 46:0.10084034 47:0.81512605 48:0.17647059 49:0.0084033613 50:0.71428571 51:0.18487395 53:0.8487395 54:0.1512605 55:0.033613445 56:0.042016807 57:0.075630252 58:0.95798319 59:0.84033613 60:0.050420168 62:0.65546218 63:0.34453782 64:0.83193277 65:0.16806723 67:0.21008403 68:0.78991597 72:1 73:0.19327731 74:0.075630252 75:0.55462185 76:0.27731092 77:0.33613445 78:1.2521008 79:0.1512605 80:0.058823529 81:0.10084034 82:0.067226891 83:0.042016807 84:0.12605042 85:0.64705882 86:0.21008403 87:0.13445378 88:0.7394958 89:0.80672269 90:0.22689076 91:0.058823529 92:0.042016807 93:0.092436975 94:0.58823529 95:0.31932773 96:0.44537815 97:0.61344538 98:0.75630252 99:0.084033613 100:0.71428571 101:0.28571429 108:2 109:1.8655462 110:0.13445378 117:1 118:0.86554622 119:0.13445378 122:0.084033613 123:0.11764706 124:0.1092437 125:0.94117647 126:0.74789916 127:1 131:0.17647059 132:0.58823529 133:0.1092437 134:0.92436975 135:0.20168067 136:1 137:0.067226891 138:0.77310924 139:0.15966387 144:1 145:1 151:0.81512605 152:0.18487395 153:1 154:0.98319328 155:0.016806723 159:0.050420168 160:0.24369748 161:0.70588235 162:1 163:1 169:1.1260504 170:0.68067227 171:0.19327731 
0.74607125144750552 0.67062602977111196 0.33039910768313496 0.36018871015570431 1:0.96428571 2:0.035714286 3:0.69642857 4:0.30357143 8:0.625 9:0.375 10:1 14:0.35714286 15:0.64285714 17:0.125 18:0.875 19:1 25:1 27:1 28:1 30:0.98214286 31:0.017857143 35:0.071428571 36:0.92857143 37:0.96428571 38:0.91071429 39:0.125 44:0.125 45:0.875 46:0.053571429 48:0.053571429 49:0.32142857 50:0.66071429 51:1.0178571 52:0.69642857 53:0.14285714 54:0.053571429 55:0.053571429 58:0.10714286 59:0.71428571 60:0.98214286 61:0.89285714 62:0.17857143 63:0.071428571 64:0.875 65:0.125 67:0.10714286 68:0.10714286 69:0.5 70:0.28571429 71:0.14285714 72:0.85714286 73:1.1071429 74:0.30357143 75:0.089285714 76:0.5 79:0.14285714 80:0.55357143 81:0.30357143 82:0.089285714 83:0.26785714 84:0.73214286 85:0.41071429 86:0.17857143 87:0.60714286 88:0.23214286 89:0.375 90:0.10714286 91:0.125 92:0.75 93:0.19642857 94:0.053571429 95:0.41071429 96:0.89285714 97:0.42857143 98:0.053571429 99:0.089285714 100:0.33928571 101:0.23214286 102:0.23214286 103:0.17857143 104:0.017857143 105:0.25 106:0.73214286 107:0.80357143 108:0.21428571 109:0.98214286 110:0.98214286 111:0.035714286 116:0.42857143 117:0.57142857 118:0.16071429 119:0.42857143 120:0.41071429 123:0.089285714 124:0.92857143 125:0.14285714 126:0.83928571 127:0.33928571 128:0.66071429 131:0.035714286 132:0.94642857 133:0.035714286 134:0.16071429 135:0.82142857 136:0.73214286 137:0.26785714 141:0.35714286 142:0.64285714 144:1 145:1 150:1 153:1 154:1 160:1 162:1 163:0.89285714 164:0.10714286 168:0.42857143 169:0.57142857 170:0.39285714 171:0.60714286 
0.38595368412440184 0.74535589297489635 0.58572570352517694 0.57966082673548247 1:0.30578512 2:0.85123967 3:0.79338843 4:0.049586777 6:0.090909091 7:0.19008264 8:0.26446281 9:0.45454545 10:0.14049587 11:0.85950413 16:0.19834711 17:0.50413223 18:1.2975207 19:0.43801653 20:0.56198347 24:0.10743802 25:0.090909091 26:0.63636364 27:1.1652893 28:0.024793388 29:0.10743802 30:0.83471074 31:0.033057851 33:0.89256198 34:0.10743802 35:0.25619835 36:0.74380165 37:0.25619835 38:0.090909091 39:0.51239669 40:0.14049587 41:0.73553719 42:0.26446281 43:0.58677686 44:0.38016529 45:0.033057851 46:0.28099174 47:0.11570248 48:0.082644628 49:0.18181818 50:0.05785124 51:0.71900826 52:0.68595041 53:0.18181818 54:0.69421488 55:0.30578512 56:0.12396694 57:0.14049587 58:0.16528926 59:0.3553719 60:1.0826446 61:0.12396694 62:0.32231405 63:0.38016529 64:0.14876033 65:0.2892562 66:0.60330579 67:0.84297521 68:0.11570248 70:0.33884298 71:0.37190083 72:0.2892562 73:0.041322314 74:0.099173554 75:0.15702479 76:0.79338843 77:0.4214876 78:0.48760331 79:0.42975207 80:0.19834711 81:0.37190083 82:0.049586777 83:0.10743802 84:0.19834711 85:0.05785124 86:0.57024793 87:0.62809917 88:0.4214876 89:0.55371901 90:0.41322314 91:0.05785124 92:0.10743802 93:0.20661157 94:0.049586777 95:0.15702479 96:1.0661157 97:0.42975207 98:0.25619835 99:0.66942149 100:0.24793388 101:0.37190083 102:0.38016529 103:0.074380165 104:0.041322314 105:0.60330579 106:0.47107438 107:0.23140496 108:0.5785124 109:1 110:0.57024793 111:0.25619835 112:0.099173554 113:0.074380165 116:0.36363636 117:0.63636364 118:1 122:0.50413223 123:0.20661157 124:0.17355372 125:0.72727273 126:0.38842975 127:1 132:0.18181818 133:0.47933884 134:0.71900826 135:0.61983471 136:0.92561983 137:0.074380165 140:0.15702479 141:0.61983471 142:0.2231405 143:0.16528926 144:0.83471074 145:1 150:0.05785124 151:0.85950413 152:0.082644628 153:1 154:1 160:0.44628099 161:0.80991736 162:0.74380165 163:1 169:0.074380165 170:0.85950413 171:1.0661157 
0.89556655770143789 0.93993260155069358 1.0298885201330688 0.79767118123903702 1:0.27826087 2:0.2173913 3:0.49565217 4:0.086956522 5:0.99130435 6:0.32173913 7:0.12173913 8:0.4 9:0.086956522 10:0.48695652 11:0.51304348 14:0.49565217 15:0.46956522 16:0.0086956522 17:0.31304348 18:0.71304348 19:1 24:0.19130435 25:0.7826087 26:0.55652174 27:0.46956522 28:0.043478261 29:0.43478261 30:0.0086956522 31:0.51304348 32:0.2173913 33:0.7826087 34:0.70434783 35:0.27826087 36:0.017391304 37:0.32173913 38:1.2434783 39:0.91304348 40:0.19130435 41:0.034782609 42:0.069565217 43:0.13913043 44:0.069565217 45:0.017391304 46:0.1826087 47:0.72173913 48:0.65217391 49:0.44347826 51:0.20869565 52:0.32173913 53:0.44347826 54:0.026086957 55:0.1826087 56:0.46086957 57:0.45217391 58:0.89565217 59:0.0086956522 61:0.42608696 62:0.45217391 63:0.12173913 64:0.76521739 65:0.20869565 66:0.017391304 67:0.0086956522 68:0.24347826 69:0.25217391 70:0.50434783 71:0.026086957 72:0.97391304 73:0.34782609 74:0.47826087 75:0.19130435 76:0.15652174 77:0.095652174 78:0.060869565 79:0.026086957 80:1.1217391 81:0.52173913 82:0.3826087 83:0.53913043 84:0.32173913 85:0.13043478 86:0.034782609 87:0.13043478 88:0.54782609 89:0.37391304 90:0.53913043 91:0.32173913 92:0.47826087 93:0.46086957 94:0.052173913 95:0.19130435 96:0.32173913 97:0.42608696 98:0.29565217 99:0.45217391 100:0.33913043 101:0.68695652 102:1.0173913 103:0.43478261 104:0.017391304 107:0.095652174 108:0.40869565 109:0.80869565 110:0.19130435 111:0.060869565 112:0.65217391 113:0.28695652 115:0.086956522 116:0.55652174 117:0.35652174 118:0.75652174 119:0.24347826 123:0.73913043 124:0.28695652 125:0.2173913 126:0.75652174 127:0.90434783 128:0.095652174 132:0.80869565 133:0.19130435 134:0.45217391 135:0.54782609 136:0.017391304 137:0.0086956522 138:0.48695652 139:0.65217391 140:1.2521739 141:0.034782609 142:0.034782609 143:0.0086956522 144:0.50434783 145:1 150:1 152:0.47826087 153:0.52173913 154:0.70434783 155:0.29565217 160:0.26956522 161:1 162:0.73043478 163:0.93913043 164:0.060869565 169:0.45217391 170:0.80869565 171:0.73913043 
0.71268273637021995 0.88503734451120697 0.72107649357656967 0.77667791792674756 1:0.063829787 2:0.31914894 3:0.63829787 4:0.45744681 5:0.5 6:0.21276596 7:0.36170213 8:0.32978723 9:0.11702128 10:0.085106383 11:0.69148936 12:0.21276596 14:0.053191489 15:0.92553191 16:0.13829787 17:0.42553191 18:0.46808511 19:0.96808511 20:0.021276596 21:0.010638298 23:0.21276596 24:0.80851064 25:0.18085106 26:0.34042553 27:0.45744681 28:0.031914894 29:0.15957447 30:1.212766 31:0.59574468 35:0.25531915 36:0.74468085 37:0.65957447 38:0.12765957 39:0.20212766 40:0.053191489 41:0.10638298 42:0.32978723 43:0.5212766 44:0.24468085 45:0.75531915 46:0.4787234 47:0.085106383 50:0.13829787 51:0.11702128 52:0.15957447 53:1.0744681 54:0.94680851 55:0.4787234 56:0.085106383 60:0.19148936 61:0.25531915 62:1.0851064 63:0.90425532 64:0.28723404 65:0.70212766 66:0.085106383 67:0.21276596 68:0.71276596 69:0.35106383 70:0.4893617 71:0.095744681 72:0.063829787 73:0.10638298 74:0.11702128 75:0.69148936 76:0.11702128 77:0.20212766 78:0.9893617 79:0.34042553 80:0.11702128 81:0.31914894 82:0.14893617 83:0.10638298 84:0.23404255 85:0.4893617 86:0.14893617 87:0.32978723 88:0.53191489 89:0.80851064 90:0.20212766 91:0.11702128 92:0.13829787 93:0.085106383 94:0.5106383 95:0.26595745 96:0.32978723 97:0.46808511 98:0.63829787 99:0.44680851 100:0.053191489 101:0.76595745 102:0.14893617 103:0.031914894 104:0.010638298 105:0.37234043 106:0.56382979 107:0.41489362 108:0.63829787 109:0.76595745 110:0.56382979 111:0.58510638 112:0.085106383 114:0.031914894 115:0.13829787 116:0.14893617 117:0.68085106 118:0.68085106 119:0.45744681 120:0.78723404 121:0.074468085 124:0.031914894 125:0.36170213 126:0.60638298 127:0.095744681 128:0.60638298 129:0.44680851 130:0.53191489 131:0.31914894 133:0.021276596 134:0.38297872 135:0.59574468 136:0.085106383 137:0.73404255 138:0.18085106 141:0.031914894 142:0.9787234 143:0.57446809 144:0.41489362 145:1 150:0.41489362 151:0.58510638 152:0.4787234 153:0.5212766 154:1 157:0.17021277 158:0.82978723 162:1 163:1 166:0.12765957 167:0.87234043 171:1 
0.078827611479152307 0.03859364972963103 0.023064436714798759 0.11483804082092221 1:1.4695652 2:0.44347826 3:0.086956522 7:0.28695652 8:0.23478261 9:0.47826087 10:0.86086957 11:0.13913043 15:0.39130435 16:0.60869565 17:0.10434783 18:0.89565217 19:0.88695652 20:0.11304348 26:1.1130435 27:0.88695652 28:0.86086957 29:0.13913043 32:0.33043478 33:0.66956522 36:1 37:0.85217391 38:0.36521739 39:0.086956522 40:0.086956522 41:0.48695652 42:0.12173913 45:1 46:0.28695652 47:0.017391304 48:0.052173913 49:0.2 50:0.28695652 51:0.80869565 52:0.20869565 53:0.52173913 54:0.6173913 55:0.28695652 56:0.060869565 57:0.33913043 58:0.16521739 59:0.33043478 60:0.79130435 61:0.60869565 62:0.26086957 63:0.15652174 64:0.80869565 65:0.19130435 68:0.10434783 69:0.32173913 70:0.73913043 71:0.33913043 72:0.49565217 73:0.07826087 74:0.034782609 75:0.034782609 76:0.052173913 77:0.47826087 78:0.83478261 79:0.15652174 80:0.29565217 81:1.0347826 82:0.060869565 83:0.052173913 84:0.14782609 85:0.29565217 86:0.79130435 87:0.25217391 88:0.60869565 89:0.23478261 90:0.55652174 91:0.069565217 92:0.052173913 93:0.30434783 94:0.23478261 95:0.86086957 96:0.20869565 97:0.53913043 98:0.1826087 99:0.54782609 100:0.30434783 101:0.07826087 102:0.17391304 103:0.64347826 104:0.33043478 105:1.1130435 106:0.14782609 107:0.086956522 108:0.12173913 109:1 110:0.77391304 111:0.22608696 116:0.75652174 117:0.24347826 118:1 119:1 126:1 127:2 135:1 136:0.73043478 137:0.26956522 139:0.66086957 140:0.086956522 141:0.25217391 143:0.74782609 144:0.25217391 145:1.4434783 146:0.55652174 153:1 154:1.9043478 155:0.095652174 162:1 163:1 164:0.87826087 165:0.12173913 170:0.034782609 171:0.96521739 
0.36509992483457931 0.38865740955056799 0.28744116300098038 0.42532632680911009 1:0.90384615 2:0.52884615 3:0.14423077 4:0.048076923 5:0.067307692 6:0.30769231 8:0.36538462 9:0.63461538 10:1 16:0.21153846 17:0.78846154 18:1 19:1 25:0.49038462 26:1.1923077 27:0.31730769 28:0.875 29:0.125 33:1 36:1 37:0.82692308 38:0.15384615 39:0.13461538 40:0.88461538 45:1 46:0.50961538 47:0.26923077 48:0.067307692 49:0.048076923 50:0.10576923 51:0.11538462 52:0.88461538 54:1 55:0.19230769 56:0.11538462 57:0.63461538 58:0.61538462 59:0.26923077 60:0.17307692 61:0.086538462 62:0.61538462 63:0.29807692 64:0.16346154 65:0.83653846 69:0.69230769 70:0.30769231 71:0.30769231 72:0.69230769 73:0.11538462 74:0.076923077 75:0.29807692 76:0.057692308 77:0.32692308 78:0.41346154 79:0.40384615 80:0.99038462 81:0.31730769 82:0.067307692 83:0.125 84:0.048076923 85:0.17307692 86:0.59615385 87:0.33653846 88:0.076923077 89:1.1346154 90:0.44230769 91:0.057692308 92:0.15384615 93:0.048076923 94:0.11538462 95:0.84615385 96:0.13461538 97:0.43269231 98:0.60576923 99:0.60576923 100:0.38461538 101:0.28846154 102:0.32692308 104:0.27884615 105:0.60576923 106:0.36538462 107:0.59615385 108:0.15384615 109:0.70192308 110:0.38461538 111:0.74038462 112:0.17307692 117:1 118:0.17307692 119:0.32692308 120:0.5 125:0.86538462 126:1.1346154 127:0.26923077 128:0.38461538 129:0.34615385 134:0.73076923 135:1.2692308 136:0.51923077 137:0.48076923 139:0.31730769 140:0.59615385 141:0.086538462 144:1 145:1 151:0.44230769 152:0.41346154 153:1.1442308 154:0.76923077 155:0.23076923 156:0.78846154 157:0.21153846 161:0.43269231 162:0.56730769 163:1 167:0.93269231 168:0.067307692 170:0.18269231 171:0.81730769 
0.34707657506413647 0.36238617558027614 0.15266457895188756 0.456584942661594 1:1 2:0.93037975 3:0.069620253 8:0.14556962 9:0.85443038 10:1 16:0.33544304 17:0.66455696 18:1 19:1 26:0.51898734 27:1.4810127 28:1 33:0.43037975 34:0.56962025 36:1 37:0.91139241 38:0.27848101 39:0.025316456 40:0.44303797 41:0.30379747 42:0.037974684 44:0.10759494 45:0.89240506 46:0.17088608 47:0.018987342 48:0.12658228 49:0.24683544 50:1.3734177 51:0.62658228 52:0.28481013 54:0.15189873 55:0.17721519 56:0.0063291139 57:0.012658228 58:0.25316456 59:0.74050633 60:1.4240506 61:0.2278481 62:0.0063291139 63:0.15189873 64:1 69:0.13924051 70:0.55063291 71:0.63291139 72:0.67721519 73:0.050632911 74:0.088607595 75:0.094936709 76:0.22151899 77:1.3101266 78:0.75316456 79:0.41772152 80:0.025316456 81:0.037974684 82:0.050632911 83:0.018987342 84:0.063291139 85:0.25949367 86:0.93037975 87:0.56329114 88:0.16455696 89:0.80379747 90:0.14556962 91:0.050632911 92:0.018987342 93:0.094936709 94:0.73417722 95:0.50632911 96:0.53797468 97:0.2278481 98:0.79746835 99:0.03164557 100:0.31012658 101:0.38607595 102:0.063291139 103:0.24050633 104:0.24683544 105:0.56329114 106:0.32278481 107:0.69620253 108:0.17088608 109:1 110:0.44303797 111:0.55696203 117:1 118:1.2468354 119:0.58860759 120:0.16455696 126:1 127:1.0886076 128:0.91139241 135:1 136:1 138:0.19620253 139:0.62658228 140:0.17721519 144:1 145:0.84177215 146:0.92405063 147:0.23417722 153:1 154:0.71518987 155:1.2848101 162:1 163:1 164:0.24683544 165:0.75316456 171:1 
0.74837625376555694 1.4734948794747633 0.56481129382291517 2 1:1.18 2:1.3 3:0.16 4:0.36 5:0.7 6:0.3 7:0.22 8:1.78 9:1 11:0.44 12:1.56 13:0.52 14:0.92 15:0.38 16:1.18 17:0.7 18:0.6 19:0.66 20:1.04 21:0.26 22:0.76 23:1.52 24:0.46 25:0.24 26:0.8 27:1.62 28:0.34 29:0.88 30:0.52 31:0.64 32:0.96 33:0.82 34:0.9 35:0.36 36:0.92 37:0.7 38:0.66 39:0.58 40:1.06 41:0.72 42:0.66 43:1.08 44:0.54 45:0.9 46:0.2 47:0.86 48:1.04 49:1 50:1 51:0.08 52:0.92 53:1.96 54:0.04 55:0.02 56:0.98 57:1.72 58:0.28 59:0.02 60:0.98 61:0.56 62:0.46 63:0.62 64:1.36 65:1 66:1 68:1 69:1 70:1 72:1 73:1 74:1 76:1 
0.044146654193641693 0 0 0.035266970467120941 1:2 4:1 5:1 7:0.84677419 8:1.1532258 9:1 12:2 13:1 14:0.60483871 15:0.39516129 16:1 17:2 20:1 21:1 23:1 24:1 25:1 27:0.52419355 28:1.4758065 29:1 31:1 32:1 33:0.91935484 34:0.18548387 35:1.6209677 36:0.27419355 37:0.53225806 38:0.47580645 39:1.0725806 40:0.91935484 41:0.48387097 42:0.53225806 43:1.0483871 44:0.93548387 45:0.9516129 46:0.048387097 47:0.072580645 48:1.9274194 49:2 52:1 53:2 56:1 57:2 60:1 61:1 62:0.072580645 63:0.92741935 64:1 65:2 68:1 69:2 72:1 73:2 76:1 
0.27050855649226607 0.41603033588277061 0.0095645161738083101 0.25510630965365044 1:1 2:0.93 3:0.7 4:0.37 5:1 8:2 9:1 11:0.61 12:1.39 13:1 14:1 16:1 17:0.48 18:1.52 20:1 21:0.32 22:0.66 23:0.39 24:1.63 25:0.32 26:0.39 27:0.57 28:1.72 29:1 30:1 32:1 33:0.76 34:1.07 35:0.69 36:0.48 37:0.32 38:0.51 39:0.86 40:1.31 41:0.33 42:0.5 43:0.81 44:1.36 45:0.93 46:0.07 47:0.02 48:1.98 49:1.12 50:0.88 52:1 53:1.99 54:0.01 56:1 57:2 60:1 61:1 63:0.09 64:1.91 65:1.12 66:0.88 68:1 69:1.77 70:0.23 72:1 73:1.98 74:0.02 76:1 
0.37939194923061481 0.37860597517513772 0.24112420193302531 0.30311640440242471 1:1.4354839 2:0.56451613 3:0.44354839 4:0.55645161 5:1 7:0.91935484 8:1.0806452 9:1 11:0.45967742 12:1.5403226 13:1 14:1 16:1 17:1.75 18:0.25 20:1 21:0.87903226 22:0.80645161 23:0.58870968 24:0.72580645 25:0.5483871 26:1.3870968 27:0.80645161 28:0.25806452 29:0.88709677 30:1.0403226 31:0.52419355 32:0.5483871 33:1.1048387 34:1.1532258 35:0.52419355 36:0.21774194 37:0.45967742 38:1.1209677 39:1.0403226 40:0.37903226 41:0.36290323 42:1.0483871 43:0.88709677 44:0.7016129 45:0.44354839 46:0.55645161 47:0.032258065 48:1.9677419 49:1 51:1 52:1 53:1 56:2 57:1 60:2 61:1 63:0.67741935 64:1.3225806 65:1 67:0.2983871 68:1.7016129 69:1 72:2 73:1 75:0.10483871 76:1.8951613 
0.0019807824443448039 0.05205837249568749 0.0040061765517072547 0.19499286791297327 1:1 4:2 5:1 8:2 9:1 11:0.50420168 12:1.4957983 13:1 16:2 17:1 19:0.27731092 20:1.7226891 21:1.0840336 22:0.28571429 23:0.6302521 24:1 25:0.084033613 26:1.4621849 27:0.45378151 28:1 29:1 30:0.52941176 31:0.47058824 32:1 33:0.27731092 34:1.0252101 35:1.5294118 36:0.16806723 37:0.12605042 38:0.93277311 39:0.77310924 40:1.1680672 41:0.11764706 42:0.8487395 43:1.092437 44:0.94117647 45:1 48:2 49:2 52:1 53:1 55:0.22689076 56:1.7731092 57:1 58:0.0084033613 59:0.76470588 60:1.2268908 61:1.1512605 62:0.8487395 64:1 65:1 67:0.36134454 68:1.6386555 69:1 71:0.2605042 72:1.7394958 73:1 75:0.30252101 76:1.697479 
0.70191914268297673 0.85677160940286234 0.4095434305239698 0.47297054918730896 1:1 2:1 4:1 5:1 7:1 8:1 9:1 11:0.98214286 12:1.0178571 13:1 14:1 16:1 17:1.9821429 18:0.017857143 20:1 21:0.053571429 22:0.71428571 23:1.9642857 24:0.26785714 25:0.053571429 26:0.375 27:2.2678571 28:0.30357143 29:1 30:0.14285714 31:0.85714286 32:1 33:1.4464286 34:0.55357143 36:1 37:0.76785714 38:0.80357143 39:0.89285714 40:0.53571429 41:0.96428571 42:0.32142857 43:1.5535714 44:0.16071429 45:0.66071429 46:0.33928571 47:0.69642857 48:1.3035714 49:2 52:1 53:0.82142857 54:0.17857143 55:1 56:1 57:1 59:1 60:1 61:1 63:1 64:1 65:1 67:1 68:1 69:1 71:0.46428571 72:1.5357143 73:1 75:1 76:1 
0.17858366016460306 0.4403311235504187 0.46843619078443266 0.49753544394468907 1:1.5454545 2:0.45454545 3:0.12396694 4:0.87603306 5:1 7:0.17355372 8:1.8264463 9:1 11:0.14876033 12:1.8512397 13:0.14876033 14:0.85123967 15:1 16:1 17:0.41322314 18:0.66115702 19:1.3140496 20:0.61157025 21:0.4214876 22:0.26446281 23:1.2479339 24:1.0661157 25:0.46280992 26:0.59504132 27:1.2231405 28:0.71900826 29:0.55371901 30:1.4297521 31:0.33884298 32:0.67768595 33:0.14876033 34:1.214876 35:0.9338843 36:0.70247934 37:0.16528926 38:0.27272727 39:1.5619835 40:1 41:0.2231405 42:0.2231405 43:1.5867769 44:0.96694215 45:0.75206612 46:0.33884298 47:1.0082645 48:0.90082645 49:1.6198347 50:0.37190083 51:0.0082644628 52:1 53:1 55:0.83471074 56:1.1652893 57:1 59:0.62809917 60:1.3719008 61:1 63:0.89256198 64:1.107438 65:1 67:0.83471074 68:1.1652893 69:1 71:0.16528926 72:1.8347107 73:1 75:0.0082644628 76:1.9917355 
0.62791022640997318 0.85015486303999732 0.71046859331182421 0.78647216141772325 1:0.51304348 2:1.1130435 3:0.88695652 4:0.48695652 5:1 6:0.12173913 7:0.85217391 8:1.026087 9:1 11:0.96521739 12:1.0347826 13:0.47826087 14:0.69565217 15:1.0173913 16:0.80869565 17:1.8434783 18:0.83478261 19:0.2 20:0.12173913 21:1 22:1 23:0.48695652 24:0.51304348 25:0.74782609 26:1.2521739 27:0.36521739 28:0.63478261 29:0.97391304 30:0.026086957 31:0.96521739 32:1.0347826 33:0.86956522 34:0.37391304 35:0.10434783 36:1.6521739 37:1.0608696 38:0.33043478 39:0.65217391 40:0.95652174 41:1.0869565 42:0.31304348 43:0.80869565 44:0.79130435 45:1.5217391 46:0.96521739 47:0.0086956522 48:0.50434783 49:1 50:1 51:0.026086957 52:0.97391304 53:1 55:1 56:1 57:1 59:1 60:1 61:0.034782609 62:1.626087 63:0.82608696 64:0.51304348 65:1 67:1 68:1 69:1 71:0.20869565 72:1.7913043 73:1 75:0.22608696 76:1.773913 
0.94979622844192801 1.1972831821993533 0.72696934919185874 1.246360079451609 1:0.68085106 2:1.1382979 3:0.67021277 4:0.5106383 5:0.89361702 6:0.095744681 7:1.106383 8:0.90425532 9:0.9893617 10:0.053191489 11:1.106383 12:0.85106383 13:0.60638298 14:1.393617 16:1 17:0.85106383 18:0.20212766 19:0.94680851 20:1 21:0.56382979 23:0.37234043 24:2.0638298 25:0.56382979 27:0.34042553 28:2.0957447 29:0.9893617 30:0.70212766 31:1.0851064 32:0.22340426 33:0.44680851 34:0.68085106 35:1.4255319 36:0.44680851 37:0.29787234 38:0.80851064 39:0.73404255 40:1.1595745 41:0.29787234 42:0.74468085 43:0.79787234 44:1.1595745 45:0.85106383 46:0.14893617 47:0.84042553 48:1.1595745 49:1.4574468 50:0.54255319 51:0.13829787 52:0.86170213 53:1.2340426 54:0.76595745 55:0.010638298 56:0.9893617 57:1 58:1 60:1 61:0.94680851 62:0.053191489 63:0.67021277 64:1.3297872 65:1 67:1 68:1 69:1 70:1 72:1 73:1 74:0.9893617 75:0.010638298 76:1 
0.080812941125344664 0.12560994721557966 0.012199707396632044 0.21613600301408442 1:2 3:0.26956522 4:0.73043478 5:1 7:1 8:1 9:1 12:2 13:1 14:0.26956522 15:0.73043478 16:1 17:1.2695652 18:0.4 19:0.33043478 20:1 21:0.31304348 22:0.46956522 23:1.0782609 24:1.1391304 25:0.35652174 26:0.66086957 27:1.3565217 28:0.62608696 29:1 31:1.0782609 32:0.92173913 33:0.12173913 34:0.37391304 35:1.1391304 36:1.3652174 37:0.13043478 38:0.89565217 39:0.93913043 40:1.0347826 41:0.15652174 42:0.8173913 43:1.2521739 44:0.77391304 45:0.43478261 46:0.87826087 47:1.4347826 48:0.25217391 49:2 52:1 53:2 56:1 57:2 60:1 61:1 62:0.70434783 63:0.29565217 64:1 65:2 68:1 69:2 72:1 73:2 76:1 
0 0.19298309883239481 0.16182533309602185 0.52420448632367822 1:1.5096154 2:0.14423077 3:0.34615385 4:1 5:1 8:2 9:1 11:0.23076923 12:1.7692308 13:1 15:1 16:1 17:1 18:1 20:1 21:0.79807692 22:0.15384615 23:0.65384615 24:1.3942308 25:0.51923077 26:1.2019231 27:0.34615385 28:0.93269231 29:1 31:1 32:1 33:0.24038462 34:0.35576923 35:1.0480769 36:1.3557692 37:0.22115385 38:0.63461538 39:0.51923077 40:1.625 41:0.22115385 42:0.58653846 43:0.89423077 44:1.2980769 45:0.76923077 46:0.23076923 47:1.0673077 48:0.93269231 49:1.3942308 50:0.60576923 52:1 53:0.61538462 54:0.38461538 56:2 57:0.85576923 58:0.14423077 60:2 61:1 62:0.77884615 63:0.22115385 64:1 65:1 67:0.28846154 68:1.7115385 69:1 70:1 72:1 73:1 75:1 76:1 
0.0055992505771625557 0.13028482239865399 0.10760793438611639 0.29216994130827417 1:2 4:1 5:1 8:2 9:1 12:2 13:1 15:1 16:1 17:1.2025316 18:0.68987342 19:0.10759494 20:1 21:0.18987342 22:1.3797468 23:1.2594937 24:0.17088608 25:0.1835443 26:0.64556962 27:2 28:0.17088608 29:1 31:0.29746835 32:1.7025316 33:0.15189873 34:0.98101266 35:1.778481 36:0.088607595 37:0.082278481 38:1 39:0.93670886 40:0.98101266 41:0.075949367 42:1.164557 43:0.87974684 44:0.87974684 45:0.71518987 46:0.38607595 47:0.88607595 48:1.0126582 49:1.7088608 50:0.29113924 52:1 53:1.8860759 54:0.11392405 56:1 57:2 60:1 61:1 62:1 64:1 65:1.8987342 66:0.10126582 68:1 69:2 72:1 73:1.6708861 74:0.32911392 76:1 
-1.0539111702783954 1.9031335249355228 0.25351442432369281 0.74948294525735126 1:0.90277778 2:0.86805556 3:0.34722222 4:0.72916667 5:0.15277778 6:1 8:0.82638889 9:1.0069444 10:0.16666667 11:1 13:0.083333333 14:1.5486111 15:0.36805556 16:0.91666667 17:0.69444444 18:0.3125 19:0.20833333 20:0.86805556 21:0.23611111 22:1.5208333 23:0.24305556 24:0.125 25:0.875 26:0.090277778 27:0.59027778 28:0.52083333 29:1.0486111 30:0.75 31:0.090277778 32:0.65972222 33:0.32638889 34:1.4236111 35:0.5 36:1 37:0.88194444 38:0.63194444 39:0.34722222 40:0.13888889 41:0.97222222 42:0.16666667 43:1.2847222 44:0.27083333 45:0.30555556 46:0.78472222 47:0.15972222 48:0.125 49:1.4791667 50:0.45138889 51:0.79861111 52:0.13888889 53:0.069444444 54:0.98611111 55:1.0069444 56:0.13888889 57:0.36805556 58:0.49305556 59:0.35416667 60:1.6458333 61:0.79861111 62:0.94444444 63:0.43055556 64:0.125 65:0.70138889 66:1.5208333 67:0.22222222 68:0.4375 69:0.069444444 70:0.75 71:1.4027778 72:0.34722222 73:0.39583333 74:0.11805556 75:0.73611111 76:0.88888889 77:0.11111111 78:0.055555556 79:0.79861111 80:1.1458333 81:0.82638889 82:0.86805556 83:0.22916667 84:0.375 85:0.70138889 86:1.4166667 87:0.39583333 88:0.034722222 89:0.43055556 90:0.72222222 91:1.0694444 92:0.75 93:0.027777778 94:0.43055556 95:0.72222222 
-0.051116745930331733 1.009308516541662 0.34273922904040366 0.33442549275964417 1:1.2018349 2:0.82568807 3:0.44954128 4:0.33944954 5:0.18348624 6:0.91743119 7:0.082568807 8:1.3486239 9:0.4587156 10:0.19266055 11:0.89908257 12:0.10091743 13:0.5412844 14:1.0091743 15:0.44954128 16:0.86238532 17:0.74311927 18:0.21100917 19:0.79816514 20:0.3853211 21:1.146789 22:0.79816514 23:0.48623853 24:0.36697248 25:0.20183486 26:0.24770642 27:0.43119266 28:0.85321101 29:1.2018349 30:0.26605505 31:0.37614679 32:0.33944954 33:0.69724771 34:0.90825688 35:0.67889908 36:0.99082569 37:0.82568807 38:0.7706422 39:0.22018349 40:0.19266055 41:1.0642202 42:0.9266055 43:0.44954128 44:0.39449541 45:0.16513761 46:0.83486239 47:0.33027523 48:0.77981651 49:0.56880734 50:0.48623853 51:0.73394495 52:0.3853211 53:0.67889908 54:0.69724771 55:0.50458716 56:0.39449541 57:0.49541284 58:0.11009174 59:0.19266055 60:1.8073394 61:0.88073394 62:0.59633028 63:0.66055046 64:0.40366972 65:0.4587156 66:0.96330275 67:0.36697248 68:1.1009174 69:0.073394495 70:0.49541284 71:1.0183486 72:0.63302752 73:0.75229358 74:0.091743119 75:0.50458716 76:0.5412844 77:0.52293578 78:0.12844037 79:0.23853211 80:1.5688073 81:0.9266055 82:0.85321101 83:0.22018349 84:0.23853211 85:0.76146789 86:0.59633028 87:0.87155963 88:0.57798165 89:0.48623853 90:0.46788991 91:0.83486239 92:0.6146789 93:0.57798165 94:0.50458716 95:0.46788991 
-0.42021593966375353 0.79650869664166879 0.092079737300070866 0.16408453019149211 1:1.1851852 2:0.092592593 3:1.0648148 4:0.53703704 5:0.12037037 6:1 8:1.287037 9:0.60185185 10:0.11111111 11:1 13:0.44444444 14:1.3240741 15:0.23148148 16:0.98148148 17:0.018518519 18:0.31481481 19:0.74074074 20:0.94444444 21:0.50925926 22:0.80555556 23:0.10185185 24:0.23148148 25:1.3518519 26:0.12037037 27:0.87962963 28:1.0462963 29:0.63888889 30:0.31481481 31:0.13888889 32:0.85185185 33:1.2037037 34:0.47222222 35:0.33333333 36:1.0277778 37:0.97222222 38:0.35185185 39:0.51851852 40:0.12962963 41:0.86111111 42:0.76851852 43:0.76851852 44:0.16666667 45:0.43518519 46:0.39814815 47:0.7037037 48:0.83333333 49:0.7037037 50:0.36111111 51:0.40740741 52:0.60185185 53:0.84259259 54:0.77777778 55:0.37037037 56:0.48148148 57:0.15740741 58:0.36111111 59:0.42592593 60:1.5740741 61:0.44444444 62:1.0740741 63:0.97222222 64:0.046296296 65:0.46296296 66:0.64814815 67:1.3518519 68:0.4537037 69:0.10185185 70:0.44444444 71:1.1203704 72:0.88888889 73:0.43518519 74:0.12037037 75:0.43518519 76:0.86111111 77:0.19444444 78:0.65740741 79:0.28703704 80:1 81:1 82:0.44444444 83:0.5462963 84:0.5462963 85:0.46296296 86:1.212963 87:0.41666667 88:0.7962963 89:0.092592593 90:0.48148148 91:1.0185185 92:0.55555556 93:0.87037037 94:0.055555556 95:0.5 
-0.44467122065644721 0.76743518424137636 0 0 1:1.414966 2:0.27210884 3:0.06122449 4:1.0816327 5:0.17006803 6:1 8:0.3877551 9:1.414966 10:0.19727891 11:1 13:0.054421769 14:1.7414966 15:0.20408163 16:1 18:0.56462585 19:0.31292517 20:1.122449 21:1.3129252 22:0.25170068 23:0.3877551 24:0.33333333 25:0.71428571 26:0.36054422 27:0.6122449 28:1.1360544 29:0.55782313 30:0.33333333 31:0.19047619 32:0.40136054 33:0.95918367 34:1.1836735 35:0.26530612 36:0.7755102 37:1.2244898 38:0.55102041 39:0.26530612 40:0.18367347 41:0.97959184 42:0.020408163 43:0.84353741 44:0.76190476 45:0.39455782 46:0.80952381 47:0.14285714 48:0.14285714 49:0.97278912 50:0.93197279 51:0.87755102 52:0.068027211 53:0.12244898 54:0.96598639 55:0.96598639 56:0.17006803 57:0.29251701 58:0.53741497 59:0.020408163 60:1.9795918 61:1.1156463 62:0.75510204 63:0.20408163 64:0.26530612 65:0.65986395 66:1.2040816 67:0.79591837 68:0.21768707 69:0.068027211 70:0.71428571 71:1.537415 72:0.27210884 73:0.46938776 74:0.0068027211 75:0.71428571 76:1 77:0.068027211 78:0.36054422 79:0.57142857 80:1 81:1 82:0.68707483 83:0.29251701 84:0.31972789 85:0.70068027 86:1.4557823 87:0.31292517 88:0.23129252 89:0.28571429 90:0.71428571 91:1.1020408 92:0.6462585 93:0.25170068 94:0.28571429 95:0.71428571 
-0.36895456506274094 1.017284379301326 0.30845183797061604 0.68094096990504638 1:1.5384615 2:0.17307692 3:0.25 4:0.875 5:0.16346154 6:1 8:0.78846154 9:1.0192308 10:0.19230769 11:1 13:0.52884615 14:1.2596154 15:0.21153846 16:0.625 17:0.50961538 18:0.58653846 19:0.086538462 20:1.1923077 21:0.096153846 22:0.53846154 23:0.90384615 24:0.46153846 25:1 26:0.125 27:0.16346154 28:0.36538462 29:1.5096154 30:0.83653846 31:0.14423077 32:0.14423077 33:0.24038462 34:1.5769231 35:0.89423077 36:1 37:1 38:0.55769231 39:0.24038462 40:0.20192308 41:1 43:1.1153846 44:0.66346154 45:0.22115385 46:1 48:0.75961538 49:1.0769231 50:0.16346154 51:0.96153846 52:0.038461538 53:0.78846154 54:1.0288462 55:0.18269231 56:0.15384615 57:0.5 58:0.34615385 60:2 61:0.35576923 62:1.2980769 63:0.375 64:0.38461538 65:0.58653846 66:0.58653846 67:1.0576923 68:0.70192308 69:0.057692308 70:0.59615385 71:1.0673077 72:0.625 73:0.66346154 74:0.22115385 75:0.42307692 76:1 77:0.18269231 78:0.32692308 79:0.49038462 80:1 81:1.0865385 82:0.38461538 83:0.52884615 84:0.41346154 85:0.58653846 86:1.2211538 87:0.46153846 88:0.66346154 89:0.067307692 90:0.58653846 91:1.125 92:0.43269231 93:0.69230769 94:0.16346154 95:0.58653846 
-1.0958954732200901 2 2 2 1:0.57458564 2:0.67403315 3:0.75138122 4:0.50276243 5:0.49723757 6:0.48066298 7:0.56906077 8:0.79558011 9:0.93922652 10:0.21546961 11:0.82872928 12:0.26519337 13:0.98342541 14:0.71823204 15:0.20441989 16:0.68508287 17:0.58563536 18:0.66850829 19:0.90607735 20:0.15469613 21:1.160221 22:0.4198895 23:0.83977901 24:0.5359116 25:0.044198895 26:0.52486188 27:0.64088398 28:1.1104972 29:0.49723757 30:0.22651934 31:0.56906077 32:0.61878453 33:1.0994475 34:0.47513812 35:0.23756906 36:0.28176796 37:0.95027624 38:1.4198895 39:0.20441989 40:0.14364641 41:0.27624309 42:0.88950276 43:1.480663 44:0.32596685 45:0.027624309 46:0.23756906 47:0.60773481 48:1.2209945 49:0.90055249 50:0.033149171 51:0.24309392 52:0.49723757 53:1.1104972 54:0.77900552 55:0.37016575 56:0.016574586 57:0.14364641 58:0.61325967 59:1.5303867 60:0.6961326 61:0.38674033 62:1.3370166 63:0.3038674 64:0.17127072 65:0.80110497 66:0.13812155 67:0.98342541 68:0.82320442 69:0.2320442 70:0.82320442 71:0.12154696 72:0.88950276 73:0.59116022 74:0.55248619 75:0.84530387 76:0.53038674 77:0.94475138 78:0.22099448 79:0.59116022 80:0.71270718 81:0.35911602 82:1.0939227 83:0.51381215 84:0.17127072 85:0.86187845 86:0.64088398 87:0.78453039 88:0.16022099 89:0.60773481 90:0.80662983 91:0.61878453 92:0.70165746 93:0.25966851 94:0.56906077 95:0.85082873 
-0.44899345762440634 2 0.71974253118642528 0.52068029806015792 1:1.0140845 2:0.55633803 3:0.3943662 4:0.86619718 5:0.16901408 6:0.96478873 7:0.25352113 8:0.64788732 9:0.95070423 10:0.18309859 11:1 13:0.47887324 14:1.2746479 15:0.24647887 16:0.80985915 17:0.38028169 18:0.38028169 19:0.73239437 20:0.6971831 21:0.61971831 22:0.61267606 23:0.31690141 24:1.0140845 25:0.43661972 26:0.57746479 27:0.80985915 28:0.85915493 29:0.46478873 30:0.28873239 31:0.65492958 32:1.2957746 33:0.52112676 34:0.15492958 35:0.37323944 36:1.0211268 37:1.3098592 38:0.29577465 39:0.21830986 40:0.15492958 41:0.83802817 42:0.62676056 43:0.96478873 44:0.28169014 45:0.28873239 46:0.28873239 47:0.75352113 48:0.50704225 49:1.1126761 50:0.33802817 51:0.14084507 52:0.83098592 53:0.23943662 54:1.2464789 55:0.54225352 56:0.22535211 57:0.14788732 58:0.28169014 59:0.9084507 60:1.4366197 61:1.3661972 62:0.63380282 63:0.084507042 64:0.21126761 65:0.70422535 66:1.3591549 67:0.16901408 68:1.084507 69:0.098591549 70:0.28873239 71:1.3591549 72:0.5 73:0.71830986 74:0.14084507 75:0.28169014 76:0.92253521 77:0.25352113 78:0.49295775 79:0.34507042 80:0.98591549 81:0.97183099 82:0.5915493 83:0.44366197 84:0.30985915 85:0.68309859 86:1.1478873 87:0.26760563 88:0.76760563 89:0.52816901 90:0.28873239 91:1 92:0.4084507 93:0.57746479 94:0.69014085 95:0.32394366 
-0.47904284302210809 1.5134126296839061 0.32067774505288127 0.1407222098092791 1:1.3153153 2:0.21621622 3:0.48648649 4:0.78378378 5:0.1981982 6:1 8:0.98198198 9:0.79279279 10:0.22522523 11:1 13:0.71171171 14:1.036036 15:0.25225225 16:1 18:0.53153153 19:0.23423423 20:1.2342342 21:0.94594595 22:0.64864865 23:0.31531532 24:0.13513514 25:0.95495495 26:0.36036036 27:0.36036036 28:1.018018 29:0.74774775 30:0.51351351 31:0.42342342 32:0.22522523 33:0.64864865 34:1.3513514 35:0.35135135 36:1.045045 37:0.95495495 38:0.37837838 39:0.36036036 40:0.26126126 41:0.65765766 42:0.34234234 44:0.94594595 45:1.0540541 46:0.94594595 47:0.054054054 48:0.31531532 49:0.33333333 50:1.3513514 51:0.98198198 52:0.14414414 53:0.24324324 54:0.2972973 55:1.3333333 56:0.25225225 57:0.22522523 58:0.52252252 59:0.15315315 60:1.8468468 61:0.98198198 62:0.52252252 63:0.55855856 64:0.5045045 65:0.43243243 66:1.1081081 67:0.47747748 68:0.063063063 69:0.92792793 70:0.42342342 71:1.3333333 72:0.25225225 73:0.14414414 74:0.82882883 75:0.44144144 76:1 77:0.24324324 78:0.58558559 79:0.23423423 80:0.93693694 81:1.2792793 82:0.36036036 83:0.33333333 84:0.4954955 85:0.53153153 86:0.83783784 87:0.63063063 88:0.12612613 89:0.88288288 90:0.52252252 91:1.1171171 92:0.43243243 93:0.45945946 94:0.5045045 95:0.48648649 
-0.058092248449195007 1.2743779655621414 1.1564694631592631 0.84754453954190445 1:1.1666667 2:0.47222222 3:0.58333333 4:0.55555556 5:0.22222222 6:0.96527778 7:0.034722222 8:0.90277778 9:0.875 10:0.22222222 11:1 13:0.22222222 14:1.4652778 15:0.3125 16:1 17:0.013888889 18:0.63888889 19:0.32638889 20:1.0208333 21:0.34027778 22:1.2777778 23:0.32638889 24:0.27083333 25:0.78472222 26:0.23611111 27:0.58333333 28:0.88888889 29:1.0972222 30:0.19444444 31:0.375 32:0.38194444 33:0.78472222 34:1.4444444 35:0.013888889 36:1.3055556 37:0.69444444 38:0.27777778 39:0.40277778 40:0.31944444 41:0.94444444 42:0.055555556 43:0.11111111 44:1.3263889 45:0.5625 46:1 48:0.34027778 49:0.61805556 50:1.0416667 51:1 52:0.069444444 53:0.35416667 54:0.5 55:1.0763889 56:0.63194444 57:0.25694444 58:0.11111111 59:0.875 60:1.125 61:0.25694444 62:0.79166667 63:0.95138889 64:0.55555556 65:0.44444444 66:0.29166667 67:0.63888889 68:0.83333333 69:0.79861111 70:0.4375 71:0.33333333 72:0.61805556 73:1.0138889 74:0.40277778 75:0.63194444 76:1 77:0.23611111 78:0.36111111 79:0.4375 80:0.96527778 81:0.69444444 82:1.0277778 83:0.20138889 84:0.5625 85:0.51388889 86:0.61805556 87:0.54166667 88:0.70833333 89:0.63194444 90:0.5 91:0.71527778 92:0.51388889 93:0.71527778 94:0.59722222 95:0.45833333 
-0.16501420075041426 1.4277218572811441 0.36045804848928031 0.46657961635438283 1:1.3271028 2:0.11214953 3:0.34579439 4:0.96261682 5:0.25233645 6:1 8:0.45794393 9:1.4205607 10:0.12149533 11:1 14:1.8317757 15:0.1682243 16:1 18:0.30841121 19:0.57943925 20:1.1121495 21:1.3084112 22:0.19626168 23:0.37383178 24:0.41121495 25:0.71028037 26:0.24299065 27:1.1028037 28:0.92523364 29:0.62616822 30:0.10280374 31:0.5046729 32:0.79439252 33:0.72897196 34:0.53271028 35:0.43925234 36:0.56074766 37:1.2803738 38:0.59813084 39:0.42990654 40:0.13084112 41:1 42:0.20560748 43:1.2149533 44:0.44859813 45:0.13084112 46:0.55140187 47:0.59813084 48:0.48598131 49:0.89719626 50:0.46728972 51:0.53271028 52:0.60747664 53:0.43925234 54:0.92523364 55:0.4953271 56:0.12149533 57:0.5046729 58:0.37383178 59:0.34579439 60:1.6542056 61:0.30841121 62:0.80373832 63:0.92523364 64:0.41121495 65:0.55140187 66:0.28971963 67:1.317757 68:0.56074766 69:0.27102804 70:0.56074766 71:0.20560748 72:1.3925234 73:0.56074766 74:0.27102804 75:0.57009346 76:1 77:0.13084112 78:0.86915888 80:1 81:0.77570093 82:0.68224299 83:0.54205607 84:0.43925234 85:0.56074766 86:1.1869159 87:0.41121495 88:0.40186916 89:0.44859813 90:0.55140187 91:0.93457944 92:0.58878505 93:0.47663551 94:0.42990654 95:0.57009346 
-0 2 0.56860119397370767 0.5485248528947736 1:1.2096774 2:0.37903226 3:0.14516129 4:1.0483871 5:0.21774194 6:1 8:0.71774194 9:1.0403226 10:0.24193548 11:0.91935484 12:0.080645161 13:0.65322581 14:1.0645161 15:0.28225806 16:0.87903226 17:0.12096774 18:0.26612903 19:0.45967742 20:1.2741935 21:0.7983871 22:0.62096774 23:0.41129032 24:0.62096774 25:0.5483871 26:0.31451613 27:0.85483871 28:1.016129 29:0.62096774 30:0.19354839 31:0.11290323 32:0.83064516 33:0.91935484 34:0.98387097 35:0.15322581 36:0.63709677 37:1.2983871 38:0.7016129 39:0.10483871 40:0.25806452 41:0.21774194 42:0.27419355 43:0.59677419 44:1.4032258 45:0.50806452 46:0.24193548 47:0.70967742 48:0.38709677 49:0.56451613 50:1.0967742 51:0.28225806 52:0.76612903 53:0.49193548 54:0.51612903 55:0.94354839 56:0.20967742 57:0.096774194 58:0.58064516 59:0.73387097 60:1.3790323 61:0.36290323 62:1.2177419 63:0.53225806 64:0.38709677 65:0.5 66:0.38709677 67:1.233871 68:0.44354839 69:0.43548387 70:0.5 71:0.71774194 72:0.89516129 73:0.33064516 74:0.54032258 75:0.51612903 76:0.87903226 77:0.37903226 78:0.74193548 80:1 81:0.72580645 82:0.75 83:0.50806452 84:0.5 85:0.51612903 86:0.85483871 87:0.7016129 88:0.15322581 89:0.75806452 90:0.53225806 91:0.83870968 92:0.72580645 93:0.088709677 94:0.81451613 95:0.53225806 
-0.54300525460298155 1.6135542710504873 0 0.06314048948951935 1:1.3402062 2:0.22680412 3:0.092783505 4:1.1546392 5:0.18556701 6:0.91752577 7:0.082474227 8:0.53608247 9:1.2474227 10:0.21649485 11:1 14:1.7525773 15:0.24742268 16:0.96907216 17:0.030927835 18:0.58762887 19:0.2371134 20:1.1752577 21:0.98969072 22:0.80412371 23:0.16494845 24:0.041237113 25:1 26:0.18556701 27:0.18556701 28:0.71134021 29:0.83505155 30:1.0824742 31:0.16494845 32:0.10309278 33:0.5257732 34:1.0515464 35:1.1546392 36:0.92783505 37:1.0721649 38:0.63917526 39:0.18556701 40:0.17525773 41:1 44:1.1443299 45:0.8556701 46:0.72164948 47:0.020618557 48:0.89690722 49:0.58762887 50:0.77319588 51:0.68041237 52:0.06185567 53:0.84536082 54:0.3814433 55:1.0309278 56:0.22680412 57:0.1443299 58:0.62886598 59:0.42268041 60:1.5773196 61:0.43298969 62:1.4845361 63:0.18556701 64:0.40206186 65:0.49484536 66:0.42268041 67:1.2061856 68:0.81443299 69:0.051546392 70:0.50515464 71:1.4020619 72:0.21649485 73:0.82474227 74:0.06185567 75:0.49484536 76:1.0721649 77:0.19587629 78:0.73195876 80:1 81:1.2474227 82:0.22680412 83:0.55670103 84:0.46391753 85:0.50515464 86:1.371134 87:0.21649485 88:0.67010309 89:0.21649485 90:0.5257732 91:1.2371134 92:0.34020619 93:0.17525773 94:0.72164948 95:0.5257732 
-0.85015875935347385 1.4200317227518253 0.50711323062073954 0.81668495891291293 1:0.68055556 2:0.97222222 3:0.20833333 4:0.72222222 5:0.29861111 6:0.11805556 7:0.99305556 8:0.0069444444 10:1.2083333 11:0.68055556 12:0.11111111 13:1 16:0.59722222 17:1.125 18:0.27777778 19:0.89583333 20:0.15972222 21:0.77777778 22:0.16666667 23:0.20833333 24:0.79166667 25:0.19444444 26:1.4236111 27:0.27777778 28:0.10416667 29:0.17361111 30:0.82638889 31:0.076388889 32:0.1875 33:0.64583333 34:0.49305556 35:0.92361111 36:0.67361111 37:0.076388889 38:0.3125 39:0.52777778 40:0.43055556 41:1.3680556 42:0.28472222 43:1 44:0.8125 45:0.47916667 46:0.29861111 47:0.29166667 48:0.11805556 49:0.90277778 50:0.15277778 51:0.94444444 52:0.56944444 53:0.13888889 54:0.29166667 55:0.73611111 56:0.17361111 57:0.090277778 58:0.52777778 59:1.1458333 60:0.32638889 61:0.73611111 62:0.15277778 63:0.11111111 64:0.48611111 65:0.60416667 66:0.90972222 67:0.076388889 68:0.29861111 69:0.625 71:0.90277778 72:1.0972222 73:0.75 74:0.82638889 75:0.38194444 76:0.22916667 77:0.11111111 78:0.70138889 79:1.3958333 80:0.27777778 81:0.21527778 82:0.3125 83:0.0625 84:0.73611111 85:0.90972222 86:0.77083333 87:0.22222222 88:0.34027778 89:0.027777778 90:0.72916667 91:0.47916667 92:0.52083333 94:0.083333333 95:0.79166667 96:1.125 97:0.80555556 98:0.86111111 99:0.21527778 100:0.090277778 101:0.33333333 102:0.69444444 103:0.86111111 104:0.94444444 105:0.027777778 106:0.125 107:0.32638889 108:0.71527778 109:0.875 110:0.84722222 111:0.10416667 112:0.21527778 113:0.24305556 114:0.71527778 
