svm_type c_svc
kernel_type rbf
gamma 1
nr_class 5
total_sv 60
rho -0.31367772780321285 -0.26535488275929386 -0.35643768457308678 -0.2161613878898597 0.10327292712880358 -0.061429080974855825 -0.020121485713018299 -0.11830896431121586 -0.022477862078716646 0.07024362396753614
label 10 15 16 12 13
nr_sv 12 12 12 12 12
SV
0.99747681086260809 1 1 0.94000489697032308 1:0.36 2:0.26 3:0.28 4:0.02 5:0.08 6:0.74 7:0.12 9:0.04 10:0.1 11:0.2 12:0.14 13:0.04 14:0.46 15:0.16 16:0.06 17:0.06 18:0.54 19:0.14 20:0.2 21:0.08 22:0.22 23:0.34 24:0.14 25:0.22 26:0.62 27:0.1 28:0.1 29:0.14 30:0.04 31:0.56 32:0.04 33:0.06 34:0.04 35:0.3 36:0.58 37:0.08 38:0.02 39:0.14 40:0.18 41:0.12 42:0.08 43:0.12 44:0.14 45:0.54 46:0.4 47:0.2 48:0.3 49:0.08 50:0.02 
1 1 0.85450547678507038 0.75969278786016781 1:0.016129032 2:0.016129032 3:0.064516129 4:0.36290323 5:0.54032258 6:0.12096774 7:0.35483871 8:0.15322581 9:0.27419355 10:0.096774194 11:0.22580645 12:0.29032258 13:0.37096774 14:0.064516129 15:0.048387097 16:0.20967742 17:0.17741935 18:0.16935484 19:0.27419355 20:0.16935484 21:0.20967742 22:0.18548387 23:0.39516129 24:0.064516129 25:0.14516129 26:0.43548387 27:0.032258065 28:0.16129032 29:0.32258065 30:0.048387097 31:0.23387097 32:0.40322581 33:0.15322581 34:0.040322581 35:0.16935484 36:0.056451613 37:0.12903226 38:0.54032258 39:0.088709677 40:0.18548387 41:0.44354839 42:0.19354839 43:0.10483871 44:0.13709677 45:0.12096774 46:0.10483871 47:0.088709677 48:0.16935484 49:0.29032258 50:0.34677419 
0.99357707105994575 1 1 1 1:0.24 2:0.4 3:0.13 4:0.05 5:0.18 6:0.43 7:0.24 8:0.15 9:0.11 10:0.07 11:0.53 12:0.13 13:0.19 14:0.09 15:0.06 16:0.16 17:0.44 18:0.17 19:0.04 20:0.19 21:0.04 22:0.04 23:0.44 24:0.29 25:0.19 26:0.1 27:0.04 28:0.11 29:0.24 30:0.51 31:0.11 32:0.26 33:0.08 34:0.03 35:0.52 36:0.35 37:0.04 38:0.03 39:0.04 40:0.54 41:0.07 42:0.02 43:0.04 44:0.21 45:0.66 46:0.59 47:0.12 48:0.05 49:0.09 50:0.15 
0.87781716328797954 1 1 0.70195935213714344 1:0.12903226 2:0.088709677 3:0.41129032 4:0.13709677 5:0.23387097 6:0.15322581 7:0.25 8:0.2983871 9:0.14516129 10:0.15322581 11:0.53225806 12:0.37096774 13:0.048387097 14:0.032258065 15:0.016129032 16:0.15322581 17:0.26612903 18:0.30645161 19:0.12903226 20:0.14516129 21:0.096774194 22:0.096774194 23:0.064516129 24:0.58064516 25:0.16129032 26:0.096774194 27:0.21774194 28:0.29032258 29:0.21774194 30:0.17741935 31:0.36290323 32:0.064516129 33:0.12903226 34:0.096774194 35:0.34677419 36:0.41935484 37:0.12096774 38:0.080645161 39:0.032258065 40:0.34677419 41:0.040322581 42:0.064516129 43:0.22580645 44:0.30645161 45:0.36290323 46:0.21774194 47:0.15322581 48:0.15322581 49:0.30645161 50:0.16935484 
0.64574278768626703 0.6452352416832845 0.62938160689704958 0.54160767324768788 1:0.058823529 2:0.058823529 3:0.092436975 4:0.31092437 5:0.4789916 6:0.033613445 7:0.025210084 8:0.033613445 9:0.57142857 10:0.33613445 11:0.86554622 12:0.050420168 13:0.016806723 14:0.025210084 15:0.042016807 16:0.75630252 17:0.016806723 18:0.016806723 19:0.025210084 20:0.18487395 21:0.47058824 22:0.32773109 23:0.016806723 24:0.042016807 25:0.14285714 26:0.71428571 27:0.18487395 28:0.0084033613 29:0.042016807 30:0.050420168 31:0.067226891 32:0.21008403 33:0.27731092 34:0.31932773 35:0.12605042 36:0.058823529 37:0.1092437 38:0.13445378 39:0.26890756 40:0.42857143 41:0.47058824 42:0.075630252 43:0.050420168 44:0.21848739 45:0.18487395 46:0.19327731 47:0.016806723 48:0.40336134 49:0.14285714 50:0.24369748 
0.61134710357514299 0.78495395297284976 0.52941099916951873 0.5965222644728343 1:0.053571429 2:0.10714286 3:0.089285714 4:0.57142857 5:0.17857143 6:0.55357143 7:0.30357143 8:0.089285714 9:0.017857143 10:0.035714286 11:0.76785714 12:0.089285714 13:0.053571429 14:0.035714286 15:0.053571429 16:0.053571429 17:0.089285714 18:0.035714286 19:0.375 20:0.44642857 21:0.35714286 22:0.23214286 23:0.089285714 24:0.10714286 25:0.21428571 26:0.94642857 30:0.053571429 31:0.89285714 32:0.053571429 35:0.053571429 36:0.46428571 37:0.375 38:0.035714286 39:0.035714286 40:0.089285714 41:0.14285714 42:0.33928571 43:0.28571429 44:0.14285714 45:0.089285714 46:0.25 47:0.39285714 48:0.23214286 49:0.035714286 50:0.089285714 
0.8136436297294779 0.87090575935257142 0.94664485163895029 0.70855611257295192 1:0.20661157 2:0.56198347 3:0.11570248 4:0.041322314 5:0.074380165 6:0.041322314 7:0.082644628 8:0.46280992 9:0.21487603 10:0.19834711 11:0.54545455 12:0.21487603 13:0.17355372 14:0.016528926 15:0.049586777 16:0.60330579 17:0.082644628 18:0.090909091 19:0.099173554 20:0.12396694 21:0.082644628 22:0.05785124 23:0.53719008 24:0.20661157 25:0.11570248 26:0.30578512 27:0.016528926 28:0.082644628 29:0.14876033 30:0.44628099 31:0.12396694 32:0.024793388 33:0.12396694 34:0.24793388 35:0.47933884 36:0.24793388 37:0.14049587 38:0.049586777 39:0.066115702 40:0.49586777 41:0.049586777 42:0.049586777 43:0.20661157 44:0.43801653 45:0.25619835 46:0.12396694 47:0.31404959 48:0.38842975 49:0.14049587 50:0.033057851 
0.97580961401612609 1 0.77147757011285678 0.58431187311546628 1:0.44347826 2:0.07826087 3:0.026086957 4:0.12173913 5:0.33043478 6:0.40869565 7:0.15652174 8:0.33913043 9:0.07826087 10:0.017391304 11:0.15652174 12:0.57391304 13:0.11304348 14:0.095652174 15:0.060869565 16:0.086956522 17:0.4173913 18:0.29565217 19:0.1826087 20:0.017391304 21:0.22608696 22:0.060869565 23:0.052173913 24:0.34782609 25:0.31304348 26:0.36521739 27:0.26086957 28:0.26956522 29:0.060869565 30:0.043478261 31:0.40869565 32:0.23478261 33:0.13913043 34:0.16521739 35:0.052173913 36:0.12173913 37:0.20869565 38:0.043478261 39:0.069565217 40:0.55652174 41:0.10434783 42:0.16521739 43:0.35652174 44:0.28695652 45:0.086956522 46:0.017391304 47:0.17391304 48:0.17391304 49:0.2 50:0.43478261 
0.86401320031928996 0.8276202965884194 0.80716381794251901 0.78318663778284814 1:0.010638298 3:0.60638298 4:0.32978723 5:0.053191489 6:0.37234043 7:0.063829787 8:0.074468085 9:0.010638298 10:0.4787234 11:0.58510638 12:0.17021277 13:0.10638298 14:0.074468085 15:0.063829787 16:0.042553191 17:0.074468085 18:0.15957447 19:0.25531915 20:0.46808511 21:0.063829787 22:0.39361702 23:0.13829787 24:0.20212766 25:0.20212766 26:0.23404255 27:0.17021277 28:0.010638298 29:0.5 30:0.085106383 31:0.29787234 32:0.17021277 33:0.29787234 34:0.22340426 35:0.010638298 36:0.38297872 37:0.053191489 38:0.021276596 39:0.10638298 40:0.43617021 41:0.32978723 42:0.32978723 43:0.25531915 44:0.021276596 45:0.063829787 46:0.82978723 47:0.074468085 48:0.031914894 49:0.010638298 50:0.053191489 
0.51976778399084855 0.69906790505574279 0.63877071195051061 0.41275421243757121 1:0.13043478 2:0.026086957 3:0.034782609 4:0.28695652 5:0.52173913 6:0.26956522 7:0.4 8:0.17391304 9:0.026086957 10:0.13043478 11:0.6 12:0.27826087 13:0.052173913 14:0.043478261 15:0.026086957 16:0.51304348 17:0.30434783 18:0.034782609 19:0.026086957 20:0.12173913 21:0.32173913 22:0.28695652 23:0.2 24:0.095652174 25:0.095652174 26:0.34782609 27:0.17391304 28:0.095652174 29:0.2173913 30:0.16521739 31:0.3826087 32:0.034782609 33:0.026086957 34:0.026086957 35:0.53043478 36:0.29565217 37:0.095652174 38:0.026086957 39:0.026086957 40:0.55652174 41:0.23478261 42:0.32173913 43:0.34782609 44:0.043478261 45:0.052173913 46:0.48695652 47:0.20869565 48:0.069565217 49:0.060869565 50:0.17391304 
0.15659792796684155 0.24123139872262245 0.38751860335997729 0.24756322214671123 1:0.057692308 2:0.019230769 3:0.028846154 4:0.038461538 5:0.85576923 6:0.20192308 7:0.076923077 8:0.24038462 9:0.32692308 10:0.15384615 11:0.71153846 12:0.057692308 13:0.16346154 14:0.019230769 15:0.048076923 16:0.625 17:0.23076923 18:0.019230769 19:0.038461538 20:0.086538462 21:0.39423077 22:0.39423077 23:0.086538462 24:0.11538462 25:0.0096153846 26:0.20192308 27:0.25 28:0.15384615 29:0.25 30:0.14423077 31:0.24038462 32:0.086538462 33:0.028846154 34:0.20192308 35:0.44230769 36:0.26923077 37:0.038461538 38:0.038461538 39:0.038461538 40:0.61538462 41:0.30769231 42:0.18269231 43:0.15384615 44:0.17307692 45:0.18269231 46:0.10576923 47:0.18269231 48:0.096153846 49:0.23076923 50:0.38461538 
0.50499104084930457 0.81490148262740814 0.80246557061203849 0.61133132053757067 1:0.29113924 2:0.12658228 3:0.29746835 4:0.25316456 5:0.03164557 6:0.24050633 7:0.49367089 8:0.044303797 9:0.056962025 10:0.16455696 11:0.90506329 12:0.03164557 13:0.012658228 14:0.012658228 15:0.037974684 16:0.16455696 17:0.12025316 18:0.25949367 19:0.24050633 20:0.21518987 21:0.17721519 22:0.41139241 23:0.10126582 24:0.20886076 25:0.10126582 26:0.75316456 27:0.082278481 28:0.0063291139 29:0.0063291139 30:0.15189873 31:0.056962025 32:0.069620253 33:0.21518987 34:0.49367089 35:0.16455696 36:0.10759494 37:0.044303797 38:0.03164557 39:0.063291139 40:0.75316456 41:0.16455696 42:0.43670886 43:0.3164557 44:0.037974684 45:0.044303797 46:0.12025316 47:0.31012658 48:0.2278481 49:0.24050633 50:0.10126582 
-0.83800326435799533 0.9415031696427818 0.53644992469111719 1 1:0.027777778 2:0.034722222 3:0.25694444 4:0.54861111 5:0.13194444 6:0.069444444 7:0.34027778 8:0.47222222 9:0.0625 10:0.055555556 11:0.0625 12:0.034722222 13:0.38888889 14:0.41666667 15:0.097222222 16:0.069444444 17:0.027777778 18:0.020833333 19:0.28472222 20:0.59722222 21:0.055555556 22:0.041666667 23:0.45138889 24:0.40972222 25:0.041666667 26:0.71527778 27:0.14583333 28:0.020833333 29:0.034722222 30:0.083333333 31:0.47916667 32:0.1875 33:0.090277778 34:0.14583333 35:0.097222222 36:0.034722222 37:0.20138889 38:0.54861111 39:0.14583333 40:0.069444444 41:0.027777778 42:0.10416667 43:0.11111111 44:0.55555556 45:0.20138889 46:0.70833333 47:0.076388889 48:0.14583333 49:0.034722222 50:0.034722222 
-0.57231870878292679 1 1 0.93000042605931099 1:0.073394495 2:0.11926606 3:0.28440367 4:0.43119266 5:0.091743119 6:0.04587156 7:0.33027523 8:0.27522936 9:0.18348624 10:0.16513761 11:0.28440367 12:0.18348624 13:0.22018349 14:0.26605505 15:0.04587156 16:0.40366972 17:0.091743119 18:0.064220183 19:0.13761468 20:0.30275229 21:0.11926606 22:0.34862385 23:0.091743119 24:0.04587156 25:0.39449541 26:0.46788991 27:0.30275229 28:0.11009174 29:0.027522936 30:0.091743119 31:0.055045872 32:0.027522936 33:0.055045872 34:0.48623853 35:0.37614679 36:0.064220183 37:0.055045872 38:0.082568807 39:0.3853211 40:0.41284404 41:0.064220183 42:0.21100917 43:0.20183486 44:0.11009174 45:0.41284404 46:0.47706422 47:0.036697248 48:0.27522936 49:0.10091743 50:0.11009174 
-0.65433772873606322 1 0.81842897010171145 0.72945551710154666 1:0.10185185 2:0.046296296 3:0.2962963 4:0.21296296 5:0.34259259 6:0.24074074 7:0.27777778 8:0.14814815 9:0.25925926 10:0.074074074 11:0.13888889 12:0.38888889 13:0.11111111 14:0.12037037 15:0.24074074 16:0.074074074 17:0.37962963 18:0.092592593 19:0.083333333 20:0.37037037 21:0.23148148 22:0.23148148 23:0.064814815 24:0.064814815 25:0.40740741 26:0.37962963 27:0.16666667 28:0.027777778 29:0.037037037 30:0.38888889 31:0.074074074 32:0.25 33:0.037037037 34:0.046296296 35:0.59259259 36:0.0092592593 37:0.018518519 38:0.074074074 39:0.37037037 40:0.52777778 41:0.064814815 42:0.027777778 43:0.2962963 44:0.14814815 45:0.46296296 46:0.44444444 47:0.11111111 48:0.39814815 49:0.018518519 50:0.027777778 
-0.071981277105805819 1 0.097185873739578932 0.49512543608566673 1:0.21768707 2:0.42176871 3:0.14965986 4:0.11564626 5:0.095238095 6:0.1292517 7:0.27210884 8:0.2244898 9:0.14965986 10:0.2244898 11:0.013605442 12:0.55102041 13:0.19727891 14:0.19047619 15:0.047619048 16:0.06122449 17:0.2244898 18:0.0068027211 19:0.054421769 20:0.65306122 21:0.034013605 22:0.24489796 23:0.047619048 24:0.23129252 25:0.44217687 26:0.46938776 27:0.16326531 28:0.074829932 29:0.19047619 30:0.10204082 31:0.27891156 32:0.40136054 33:0.047619048 34:0.074829932 35:0.19727891 36:0.027210884 37:0.074829932 38:0.23129252 39:0.57142857 40:0.095238095 41:0.040816327 42:0.034013605 43:0.2244898 44:0.06122449 45:0.63945578 46:0.67346939 47:0.047619048 48:0.027210884 49:0.18367347 50:0.068027211 
-1 1 1 1 1:0.10576923 2:0.21153846 3:0.24038462 4:0.23076923 5:0.21153846 6:0.125 7:0.076923077 8:0.47115385 9:0.23076923 10:0.096153846 11:0.19230769 12:0.59615385 13:0.086538462 14:0.048076923 15:0.076923077 16:0.14423077 17:0.42307692 18:0.21153846 19:0.096153846 20:0.125 21:0.086538462 22:0.31730769 23:0.17307692 24:0.21153846 25:0.21153846 26:0.38461538 27:0.43269231 28:0.057692308 29:0.048076923 30:0.076923077 31:0.35576923 32:0.10576923 33:0.24038462 34:0.10576923 35:0.19230769 36:0.27884615 37:0.18269231 38:0.29807692 39:0.18269231 40:0.057692308 41:0.048076923 42:0.11538462 43:0.375 44:0.23076923 45:0.23076923 46:0.55769231 47:0.24038462 48:0.057692308 49:0.038461538 50:0.10576923 
-0.83432867335337724 1 0.68473592966784547 0.9664555044375831 1:0.20994475 2:0.22651934 3:0.049723757 4:0.31491713 5:0.19889503 6:0.33701657 7:0.30939227 8:0.13259669 9:0.071823204 10:0.14917127 11:0.30939227 12:0.44198895 13:0.16574586 14:0.049723757 15:0.033149171 16:0.08839779 17:0.027624309 18:0.099447514 19:0.35359116 20:0.43093923 21:0.033149171 22:0.08839779 23:0.20994475 24:0.26519337 25:0.40331492 26:0.25414365 27:0.093922652 28:0.31491713 29:0.093922652 30:0.24309392 31:0.29834254 32:0.34254144 33:0.17679558 34:0.10497238 35:0.077348066 36:0.28176796 37:0.14917127 38:0.071823204 39:0.37016575 40:0.12707182 41:0.011049724 42:0.049723757 43:0.1160221 44:0.55801105 45:0.26519337 46:0.5801105 47:0.14917127 48:0.08839779 49:0.12707182 50:0.055248619 
-0.91315444744476848 1 1 0.81932918658108189 1:0.077464789 2:0.48591549 3:0.098591549 4:0.070422535 5:0.26760563 6:0.30985915 7:0.21126761 8:0.098591549 9:0.0070422535 10:0.37323944 11:0.23239437 12:0.42957746 13:0.26760563 14:0.028169014 15:0.042253521 16:0.13380282 17:0.46478873 18:0.084507042 19:0.084507042 20:0.23239437 21:0.056338028 22:0.16901408 23:0.43661972 24:0.098591549 25:0.23943662 26:0.4084507 27:0.1971831 28:0.14788732 29:0.14084507 30:0.1056338 31:0.091549296 32:0.13380282 33:0.14084507 34:0.28873239 35:0.34507042 36:0.056338028 37:0.014084507 38:0.070422535 39:0.44366197 40:0.41549296 41:0.035211268 42:0.021126761 43:0.20422535 44:0.35915493 45:0.38028169 46:0.36619718 47:0.19014085 48:0.15492958 49:0.16901408 50:0.11971831 
-0.80101066644526064 0.82813140112871786 0.60253627526912001 0.53879409365100839 1:0.12612613 2:0.30630631 3:0.31531532 4:0.18918919 5:0.063063063 6:0.054054054 7:0.027027027 8:0.13513514 9:0.54954955 10:0.23423423 11:0.11711712 12:0.27027027 13:0.26126126 14:0.23423423 15:0.11711712 16:0.09009009 17:0.018018018 18:0.027027027 19:0.1981982 20:0.66666667 21:0.09009009 22:0.099099099 23:0.34234234 24:0.16216216 25:0.30630631 26:0.20720721 27:0.16216216 28:0.063063063 29:0.38738739 30:0.18018018 31:0.24324324 32:0.26126126 33:0.081081081 34:0.11711712 35:0.2972973 36:0.13513514 37:0.054054054 38:0.1981982 39:0.24324324 40:0.36936937 41:0.027027027 42:0.072072072 43:0.09009009 44:0.16216216 45:0.64864865 46:0.36036036 47:0.045045045 48:0.30630631 49:0.22522523 50:0.063063063 
-0.85971366994460174 1 0.75843755011532488 1 1:0.034722222 2:0.11805556 3:0.49305556 4:0.25694444 5:0.097222222 6:0.47222222 7:0.36805556 8:0.14583333 9:0.0069444444 10:0.0069444444 11:0.069444444 12:0.17361111 13:0.25 14:0.20138889 15:0.30555556 16:0.020833333 17:0.013888889 18:0.11805556 19:0.25694444 20:0.59027778 21:0.069444444 22:0.027777778 23:0.048611111 24:0.64583333 25:0.20833333 26:0.6875 27:0.22916667 28:0.027777778 29:0.041666667 30:0.013888889 31:0.041666667 32:0.375 33:0.36111111 34:0.20833333 35:0.013888889 36:0.041666667 37:0.13194444 38:0.1875 39:0.28472222 40:0.35416667 41:0.034722222 42:0.041666667 43:0.11111111 44:0.3125 45:0.5 46:0.39583333 47:0.048611111 48:0.10416667 49:0.20138889 50:0.25 
-1 1 1 1 1:0.17757009 2:0.37383178 3:0.028037383 4:0.17757009 5:0.24299065 6:0.18691589 7:0.58878505 8:0.10280374 9:0.074766355 10:0.046728972 11:0.08411215 12:0.3364486 13:0.14953271 14:0.40186916 15:0.028037383 16:0.27102804 17:0.1682243 18:0.39252336 19:0.046728972 20:0.12149533 21:0.42990654 22:0.17757009 23:0.27102804 24:0.046728972 25:0.074766355 26:0.51401869 27:0.028037383 28:0.35514019 29:0.028037383 30:0.074766355 31:0.42056075 32:0.093457944 33:0.0093457944 34:0.018691589 35:0.45794393 36:0.11214953 37:0.26168224 38:0.21495327 39:0.065420561 40:0.34579439 41:0.38317757 42:0.037383178 43:0.018691589 44:0.14953271 45:0.41121495 46:0.52336449 47:0.037383178 48:0.29906542 49:0.065420561 50:0.074766355 
-0.88218350814971047 1 0.782276849233706 0.75609714649578086 1:0.44354839 2:0.024193548 3:0.0080645161 4:0.080645161 5:0.44354839 6:0.032258065 8:0.56451613 9:0.25806452 10:0.14516129 11:0.31451613 12:0.33870968 13:0.2016129 14:0.096774194 15:0.048387097 16:0.088709677 17:0.34677419 18:0.19354839 19:0.25806452 20:0.11290323 21:0.024193548 22:0.080645161 23:0.38709677 24:0.33870968 25:0.16935484 26:0.5483871 27:0.16129032 28:0.20967742 29:0.072580645 30:0.0080645161 31:0.056451613 32:0.14516129 33:0.57258065 34:0.032258065 35:0.19354839 36:0.040322581 37:0.064516129 38:0.12096774 39:0.57258065 40:0.2016129 41:0.032258065 42:0.32258065 43:0.11290323 44:0.28225806 45:0.25 46:0.4516129 47:0.088709677 48:0.29032258 49:0.064516129 50:0.10483871 
-0.53375218902332211 0.81696837952625068 0.50362337189655459 0.17635138177442003 1:0.092783505 2:0.06185567 3:0.12371134 4:0.36082474 5:0.36082474 6:0.020618557 7:0.11340206 8:0.26804124 9:0.21649485 10:0.3814433 11:0.25773196 12:0.010309278 13:0.12371134 14:0.3814433 15:0.22680412 16:0.11340206 17:0.36082474 18:0.072164948 19:0.041237113 20:0.41237113 21:0.11340206 22:0.36082474 23:0.06185567 24:0.051546392 25:0.41237113 26:0.31958763 27:0.27835052 28:0.32989691 29:0.06185567 30:0.010309278 31:0.12371134 32:0.11340206 33:0.34020619 34:0.10309278 35:0.31958763 36:0.15463918 37:0.16494845 38:0.051546392 39:0.34020619 40:0.28865979 41:0.051546392 42:0.39175258 43:0.020618557 44:0.10309278 45:0.43298969 46:0.46391753 47:0.072164948 48:0.34020619 49:0.06185567 50:0.06185567 
-1 -0.96550750330031809 1 0.87244759026903385 1:0.012903226 2:0.34193548 3:0.20645161 4:0.15483871 5:0.28387097 6:0.7483871 7:0.12903226 8:0.04516129 9:0.038709677 10:0.038709677 11:0.64516129 12:0.21290323 13:0.025806452 14:0.051612903 15:0.064516129 16:0.23870968 17:0.28387097 18:0.14193548 19:0.090322581 20:0.24516129 21:0.12903226 22:0.27096774 23:0.18709677 24:0.38064516 25:0.032258065 26:0.46451613 27:0.38064516 28:0.058064516 29:0.032258065 30:0.064516129 31:0.48387097 32:0.04516129 33:0.051612903 34:0.30322581 35:0.11612903 36:0.10967742 37:0.27096774 38:0.12903226 39:0.064516129 40:0.42580645 41:0.12903226 42:0.096774194 43:0.17419355 44:0.58709677 45:0.012903226 46:0.32258065 47:0.25806452 48:0.27741935 49:0.096774194 50:0.04516129 
-0.73512960429299368 -1 0.37958258906374132 0.7385524497403726 1:0.32960894 2:0.089385475 3:0.05027933 4:0.027932961 5:0.5027933 6:0.11731844 7:0.54189944 8:0.22905028 9:0.067039106 10:0.044692737 11:0.17877095 12:0.72067039 13:0.022346369 14:0.011173184 15:0.067039106 16:0.05027933 17:0.089385475 18:0.067039106 19:0.51396648 20:0.27932961 21:0.05027933 22:0.061452514 23:0.1396648 24:0.37988827 25:0.36871508 26:0.82681564 27:0.072625698 28:0.044692737 29:0.027932961 30:0.027932961 31:0.078212291 32:0.46927374 33:0.23463687 34:0.20111732 35:0.016759777 36:0.067039106 37:0.0055865922 38:0.011173184 39:0.57541899 40:0.34078212 41:0.19553073 42:0.12849162 43:0.26256983 44:0.19553073 45:0.21787709 46:0.52513966 47:0.055865922 48:0.10614525 49:0.21787709 50:0.094972067 
-0.64147516922851433 -1 0.5427037329315495 0.78426655485049468 1:0.28057554 2:0.15827338 3:0.079136691 4:0.10071942 5:0.38129496 6:0.12230216 7:0.26618705 8:0.23021583 9:0.32374101 10:0.057553957 11:0.17985612 12:0.15827338 13:0.13669065 14:0.48201439 15:0.043165468 16:0.079136691 17:0.20863309 18:0.20863309 19:0.39568345 20:0.10791367 21:0.086330935 22:0.35251799 23:0.09352518 24:0.38129496 25:0.086330935 26:0.6618705 27:0.24460432 28:0.043165468 29:0.035971223 30:0.014388489 31:0.17266187 32:0.53956835 33:0.10791367 34:0.15107914 35:0.028776978 36:0.086330935 37:0.050359712 38:0.18705036 39:0.38129496 40:0.29496403 41:0.21582734 42:0.20863309 43:0.14388489 44:0.09352518 45:0.3381295 46:0.42446043 47:0.071942446 48:0.14388489 49:0.079136691 50:0.28057554 
-1 -0.96847969303397141 0.91659345095298628 1 1:0.30434783 2:0.29565217 3:0.15652174 4:0.043478261 5:0.2 6:0.069565217 7:0.19130435 8:0.52173913 9:0.13913043 10:0.07826087 11:0.14782609 12:0.034782609 13:0.25217391 14:0.37391304 15:0.19130435 16:0.043478261 17:0.14782609 18:0.12173913 19:0.63478261 20:0.052173913 21:0.14782609 22:0.13913043 23:0.052173913 24:0.35652174 25:0.30434783 26:0.32173913 27:0.23478261 28:0.07826087 29:0.13913043 30:0.22608696 31:0.64347826 32:0.15652174 33:0.060869565 34:0.069565217 35:0.069565217 36:0.13043478 37:0.32173913 38:0.26086957 39:0.052173913 40:0.23478261 41:0.0086956522 42:0.086956522 43:0.10434783 44:0.13043478 45:0.66956522 46:0.23478261 47:0.16521739 48:0.22608696 49:0.13043478 50:0.24347826 
-0.97574392130026955 -0.9119140543131532 1 1 1:0.093567251 2:0.35087719 3:0.13450292 4:0.12865497 5:0.29239766 6:0.50877193 7:0.40350877 8:0.040935673 9:0.023391813 10:0.023391813 11:0.41520468 12:0.28070175 13:0.081871345 14:0.040935673 15:0.18128655 16:0.046783626 17:0.13450292 18:0.41520468 19:0.35087719 20:0.052631579 21:0.081871345 22:0.23391813 23:0.41520468 24:0.23976608 25:0.029239766 26:0.25730994 27:0.29824561 28:0.15789474 29:0.14619883 30:0.14035088 31:0.21052632 32:0.081871345 33:0.14035088 34:0.13450292 35:0.43274854 36:0.081871345 37:0.070175439 38:0.087719298 39:0.2748538 40:0.48538012 41:0.0058479532 43:0.081871345 44:0.49122807 45:0.42105263 46:0.7251462 47:0.14619883 48:0.023391813 49:0.023391813 50:0.081871345 
-0.64119493118396964 -1 1 1 1:0.10077519 2:0.25581395 3:0.31782946 4:0.17054264 5:0.15503876 6:0.26356589 7:0.27906977 8:0.21705426 9:0.15503876 10:0.085271318 11:0.56589147 12:0.29457364 13:0.069767442 14:0.023255814 15:0.046511628 16:0.27906977 17:0.10852713 18:0.015503876 19:0.29457364 20:0.30232558 21:0.31007752 22:0.085271318 23:0.007751938 24:0.31782946 25:0.27906977 26:0.55813953 27:0.023255814 28:0.13953488 29:0.13953488 30:0.13953488 31:0.13178295 32:0.37984496 33:0.03875969 34:0.031007752 35:0.41860465 36:0.093023256 37:0.085271318 38:0.10852713 39:0.50387597 40:0.20930233 41:0.11627907 42:0.11627907 43:0.11627907 44:0.031007752 45:0.62015504 46:0.56589147 47:0.046511628 48:0.085271318 49:0.17829457 50:0.12403101 
-1 -1 0.94402836709872129 1 1:0.24571429 2:0.18857143 3:0.034285714 4:0.35428571 5:0.17714286 6:0.091428571 7:0.15428571 8:0.37142857 9:0.30285714 10:0.08 11:0.22285714 12:0.48571429 13:0.17714286 14:0.074285714 15:0.04 16:0.022857143 17:0.051428571 18:0.30285714 19:0.54857143 20:0.074285714 21:0.011428571 22:0.45142857 23:0.41142857 24:0.10285714 25:0.022857143 26:0.45142857 27:0.074285714 28:0.011428571 30:0.46285714 31:0.17142857 32:0.16 33:0.14285714 34:0.085714286 35:0.44 36:0.42285714 37:0.028571429 38:0.13714286 39:0.16 40:0.25142857 41:0.045714286 42:0.14285714 43:0.38285714 44:0.28 45:0.14857143 46:0.77142857 47:0.08 48:0.034285714 49:0.04 50:0.074285714 
-1 -0.74070169965030763 0.4449475446769196 0.38782324596371454 1:0.54166667 2:0.052083333 3:0.041666667 4:0.083333333 5:0.28125 6:0.125 7:0.32291667 8:0.38541667 9:0.10416667 10:0.0625 11:0.36458333 12:0.23958333 13:0.0625 14:0.09375 15:0.23958333 16:0.052083333 17:0.03125 18:0.42708333 19:0.17708333 20:0.3125 21:0.0625 22:0.020833333 23:0.30208333 24:0.21875 25:0.39583333 26:0.30208333 27:0.03125 28:0.03125 29:0.55208333 30:0.083333333 31:0.26041667 32:0.020833333 33:0.03125 34:0.03125 35:0.65625 36:0.33333333 37:0.010416667 38:0.22916667 39:0.34375 40:0.083333333 41:0.052083333 42:0.29166667 43:0.39583333 44:0.16666667 45:0.09375 46:0.27083333 47:0.0625 48:0.083333333 49:0.15625 50:0.42708333 
-0.51993496262818095 -1 0.67724023889722751 0.80885211217087538 1:0.18243243 2:0.17567568 3:0.27027027 4:0.32432432 5:0.047297297 6:0.22972973 7:0.19594595 8:0.013513514 9:0.25675676 10:0.30405405 11:0.13513514 12:0.37837838 13:0.02027027 14:0.12162162 15:0.34459459 16:0.29054054 17:0.12837838 18:0.067567568 19:0.29054054 20:0.22297297 21:0.16891892 22:0.23648649 23:0.027027027 24:0.34459459 25:0.22297297 26:0.37162162 27:0.14189189 28:0.02027027 29:0.31081081 30:0.15540541 31:0.040540541 32:0.13513514 33:0.28378378 34:0.067567568 35:0.47297297 36:0.013513514 37:0.033783784 38:0.29054054 39:0.60135135 40:0.060810811 41:0.067567568 42:0.074324324 43:0.28378378 44:0.11486486 45:0.45945946 46:0.4527027 47:0.047297297 48:0.12162162 49:0.32432432 50:0.054054054 
-0.47243108116956711 -1 1 0.96279802078160348 1:0.21428571 2:0.32653061 3:0.040816327 4:0.16326531 5:0.25510204 6:0.10204082 7:0.46938776 8:0.17346939 9:0.19387755 10:0.06122449 11:0.24489796 12:0.30612245 13:0.24489796 14:0.1122449 15:0.091836735 16:0.10204082 17:0.26530612 18:0.18367347 19:0.15306122 20:0.29591837 21:0.15306122 22:0.16326531 23:0.34693878 24:0.020408163 25:0.31632653 26:0.43877551 27:0.29591837 28:0.21428571 29:0.030612245 30:0.020408163 31:0.030612245 32:0.010204082 33:0.091836735 34:0.39795918 35:0.46938776 36:0.051020408 37:0.14285714 38:0.26530612 39:0.36734694 40:0.17346939 41:0.081632653 42:0.091836735 43:0.23469388 44:0.091836735 45:0.5 46:0.30612245 47:0.31632653 48:0.18367347 49:0.1122449 50:0.081632653 
-1 -1 0.98559546730780478 0.58085850790079552 1:0.18796992 2:0.21804511 3:0.12781955 4:0.18045113 5:0.28571429 6:0.2481203 7:0.54887218 8:0.12781955 9:0.022556391 10:0.052631579 11:0.60902256 12:0.045112782 13:0.11278195 14:0.21052632 15:0.022556391 16:0.15037594 17:0.23308271 18:0.15037594 19:0.14285714 20:0.32330827 21:0.037593985 22:0.12781955 23:0.17293233 24:0.27067669 25:0.39097744 26:0.4887218 27:0.2556391 28:0.060150376 29:0.067669173 30:0.12781955 31:0.21052632 32:0.15037594 33:0.23308271 34:0.07518797 35:0.33082707 36:0.067669173 37:0.18045113 38:0.12781955 39:0.27819549 40:0.34586466 41:0.037593985 42:0.18796992 43:0.14285714 44:0.16541353 45:0.46616541 46:0.32330827 47:0.19548872 48:0.2481203 49:0.14285714 50:0.090225564 
-0.89800636719940341 -1 0.71530052872858374 0.64011416554348721 1:0.074766355 2:0.48598131 3:0.018691589 4:0.065420561 5:0.35514019 6:0.056074766 7:0.14018692 8:0.6728972 9:0.037383178 10:0.093457944 11:0.1682243 12:0.22429907 13:0.14018692 14:0.046728972 15:0.42056075 16:0.028037383 17:0.4953271 18:0.046728972 19:0.046728972 20:0.38317757 21:0.08411215 22:0.44859813 23:0.037383178 24:0.22429907 25:0.20560748 26:0.29906542 27:0.074766355 28:0.074766355 29:0.44859813 30:0.10280374 31:0.12149533 32:0.12149533 33:0.11214953 34:0.27102804 35:0.37383178 36:0.028037383 37:0.046728972 38:0.20560748 39:0.42056075 40:0.29906542 41:0.046728972 42:0.065420561 43:0.13084112 44:0.48598131 45:0.27102804 46:0.37383178 47:0.046728972 48:0.18691589 49:0.31775701 50:0.074766355 
-1 -1 -1 1 1:0.02 2:0.18 3:0.49 4:0.29 5:0.02 6:0.165 7:0.315 8:0.14 9:0.34 10:0.04 11:0.47 12:0.365 13:0.12 14:0.02 15:0.025 16:0.17 17:0.435 18:0.09 19:0.255 20:0.05 21:0.32 22:0.485 23:0.05 24:0.09 25:0.055 26:0.125 27:0.19 28:0.335 29:0.255 30:0.095 31:0.09 32:0.09 33:0.28 34:0.415 35:0.125 36:0.04 37:0.105 38:0.18 39:0.455 40:0.22 41:0.01 42:0.28 43:0.18 44:0.27 45:0.26 46:0.465 47:0.04 48:0.36 49:0.065 50:0.07 
-0.52224314847864339 -0.24096387972181307 -0.86520567551292116 0.62785318674382407 1:0.079787234 2:0.16489362 3:0.19680851 4:0.41489362 5:0.14361702 6:0.40425532 7:0.38829787 8:0.11170213 9:0.04787234 10:0.04787234 11:0.7287234 12:0.14893617 13:0.058510638 14:0.04787234 15:0.015957447 16:0.24468085 17:0.10106383 18:0.56382979 19:0.053191489 20:0.037234043 21:0.074468085 22:0.15957447 23:0.17021277 24:0.47340426 25:0.12234043 26:0.40957447 27:0.13829787 28:0.15425532 29:0.22340426 30:0.074468085 31:0.18617021 32:0.21276596 33:0.18617021 34:0.11170213 35:0.30319149 36:0.19148936 37:0.026595745 38:0.021276596 39:0.34042553 40:0.42021277 41:0.026595745 42:0.04787234 43:0.058510638 44:0.063829787 45:0.80319149 46:0.53723404 47:0.26595745 48:0.12234043 49:0.053191489 50:0.021276596 
-0.98120229037311613 -0.94553479864724643 -0.84750582924940265 0.9320857500335511 1:0.16939891 2:0.36065574 3:0.15846995 4:0.27868852 5:0.032786885 6:0.076502732 7:0.071038251 8:0.61748634 9:0.12568306 10:0.10928962 11:0.22404372 12:0.40983607 13:0.1420765 14:0.13661202 15:0.087431694 16:0.06010929 17:0.65027322 18:0.2295082 19:0.043715847 20:0.016393443 21:0.50819672 22:0.038251366 23:0.27868852 24:0.12568306 25:0.049180328 26:0.15300546 27:0.14754098 28:0.081967213 29:0.092896175 30:0.52459016 31:0.043715847 32:0.22404372 33:0.22404372 34:0.29508197 35:0.21311475 36:0.12568306 37:0.12021858 38:0.16393443 39:0.24043716 40:0.34972678 41:0.071038251 42:0.13661202 43:0.13114754 44:0.06557377 45:0.59562842 46:0.10382514 47:0.48087432 48:0.34972678 49:0.038251366 50:0.027322404 
-1 -1 -1 0.88518690243000764 1:0.24806202 2:0.17054264 3:0.069767442 4:0.10077519 5:0.41085271 6:0.062015504 7:0.17054264 8:0.29457364 9:0.2248062 10:0.24806202 11:0.51937984 12:0.03875969 13:0.2248062 14:0.13953488 15:0.07751938 16:0.37984496 17:0.054263566 18:0.07751938 19:0.15503876 20:0.33333333 21:0.062015504 22:0.26356589 23:0.15503876 24:0.30232558 25:0.21705426 26:0.58139535 27:0.13178295 28:0.085271318 29:0.062015504 30:0.13953488 31:0.07751938 32:0.062015504 33:0.054263566 34:0.45736434 35:0.34883721 36:0.069767442 37:0.015503876 38:0.023255814 39:0.15503876 40:0.73643411 41:0.03875969 42:0.046511628 43:0.14728682 44:0.24806202 45:0.51937984 46:0.20155039 47:0.3875969 48:0.085271318 49:0.23255814 50:0.093023256 
-0.6147687599870324 -0.43907103398694969 -0.45278153789341868 0.66671338242292444 1:0.1005291 2:0.095238095 3:0.20634921 4:0.21693122 5:0.38095238 6:0.60846561 7:0.12698413 8:0.021164021 9:0.1005291 10:0.14285714 11:0.64021164 12:0.042328042 13:0.11640212 14:0.19047619 15:0.010582011 16:0.19047619 17:0.43386243 18:0.28571429 19:0.052910053 20:0.037037037 21:0.40740741 22:0.56084656 24:0.0052910053 25:0.026455026 26:0.43386243 27:0.18518519 28:0.068783069 29:0.11640212 30:0.1957672 31:0.26455026 32:0.021164021 33:0.11640212 34:0.45502646 35:0.14285714 36:0.047619048 37:0.0052910053 38:0.010582011 39:0.14814815 40:0.78835979 41:0.0052910053 43:0.0052910053 44:0.042328042 45:0.94708995 46:0.71428571 47:0.23809524 48:0.031746032 49:0.010582011 50:0.0052910053 
-1 -1 -1 0.58485748001205506 1:0.013986014 2:0.034965035 3:0.27972028 4:0.37762238 5:0.29370629 6:0.097902098 7:0.29370629 8:0.3006993 9:0.22377622 10:0.083916084 11:0.44755245 12:0.28671329 13:0.15384615 14:0.055944056 15:0.055944056 16:0.18181818 17:0.43356643 18:0.27972028 19:0.048951049 20:0.055944056 21:0.18181818 22:0.18881119 23:0.18881119 24:0.16083916 25:0.27972028 26:0.27972028 27:0.15384615 28:0.23776224 29:0.21678322 30:0.11188811 31:0.076923077 32:0.090909091 33:0.25874126 34:0.28671329 35:0.28671329 36:0.26573427 37:0.25174825 38:0.16783217 39:0.11888112 40:0.1958042 41:0.090909091 42:0.055944056 43:0.083916084 44:0.21678322 45:0.55244755 46:0.18881119 47:0.36363636 48:0.27272727 49:0.13286713 50:0.041958042 
-1 -1 -1 1 1:0.16374269 2:0.20467836 3:0.22807018 4:0.39181287 5:0.011695906 6:0.53216374 7:0.36842105 8:0.087719298 10:0.011695906 11:0.20467836 12:0.52631579 13:0.1871345 14:0.076023392 15:0.0058479532 16:0.19298246 17:0.39766082 18:0.16959064 19:0.19298246 20:0.046783626 21:0.47368421 22:0.093567251 23:0.070175439 24:0.33918129 25:0.023391813 26:0.5497076 27:0.22222222 28:0.13450292 29:0.052631579 30:0.040935673 31:0.30994152 32:0.34502924 33:0.1754386 34:0.099415205 35:0.070175439 36:0.52046784 37:0.12865497 38:0.11111111 39:0.029239766 40:0.21052632 41:0.3625731 42:0.023391813 43:0.023391813 44:0.023391813 45:0.56725146 46:0.56140351 47:0.029239766 48:0.023391813 49:0.035087719 50:0.35087719 
-0.28228039894862506 -0.0046874372563085569 -0 0.51801054733902241 1:0.26519337 2:0.14917127 3:0.25414365 4:0.31491713 5:0.016574586 6:0.4640884 7:0.24309392 8:0.17679558 9:0.082872928 10:0.033149171 11:0.75138122 12:0.17679558 13:0.033149171 14:0.033149171 15:0.0055248619 16:0.34254144 17:0.22099448 18:0.38674033 19:0.027624309 20:0.022099448 21:0.12154696 22:0.19889503 23:0.23756906 24:0.40331492 25:0.038674033 26:0.43646409 27:0.21546961 28:0.14364641 29:0.12707182 30:0.077348066 31:0.17127072 32:0.11049724 33:0.39779006 34:0.17127072 35:0.14917127 36:0.011049724 37:0.022099448 38:0.038674033 39:0.10497238 40:0.82320442 41:0.0055248619 42:0.0055248619 43:0.011049724 44:0.016574586 45:0.96132597 46:0.53038674 47:0.22099448 48:0.071823204 49:0.099447514 50:0.077348066 
-0.93599298529690012 -0.73987267589645589 -0.84349370929333412 0.8889857602684077 1:0.092391304 2:0.092391304 3:0.30978261 4:0.44565217 5:0.059782609 6:0.76086957 7:0.10326087 8:0.0054347826 10:0.13043478 11:0.51630435 12:0.30978261 13:0.086956522 14:0.065217391 15:0.02173913 16:0.23369565 17:0.46195652 18:0.17934783 19:0.086956522 20:0.038043478 21:0.032608696 22:0.30978261 23:0.30978261 24:0.29891304 25:0.048913043 26:0.52717391 27:0.17934783 28:0.16847826 29:0.070652174 30:0.054347826 31:0.038043478 32:0.02173913 33:0.048913043 34:0.10869565 35:0.7826087 36:0.032608696 37:0.0054347826 38:0.092391304 39:0.065217391 40:0.80434783 41:0.010869565 43:0.016304348 44:0.30434783 45:0.66847826 46:0.51086957 47:0.29347826 48:0.038043478 49:0.027173913 50:0.13043478 
-0.25219612652052559 -0.41354491920618475 -0.59700516770845746 1 1:0.11864407 2:0.084745763 3:0.14689266 4:0.41242938 5:0.23728814 6:0.39548023 7:0.40112994 8:0.11864407 9:0.06779661 10:0.016949153 11:0.38418079 12:0.29943503 13:0.13559322 14:0.11864407 15:0.062146893 16:0.10169492 17:0.09039548 18:0.57627119 19:0.20338983 20:0.028248588 21:0.09039548 22:0.33333333 23:0.44632768 24:0.10734463 25:0.02259887 26:0.25423729 27:0.35028249 28:0.25423729 29:0.073446328 30:0.06779661 31:0.20903955 32:0.04519774 33:0.096045198 34:0.45762712 35:0.1920904 36:0.084745763 37:0.29943503 38:0.16384181 39:0.073446328 40:0.37853107 41:0.0056497175 42:0.011299435 43:0.028248588 44:0.079096045 45:0.87570621 46:0.48022599 47:0.36723164 48:0.050847458 49:0.033898305 50:0.06779661 
-1 -1 -1 1 1:0.24719101 2:0.26404494 3:0.11235955 4:0.12921348 5:0.24719101 6:0.34831461 7:0.19662921 8:0.32022472 9:0.095505618 10:0.039325843 11:0.14044944 12:0.2752809 13:0.24719101 14:0.25842697 15:0.078651685 16:0.26404494 17:0.19662921 18:0.14044944 19:0.25280899 20:0.14606742 21:0.1741573 22:0.30337079 23:0.37078652 24:0.04494382 25:0.10674157 26:0.33146067 27:0.02247191 28:0.08988764 29:0.25280899 30:0.30337079 31:0.43258427 32:0.15730337 33:0.12359551 34:0.056179775 35:0.23033708 36:0.29775281 37:0.13483146 38:0.028089888 39:0.033707865 40:0.50561798 41:0.11235955 42:0.050561798 43:0.095505618 44:0.084269663 45:0.65730337 46:0.56741573 47:0.25842697 48:0.084269663 49:0.06741573 50:0.02247191 
-0.77865549886364871 -1 -1 1 1:0.30243902 2:0.073170732 3:0.11219512 4:0.26829268 5:0.24390244 6:0.48780488 7:0.23414634 8:0.13658537 9:0.087804878 10:0.053658537 11:0.48292683 12:0.36097561 13:0.097560976 14:0.048780488 15:0.0097560976 16:0.13170732 17:0.26829268 18:0.25365854 19:0.28780488 20:0.058536585 21:0.12195122 22:0.1902439 23:0.1902439 24:0.4097561 25:0.087804878 26:0.28292683 27:0.087804878 28:0.073170732 29:0.2 30:0.35609756 31:0.043902439 32:0.22926829 33:0.23414634 34:0.13170732 35:0.36097561 36:0.024390244 37:0.068292683 38:0.30243902 39:0.4097561 40:0.19512195 41:0.1804878 42:0.10243902 43:0.10731707 44:0.087804878 45:0.52195122 46:0.82926829 47:0.058536585 48:0.029268293 49:0.034146341 50:0.048780488 
-0.31398169236767071 -0.68422000087370072 -1 -0.77995131946342455 1:0.045016077 2:0.25080386 3:0.35048232 4:0.12861736 5:0.22508039 6:0.1607717 7:0.37620579 8:0.29903537 9:0.11897106 10:0.045016077 11:0.38906752 12:0.40514469 13:0.15434084 14:0.032154341 15:0.019292605 16:0.057877814 17:0.035369775 18:0.19935691 19:0.5755627 20:0.1318328 21:0.11575563 22:0.11254019 23:0.21864952 24:0.50482315 25:0.048231511 26:0.47909968 27:0.33762058 28:0.051446945 29:0.08681672 30:0.045016077 31:0.13826367 32:0.16398714 33:0.18006431 34:0.1414791 35:0.37620579 36:0.07073955 37:0.13504823 38:0.099678457 39:0.36334405 40:0.33118971 41:0.0064308682 42:0.035369775 43:0.13504823 44:0.22829582 45:0.59485531 46:0.65273312 47:0.20578778 48:0.083601286 49:0.048231511 50:0.0096463023 
-0 -0.46662353132107243 -0.1238877277622922 -0 1:0.051470588 2:0.36764706 3:0.34558824 4:0.17279412 5:0.0625 6:0.21691176 7:0.48897059 8:0.15441176 9:0.080882353 10:0.058823529 11:0.091911765 12:0.45588235 13:0.36397059 14:0.051470588 15:0.036764706 16:0.20955882 17:0.055147059 18:0.375 19:0.20588235 20:0.15441176 21:0.13602941 22:0.24264706 23:0.31985294 24:0.25 25:0.051470588 26:0.52941176 27:0.24632353 28:0.14705882 29:0.025735294 30:0.051470588 31:0.13602941 32:0.45588235 33:0.32720588 34:0.058823529 35:0.022058824 36:0.055147059 37:0.080882353 38:0.21691176 39:0.44485294 40:0.20220588 41:0.014705882 42:0.0036764706 43:0.055147059 44:0.23161765 45:0.69485294 46:0.76838235 47:0.12867647 48:0.066176471 49:0.025735294 50:0.011029412 
-0.54800002492421507 -0.91857392885215594 -0.90837075438490478 -1 1:0.060714286 2:0.425 3:0.27857143 4:0.20357143 5:0.032142857 6:0.34642857 7:0.41428571 8:0.19642857 9:0.021428571 10:0.021428571 11:0.18214286 12:0.44642857 13:0.30714286 14:0.053571429 15:0.010714286 16:0.44642857 17:0.32857143 18:0.078571429 19:0.125 20:0.021428571 21:0.057142857 22:0.58214286 23:0.175 24:0.082142857 25:0.10357143 26:0.39285714 27:0.30714286 28:0.042857143 29:0.12857143 30:0.12857143 31:0.22142857 32:0.15714286 33:0.29642857 34:0.067857143 35:0.25714286 36:0.014285714 37:0.014285714 38:0.13928571 39:0.275 40:0.55714286 41:0.021428571 42:0.014285714 43:0.025 44:0.325 45:0.61428571 46:0.44642857 47:0.17857143 48:0.26785714 49:0.057142857 50:0.05 
-1 -1 -1 -1 1:0.976 5:0.024 6:0.976 10:0.024 11:0.976 15:0.024 16:0.024 17:0.224 18:0.288 19:0.352 20:0.112 21:0.04 22:0.112 23:0.312 24:0.328 25:0.208 26:0.824 27:0.048 28:0.056 29:0.024 30:0.048 31:0.08 32:0.344 33:0.296 34:0.224 35:0.056 36:0.008 38:0.08 39:0.264 40:0.648 41:0.08 42:0.016 43:0.208 44:0.272 45:0.424 46:0.976 50:0.024 
-0.48711977649292187 -1 -0.94626873152138102 -1 1:0.037656904 3:0.43096234 4:0.42259414 5:0.10878661 6:0.19665272 7:0.16317992 8:0.29707113 9:0.26359833 10:0.079497908 11:0.16736402 12:0.29288703 13:0.17573222 14:0.19246862 15:0.17154812 16:0.025104603 17:0.30125523 18:0.29707113 19:0.31380753 20:0.062761506 21:0.13807531 22:0.23012552 23:0.19246862 24:0.35564854 25:0.083682008 26:0.39748954 27:0.27196653 28:0.17154812 29:0.10041841 30:0.058577406 31:0.20502092 32:0.26778243 33:0.25941423 34:0.083682008 35:0.18410042 36:0.071129707 37:0.0041841004 38:0.14644351 39:0.37238494 40:0.40585774 41:0.046025105 42:0.10041841 43:0.17573222 44:0.20083682 45:0.47698745 46:0.84937238 47:0.092050209 48:0.020920502 49:0.0083682008 50:0.029288703 
-0.55277960557269734 -0.5589442803998298 -0.31595416505057861 -1 1:0.1 2:0.25357143 3:0.35357143 4:0.24642857 5:0.046428571 6:0.22857143 7:0.29642857 8:0.25714286 9:0.18214286 10:0.035714286 11:0.23571429 12:0.58928571 13:0.12142857 14:0.039285714 15:0.014285714 16:0.63214286 17:0.23214286 18:0.025 19:0.096428571 20:0.014285714 21:0.16428571 22:0.50714286 23:0.29642857 24:0.021428571 25:0.010714286 26:0.33214286 27:0.37857143 28:0.092857143 29:0.10714286 30:0.089285714 31:0.18928571 32:0.16071429 33:0.23214286 34:0.23571429 35:0.18214286 36:0.085714286 37:0.18928571 38:0.096428571 39:0.11428571 40:0.51428571 41:0.017857143 42:0.035714286 43:0.13928571 44:0.1 45:0.70714286 46:0.70357143 47:0.14285714 48:0.096428571 49:0.046428571 50:0.010714286 
-0.9231921835462239 -0.6709904396340054 -0.79391023682354545 -0.97207792808882743 1:0.39344262 2:0.19672131 3:0.13114754 4:0.13114754 5:0.14754098 6:0.31147541 7:0.14754098 8:0.3442623 9:0.13114754 10:0.06557377 11:0.13114754 12:0.19672131 13:0.18032787 14:0.21311475 15:0.27868852 16:0.098360656 17:0.016393443 18:0.032786885 19:0.72131148 20:0.13114754 21:0.1147541 22:0.098360656 23:0.098360656 24:0.62295082 25:0.06557377 26:0.098360656 27:0.016393443 28:0.50819672 29:0.18032787 30:0.19672131 31:0.13114754 32:0.2295082 33:0.26229508 34:0.19672131 35:0.18032787 36:0.032786885 37:0.06557377 38:0.049180328 39:0.06557377 40:0.78688525 41:0.016393443 42:0.016393443 44:0.098360656 45:0.86885246 46:0.90163934 47:0.049180328 48:0.032786885 50:0.016393443 
-0.46406212156035886 -0.22985154542482469 -0.71624021156200202 -1 1:0.17192982 2:0.18947368 3:0.27719298 4:0.26666667 5:0.094736842 6:0.51578947 7:0.41403509 8:0.045614035 9:0.014035088 10:0.010526316 11:0.4245614 12:0.25614035 13:0.22105263 14:0.084210526 15:0.014035088 16:0.11929825 17:0.014035088 18:0.55789474 19:0.27719298 20:0.031578947 21:0.36491228 22:0.28070175 23:0.3122807 24:0.01754386 25:0.024561404 26:0.50526316 27:0.38245614 28:0.059649123 29:0.024561404 30:0.028070175 31:0.038596491 32:0.14736842 33:0.24561404 34:0.34035088 35:0.22807018 36:0.049122807 37:0.063157895 38:0.087719298 39:0.2877193 40:0.5122807 41:0.01754386 42:0.024561404 43:0.070175439 44:0.24912281 45:0.63859649 46:0.84561404 47:0.052631579 48:0.038596491 49:0.038596491 50:0.024561404 
-1 -0.88240496568080951 -0.97108082011567309 -1 1:0.060606061 2:0.090909091 3:0.44588745 4:0.3030303 5:0.0995671 6:0.31601732 7:0.41125541 8:0.15584416 9:0.095238095 10:0.021645022 11:0.19480519 12:0.30735931 13:0.26839827 14:0.15584416 15:0.073593074 16:0.025974026 17:0.26406926 18:0.28571429 19:0.28138528 20:0.14285714 21:0.16017316 22:0.12121212 23:0.44155844 24:0.21212121 25:0.064935065 26:0.17316017 27:0.043290043 28:0.064935065 29:0.064935065 30:0.65367965 31:0.03030303 32:0.025974026 33:0.2034632 34:0.15584416 35:0.58441558 36:0.38095238 37:0.14285714 38:0.1991342 39:0.090909091 40:0.18614719 41:0.0043290043 42:0.017316017 43:0.021645022 44:0.25974026 45:0.6969697 46:0.62770563 47:0.24242424 48:0.077922078 49:0.025974026 50:0.025974026 
-1 -1 -1 -1 1:0.11173184 2:0.41899441 3:0.20111732 4:0.17318436 5:0.094972067 6:0.1452514 7:0.69832402 8:0.13128492 9:0.01396648 10:0.011173184 11:0.23184358 12:0.16201117 13:0.33798883 14:0.23743017 15:0.030726257 16:0.033519553 17:0.12011173 18:0.58379888 19:0.24022346 20:0.022346369 21:0.12849162 22:0.4972067 23:0.19553073 24:0.072625698 25:0.10614525 26:0.44692737 27:0.26536313 28:0.20111732 29:0.05027933 30:0.036312849 31:0.31843575 32:0.21787709 33:0.15083799 34:0.15363128 35:0.15921788 36:0.12849162 37:0.30167598 38:0.18435754 39:0.12569832 40:0.25977654 41:0.041899441 42:0.075418994 43:0.33519553 44:0.17597765 45:0.37150838 46:0.36592179 47:0.19273743 48:0.21787709 49:0.20111732 50:0.022346369 
-0.59835494881718809 -1 -1 -0.35166376169754043 1:0.0234375 2:0.2890625 3:0.1171875 4:0.41015625 5:0.16015625 6:0.0625 7:0.4375 8:0.33984375 9:0.13671875 10:0.0234375 11:0.1015625 12:0.20703125 13:0.3828125 14:0.2109375 15:0.09765625 16:0.03515625 17:0.0234375 18:0.02734375 19:0.484375 20:0.4296875 21:0.01953125 22:0.02734375 23:0.1953125 24:0.5390625 25:0.21875 26:0.54296875 27:0.20703125 28:0.15234375 29:0.015625 30:0.08203125 31:0.30078125 32:0.26953125 33:0.26953125 34:0.07421875 35:0.0859375 36:0.0625 37:0.0625 38:0.12890625 39:0.36328125 40:0.3828125 41:0.01171875 42:0.03125 43:0.07421875 44:0.3671875 45:0.515625 46:0.7734375 47:0.203125 48:0.01953125 50:0.00390625 
-1 -1 -1 -1 1:0.1026616 2:0.36501901 3:0.1634981 4:0.087452471 5:0.28136882 6:0.28897338 7:0.50190114 8:0.17490494 9:0.019011407 10:0.015209125 11:0.23193916 12:0.45627376 13:0.24334601 14:0.049429658 15:0.019011407 16:0.61977186 17:0.15589354 18:0.0038022814 19:0.13307985 20:0.087452471 21:0.7148289 22:0.16730038 23:0.079847909 24:0.030418251 25:0.0076045627 26:0.064638783 27:0.011406844 28:0.091254753 29:0.34980989 30:0.48288973 31:0.041825095 32:0.18631179 33:0.14828897 34:0.076045627 35:0.54752852 36:0.27376426 37:0.23954373 38:0.15969582 39:0.1634981 40:0.1634981 41:0.034220532 42:0.022813688 43:0.22053232 44:0.25475285 45:0.46768061 46:0.38022814 47:0.33460076 48:0.17490494 49:0.072243346 50:0.038022814 
